{
  "num_layers":3,
  "sizes":[
    784,
    30,
    10
  ],
  "biases":[
    [
      [
        -2.914662552913961
      ],
      [
        -0.32871315274631957
      ],
      [
        -0.1545529589155026
      ],
      [
        2.4812717608513326
      ],
      [
        0.41469164649579854
      ],
      [
        -0.13532627907570882
      ],
      [
        1.0313565095698418
      ],
      [
        -0.19831181853038773
      ],
      [
        1.6754448948330962
      ],
      [
        -0.3463817220685665
      ],
      [
        0.8611093562514798
      ],
      [
        -2.0620076934964775
      ],
      [
        -2.6802422103347383
      ],
      [
        -6.652553822341506
      ],
      [
        -0.032899356221937
      ],
      [
        -0.7753026633634238
      ],
      [
        2.487405142542632
      ],
      [
        3.8880662303206255
      ],
      [
        -0.1193487499885453
      ],
      [
        -1.024173057819272
      ],
      [
        -1.9052784144466555
      ],
      [
        -3.972099357466896
      ],
      [
        4.068960968393488
      ],
      [
        -3.8270057844338385
      ],
      [
        0.5306854566295254
      ],
      [
        0.5472348457768652
      ],
      [
        0.8044383583647637
      ],
      [
        -0.726457276556533
      ],
      [
        2.274357089905613
      ],
      [
        2.456706857359054
      ]
    ],
    [
      [
        -4.558644424116799
      ],
      [
        -3.6558415614459214
      ],
      [
        -6.72398489365547
      ],
      [
        -11.560842187537586
      ],
      [
        -6.28563159556905
      ],
      [
        -0.617333607384837
      ],
      [
        -3.3623218457483177
      ],
      [
        -5.320031283612638
      ],
      [
        -9.565223161420738
      ],
      [
        -4.494868912493182
      ]
    ]
  ],
  "weights":[
    [
      [
        1.0069221025702693,
        -0.26157284218953275,
        -1.7935651798509002,
        1.120404033823319,
        -0.6825318344582312,
        -0.08845599696645835,
        -1.211629406733397,
        -0.7945798637568814,
        1.0314666378741955,
        -0.5334487825626231,
        1.0979479140838508,
        -0.7752263765044306,
        0.1993320313145636,
        -0.9116660181312051,
        -1.6533223085597692,
        0.29884714247733607,
        -0.07303060919186168,
        0.4138569679732149,
        -0.5295486879162936,
        0.537798757959066,
        0.6291613522884866,
        -1.11334898356831,
        0.20751356519688535,
        0.4414164481271657,
        1.5539106035716144,
        1.8421985207157539,
        1.3856624597645675,
        -0.29214712159069,
        0.39632234909963504,
        -0.4158443912802806,
        0.2270338048566422,
        0.13366782652319206,
        -0.7710506529149852,
        0.599866247937246,
        -0.24758647507242146,
        -0.8694765315512765,
        -1.4187735519534408,
        -0.020046404572216472,
        0.05936453974879759,
        -0.38336564091251585,
        -0.42515961845201555,
        1.1241717946598053,
        0.3671337251136092,
        0.9517545870409082,
        0.45379565959538354,
        0.17630086488552285,
        -0.2951869573926206,
        0.24772588357670425,
        3.112809214903052,
        0.4868830385818963,
        0.39976684515046357,
        -0.37668146659228124,
        -0.35901288679962595,
        -0.18656205448900348,
        2.607340972814662,
        -1.140855547698902,
        -1.1139055992734004,
        -0.16440436246072002,
        -0.6443671028279853,
        0.43586776869611055,
        -0.7945104299710762,
        1.969315417649177,
        0.4336614473260003,
        0.91834884923379,
        0.8044368284933133,
        1.1755815230999862,
        1.3702993941329051,
        2.3697445035373175,
        0.39173136469183645,
        0.6864544350493359,
        2.9048443449199253,
        0.12975159979834996,
        1.9511490610321132,
        -0.6637406722205876,
        1.5144119172346677,
        0.6572784410831884,
        -0.13346453725586294,
        -1.5991433795115515,
        1.5097988341974327,
        1.8157872978753948,
        1.3722658239051462,
        -0.5263734511639988,
        -0.49948675230125705,
        -1.2505486401004837,
        -0.9244316617628823,
        1.2528542385876795,
        0.3251073530534841,
        -0.8662047457783884,
        -0.8978965420274225,
        1.4289543193832681,
        1.9238564310107151,
        0.7940023495539326,
        -1.7966012479806597,
        2.2883024860645973,
        0.3070917182093473,
        1.8007038420433958,
        2.8459151516004817,
        1.6540904091752942,
        2.259193528260962,
        2.297123687762668,
        0.23722299392820043,
        0.6118033201074159,
        2.271717147490927,
        1.6928391546875996,
        2.2524791468990455,
        0.6700385790228277,
        0.6261907326029094,
        2.2333744104758475,
        1.3550165844454387,
        0.4958456671214439,
        -0.6301850662666273,
        1.0297347744116832,
        0.26089414834327096,
        0.46733423552611253,
        1.2210514431733057,
        -0.3962540473086963,
        -0.22896114589155692,
        0.4638848189181198,
        0.26342879827671556,
        0.058477588496986053,
        1.17110207965628,
        1.609899227155477,
        3.3447956544944155,
        -0.24745262777581126,
        0.19025781882948675,
        1.2222282093110808,
        0.6169896456707856,
        1.124058511985383,
        2.2096628324002743,
        -0.05892384411384625,
        0.7853604811247079,
        0.7620099978846858,
        2.857391327246475,
        0.6748528414417475,
        2.268863260438765,
        1.057835293844779,
        1.3250580326961734,
        -1.3148232586942858,
        -0.06900593524206257,
        -0.19231488551379108,
        1.4287653560173428,
        0.09593748197539925,
        0.7582882812155396,
        0.42992914652261766,
        0.3631944705370563,
        -0.3224457426263516,
        -1.0886711413937773,
        2.2194371363509604,
        0.0802523116897224,
        1.893069200261562,
        0.5023035363138366,
        -0.7069106588563215,
        -0.02330230863120938,
        -0.6890024314076185,
        -0.30230209997263696,
        -0.19924699427708223,
        2.0325227385383973,
        0.36375438399514715,
        0.9909000032059361,
        2.8242489509817816,
        1.7308249671804892,
        1.6335434505077508,
        0.15040555138750686,
        1.0543561462408861,
        3.112685969811516,
        0.20901550242232436,
        0.7623229282537851,
        -0.3797278185093264,
        -0.2335567886110708,
        -1.8324032182988428,
        -0.903572421782082,
        -0.3531045514910079,
        0.5243792745085049,
        0.6633200567195221,
        -0.13711362745480027,
        1.3554570126464593,
        -1.038126558149895,
        -0.8183026819292067,
        0.417774584177689,
        0.3498325456715818,
        -1.33362766892686,
        -1.4035515120942879,
        -0.06022337262300826,
        2.1127578912340197,
        -0.5523865835052433,
        -0.3443998762547432,
        -1.4141878201610671,
        -2.865181958549252,
        -0.25808610141923627,
        -1.276745782265231,
        -2.1354816858368904,
        -0.8274413340392084,
        0.8834390978110706,
        -1.2998864913129895,
        0.3829096544758537,
        -0.349445367072777,
        0.20517787768176352,
        0.6948416594894236,
        -0.4158835632417298,
        -1.5196103195285977,
        0.6104377683959885,
        2.5123397630391833,
        0.47788701965844593,
        0.7390877234932501,
        1.007073090035667,
        -2.823858715141381,
        0.3124792954836182,
        -0.24871988911247794,
        -0.7301963383552424,
        -1.2753459297853422,
        -1.2138831935908148,
        -0.7984945089889358,
        0.009877887343949978,
        -2.4102364110484245,
        -0.3802776493936738,
        -0.6745598125555431,
        -0.26921772495974355,
        -1.1485323806151508,
        -0.8971907114372166,
        -1.314412541424985,
        -2.036316374633284,
        -0.5199951479852755,
        -0.5568179554946062,
        -1.1998832692725883,
        1.1432287825079175,
        0.5395463405933953,
        0.7170860436970579,
        -0.096495528539956,
        0.46756961582971046,
        -0.3473372640632188,
        0.6799243068814188,
        0.47563626271707976,
        0.6753252495670516,
        0.18188537478398764,
        -0.6090482533161908,
        -0.544441859194074,
        -1.9642512743359508,
        -2.2794835058587184,
        -0.12768347393959795,
        -1.673489051921445,
        -3.36739235785178,
        1.7922510434825143,
        -3.2023315947265614,
        -1.605257601013627,
        -1.71458264295689,
        0.20421244849074907,
        -0.8122236495396965,
        -2.623464963726222,
        -0.2849899317006781,
        1.6734339672340557,
        -0.12482061477874476,
        -1.3157493811846177,
        0.18501289876944652,
        -1.3774332466571424,
        -1.3562839274435428,
        -0.381784114898869,
        2.2720828258920807,
        -1.0143204082241464,
        2.632687789235597,
        -1.7816424343564905,
        1.4110115147232503,
        0.04083802755790341,
        0.019907043014917712,
        0.2971066643098017,
        1.4412786867582645,
        -1.5428552859983375,
        -2.384561750269132,
        0.2621208203271156,
        0.39076091858133427,
        -2.192382048896993,
        -0.1779126302394319,
        -1.6059208172517676,
        -0.7630443188155314,
        -0.3383281985578093,
        -0.2970408709699895,
        -2.80625646324238,
        -0.9927031149051637,
        -2.085697062302682,
        -0.36228425252821367,
        3.080870310889832,
        1.2715732685601737,
        0.8170119211468626,
        0.0797225236547671,
        0.33065269487088167,
        -1.4907057580652026,
        -0.6522098436490047,
        -1.0485555969656193,
        -0.6923951807097148,
        -1.0627680137935183,
        -1.0778982019815901,
        -0.8045155548165102,
        -1.6007062255455777,
        -0.7672561663147515,
        -0.013608010399965573,
        0.21144771530357118,
        -0.05838489584425045,
        -0.7364531203772627,
        -1.4109276628024583,
        -3.0563423357207338,
        -0.6387035700349786,
        1.4543258052112462,
        -0.8302561630856561,
        -3.726840824113235,
        -2.055776514483402,
        -1.5131562985701463,
        0.16908779270738616,
        -2.76828463344613,
        -1.290492096329908,
        -0.7635546670544862,
        0.42172129012898296,
        0.7921999366817026,
        0.6173183572758322,
        -1.01791482574752,
        -1.3628186378740117,
        -3.0500055703886546,
        -1.6345903376165682,
        -1.4826871247242481,
        -2.782864135148596,
        -1.0002411104146827,
        -1.0549690240711462,
        1.104901352317519,
        -0.21622316462858074,
        0.5638147142445111,
        -0.35510288659539135,
        -1.3101263228742424,
        -0.33973800847440444,
        0.2753933496140429,
        0.8242790935681399,
        -0.2013475739021763,
        -1.9566696346036765,
        -0.32730378722028325,
        0.47771865501423816,
        0.37860558602773775,
        -0.8519937345660057,
        -0.05001982045290089,
        -0.9539722320111657,
        0.7241166993247415,
        -0.33984819674675115,
        -1.9125086517912646,
        -0.2432372172778569,
        -0.9271465638782092,
        -2.470004390072362,
        -0.9374074388281802,
        0.8052144781390471,
        -1.0181824912761221,
        -0.27753336818083657,
        0.6154570050723043,
        -0.7170119007827148,
        -1.464770096190504,
        1.4436114512257605,
        1.54842335641356,
        0.9994316341518059,
        1.332721679195449,
        0.731556108337802,
        2.3517938811953947,
        -0.538181721910829,
        -0.9644024173459285,
        -0.35097519859308646,
        0.8624119703212777,
        1.5693634927083095,
        0.38831773695973026,
        0.31216101364101484,
        -0.3995587509770856,
        1.4295914423150422,
        -0.2239990302591973,
        -0.49175919862356526,
        -0.6516836009088418,
        0.314986123378734,
        0.32790988277873767,
        -1.1202611042049277,
        -1.4508358481709045,
        -0.2973632377829433,
        -0.5939215691642301,
        0.16646168445853576,
        1.1846079551381983,
        0.8181339074840405,
        -0.4476525162712974,
        -0.1546663487532128,
        1.558072086013957,
        1.272830121002397,
        0.3054300431073455,
        -0.8445352142389605,
        -1.4567101612863194,
        -0.9716312017291049,
        -0.9163012041678844,
        -0.23182084145853454,
        -0.045711378518140146,
        1.7437650587451305,
        1.8157485991675755,
        2.0217882251304204,
        -0.09268278031044977,
        1.0642016632356686,
        -1.778563731917303,
        0.2563780692628122,
        -1.0979987185427318,
        1.14329934500745,
        -0.5332192550700479,
        -0.05657307402313875,
        0.21755768627263428,
        -1.8596268019171218,
        0.19768799251925057,
        0.18744766245210814,
        -0.4817794468614304,
        -0.9658873245188686,
        -1.192633760649235,
        0.9495387564661502,
        1.023475437165558,
        -0.022386339479376592,
        1.6485725016830153,
        -1.0268982031616893,
        0.19142587903616698,
        -0.2104284724442676,
        -1.0612276761233443,
        0.8520354301087272,
        -0.3164552061760812,
        1.5147513007163935,
        1.281917322184225,
        0.23575861645725008,
        1.1745106882319107,
        1.0541256622543071,
        1.9263961054166134,
        -0.7423908561896082,
        -0.3450059971276814,
        -0.6394537512052461,
        -0.2780350376806535,
        1.2686808642440435,
        1.4842186105095112,
        1.2082971946046532,
        -0.9135843398052694,
        0.054464560893842356,
        -2.5269255656858816,
        -0.362765488902338,
        0.8565359061295772,
        2.1209179466045405,
        2.811462563995254,
        2.152541141753146,
        1.3324027451830998,
        -0.12996334860820827,
        -0.08195638653967888,
        -0.4727291312824454,
        -0.07460377032701788,
        -0.1416690054373029,
        0.3792607196607163,
        1.260333593276801,
        -0.8060848480141937,
        -0.2480567670517952,
        -0.05284590157862337,
        0.44709747422520657,
        -0.7292871299134613,
        0.6335242953985069,
        -1.1779467416129639,
        1.4696720783920718,
        1.283214232327536,
        2.3763880087158515,
        -1.6309019624724026,
        -1.9469312619871613,
        -1.3445101869996368,
        -0.22824891810210346,
        -0.7622940491474423,
        -1.3726998020132641,
        1.1073350767813026,
        1.071079827170948,
        1.2844434889557572,
        -0.29642714094699224,
        -0.6185948148472146,
        -1.7608578100159835,
        -0.28012279371196325,
        2.5248895516890126,
        0.928335100608452,
        -0.24668444749778767,
        -0.8664630847039584,
        -1.4669670133259827,
        -0.6927403790862207,
        -0.534413598253359,
        -0.7650744837359574,
        0.6938137093807392,
        0.23843446708399926,
        2.611003419987842,
        0.13000006263429606,
        0.0899283959334273,
        -1.0759567100920024,
        0.12949068508591824,
        0.5550588588125244,
        -1.25098586623212,
        -0.6932685025160035,
        -3.418207328015478,
        0.1818828733532474,
        -0.8537613821788664,
        -1.290438816102819,
        -0.31798816107246075,
        1.1276915240700307,
        -0.26319701511203525,
        -0.14927105410032962,
        0.5606116001000977,
        0.9667545834547995,
        -0.0996251210454649,
        -1.0040913798580604,
        1.0547537665702469,
        2.236320674717024,
        0.8351263483694662,
        -0.6240742034401554,
        1.4801839246185222,
        0.8442259015437898,
        0.29470152031389013,
        -1.9485708314303716,
        -1.5063000568171372,
        1.377459180451939,
        1.1586602736792535,
        -0.7164657293531215,
        -0.13374425198565967,
        -0.757112360377399,
        -0.09424168552278712,
        -0.11980678936576182,
        -1.2507235158264847,
        1.2269156507223808,
        0.10162030217771058,
        0.8766544495463224,
        -0.7636078938782528,
        1.6255240473824082,
        2.532531995852686,
        2.85405547078967,
        1.1809429439596097,
        2.0293180270168216,
        0.982643819086731,
        2.6645894421765774,
        1.3903794373898932,
        1.7555868499450105,
        1.2100264522187114,
        0.3549756718409372,
        1.0033372181503963,
        0.36205516954957845,
        -0.11720585507218767,
        -0.44368765086106027,
        1.552449453430716,
        0.5960812239583407,
        2.4983998078037595,
        -0.7577991325791237,
        0.8354280939494241,
        0.8489366375457781,
        -0.02553384091656433,
        -1.5286116229811526,
        3.2659124187293123,
        2.476307670636521,
        1.6515529767448276,
        -0.10870965730169213,
        -0.9190435214572188,
        -0.09877382750970916,
        1.1024363854878225,
        -0.8938825950255013,
        2.189031475043953,
        -0.7098218016068127,
        0.20071898909034974,
        0.894523116165715,
        0.48948263616057935,
        0.532951115617882,
        1.0556834013616194,
        0.7767055731771153,
        -0.44917236070271965,
        0.6760847959501823,
        -0.5856834959930575,
        -0.6918902349866088,
        -0.5790225099625204,
        0.28242952925300313,
        -0.0918222118145778,
        -0.527504922446095,
        -0.2379898583072533,
        0.059325268976102526,
        0.15260387916749812,
        0.31092421654692176,
        1.2099787789544094,
        0.6119104240722052,
        0.3687790746805907,
        1.0445220317155133,
        0.3879148065081556,
        1.1542962970837123,
        -0.6921576751760021,
        1.31850837592008,
        0.4484913971108334,
        1.1911486785717926,
        -0.012698100305840862,
        1.6513397967786512,
        -0.13995748099835675,
        2.645294694134115,
        1.3068368432594464,
        -1.29631880085521,
        -0.11497065271921435,
        0.24976354575213136,
        1.55601729591231,
        -0.2681093103491582,
        -0.44345048754601857,
        1.0581685456664036,
        1.7310018455106126,
        -0.24040983543584996,
        0.5849634610010278,
        -1.1062162281491619,
        0.2978831439885413,
        1.6158792401697841,
        1.0693055549266683,
        1.9499176705223922,
        0.9503382850976224,
        0.6649510413867894,
        0.8476219327690112,
        0.649341599809572,
        1.281091468782439,
        0.9474681489849641,
        1.2166746839580236,
        1.3818527265384175,
        1.372788534678885,
        2.074604014619964,
        -1.3152732787908519,
        -2.5511152742824827,
        -1.9087688636839684,
        -0.4913568434645323,
        -0.6050453872200195,
        -0.8826311145037151,
        -0.12233356020280406,
        -0.3422119435950442,
        -1.6747731402773889,
        -0.02287437343370376,
        1.330617064396808,
        2.2113306084474296,
        -0.23606005037880776,
        0.8529593870275457,
        0.5752727494160074,
        1.333111831007764,
        0.4453785620163724,
        0.722833975558628,
        -0.9867674253420065,
        -0.44597850351760154,
        1.668050246996561,
        -0.6753101552267364,
        0.6162611521354968,
        -1.2910910244042744,
        1.9194127196399553,
        -0.2507363799361278,
        0.8011454878935007,
        2.050971784540917,
        -0.852781557796469,
        -0.897894884548636,
        -1.1564769639189028,
        -1.2366705279717383,
        -0.9079045805861711,
        0.3489433524484782,
        0.43094988809142915,
        0.08669252406883106,
        1.009352407567196,
        -0.2938658389857062,
        2.3016687577358432,
        2.699600693280939,
        2.8665966938504273,
        1.4111820704804312,
        -0.09151352161438016,
        -0.302990052391242,
        0.07110048470593304,
        0.8002467583033637,
        0.5720510387357488,
        -1.0534953830577698,
        0.06947526068308851,
        -1.0621041872362722,
        1.1033972695999765,
        0.6318657624011097,
        0.47783725485888245,
        1.4442517995780204,
        2.2094576987215566,
        1.3552713822661253,
        -0.7247936734489866,
        -0.5264755399202259,
        0.4228670098838496,
        -0.02721173998180819,
        0.427445137619553,
        -0.6695114764239837,
        -0.07512020508325133,
        0.613005982436371,
        2.1093860550416506,
        -0.719290878277056,
        -0.39027825957505,
        0.21079739149916984,
        2.2723558602396725,
        0.5318259179904802,
        1.6945445255343063,
        1.4517221175105282,
        3.679557594908949,
        1.1170046834075638,
        -0.20060954020206428,
        1.3889171205608717,
        0.9316792515520089,
        0.36000152963542914,
        -0.6315740260113389,
        -1.0127454005769214,
        -0.7297907277792388,
        -1.6223003577621613,
        -1.8257206613829098,
        -0.6500181625631708,
        -0.6431008882444877,
        0.44628573932808824,
        2.1329110161413096,
        -1.6178859766733473,
        -1.4735780487034853,
        -1.205239408624232,
        1.2775252311185799,
        1.0660495745984708,
        0.07800719250641074,
        -0.3170845646495617,
        1.114997265303957,
        1.479895114044119,
        -0.5228257491228975,
        0.7972882559003691,
        1.1545815533645667,
        1.5545301937331986,
        0.31835047136714884,
        2.1534872876036157,
        1.966015225610195,
        1.0836931927395266,
        -0.009923499020402227,
        -0.22649847918488814,
        -1.196488128795484,
        -0.9047599739832395,
        -0.9228456668139987,
        -1.1575673172926237,
        -2.0820041657425996,
        0.7557601242805819,
        -0.047110829193662836,
        0.3136206959911397,
        -1.0668575141318202,
        1.1105283396687329,
        -0.9470215874524449,
        0.2085053087805204,
        -1.0850280144848012,
        -1.191990013524451,
        -1.1183664063177037,
        0.8850348571429489,
        1.330743919572009,
        0.30310255901879674,
        -0.003573008839373326,
        -1.0042671676035637,
        0.8297080216986494,
        0.95850939211949,
        -0.048865267497163176,
        -1.2901727676615162,
        0.2800990151134895,
        -0.5549193838540942,
        -0.9069367164454285,
        -1.3771666604940664,
        -0.2008325956532247,
        -0.9619658541243012,
        -0.5392944625858147,
        -0.378246143264144,
        -0.25422970081581453,
        -0.3939807051332783,
        -0.058905096611677046,
        0.19053779895703757,
        -0.6741792981125193,
        -0.41766595825890174,
        0.35771166963275625,
        0.14816242214469677,
        0.35413454213364015,
        -0.4681439599088038,
        0.07274211517556185,
        0.18973709967787797,
        -0.2642469283380559,
        -1.6203592190491787,
        0.38350112519318946,
        1.3350269620311936,
        -0.08299602059709921,
        0.6355591700866137,
        -0.1092860626419584,
        -0.6758421856461316,
        1.2531693270207152,
        1.8627709226239144,
        0.9522302335230833,
        0.7152605608445207,
        0.1734124284303578,
        0.5536618675752253,
        1.78744956247245,
        1.4577512242145496,
        -0.2337696054885116,
        -0.09568455035077861,
        0.8134428476597826,
        -0.3038228154061122,
        -0.7961554847651401,
        -0.3525747145527429,
        -1.3977206815745684,
        1.4878236920305412,
        -1.6733695641861377
      ],
      [
        -0.932876556155738,
        0.03428604748059425,
        -0.17607065962744112,
        0.6843028182700023,
        1.4411758317646772,
        -0.3363116316774035,
        0.11272322136929648,
        0.32358965186806804,
        -1.5004512081876158,
        -1.572490026422294,
        -0.31916296142248024,
        1.4593377224922932,
        -0.06524420309838591,
        0.3768032007081865,
        0.2837364963794503,
        1.6877771502369099,
        -2.5433586126008576,
        -0.5066123047128124,
        1.5550392640969706,
        -0.16525485332844955,
        0.3929625181962781,
        -2.023958818741416,
        -1.3590591490584203,
        0.21737129772984962,
        -0.7542178185383956,
        0.8906080314238214,
        0.8479009424777488,
        0.6226175332871398,
        0.4665222590273618,
        -0.05960399189280753,
        0.8178036500728002,
        0.8240202560296881,
        1.3787389072388303,
        -1.052220795115927,
        0.3910378092544012,
        1.0738901530370804,
        0.5299386026526332,
        -1.0953308179467887,
        -1.815848359861907,
        0.3372623496509539,
        -1.6478813459955588,
        -0.5844556832496354,
        0.911210539497636,
        0.6695056313080193,
        1.7827740698673173,
        -0.5420234854608341,
        0.029913073408075152,
        -1.283502848404397,
        -0.8685232761218252,
        -0.7617883317685645,
        -1.8004236179341733,
        -0.9462072709242171,
        -0.21507778460262295,
        1.0977900037076362,
        -0.0431128182914139,
        0.47872580845629115,
        0.8144681221934759,
        -1.242878980815599,
        -0.5496313935490788,
        1.8500713599780252,
        1.5585145392514808,
        0.7316999847665305,
        1.3800099205897478,
        -0.46233647948960815,
        -0.32528463048506373,
        -0.36173867515871444,
        -0.6592175159802741,
        0.47607989740068746,
        1.5533937818393249,
        -0.9184357348976216,
        -0.3009338911130793,
        1.3604049538820004,
        0.0872935663060076,
        -0.7978990014515236,
        1.4461575803862428,
        0.7583675832552356,
        1.5780103446376283,
        2.5369259566489095,
        0.8236583363553288,
        2.1332937497958904,
        0.6865866975968017,
        -2.14162107681634,
        0.6777347036854694,
        0.06743950660621209,
        -3.217967848487427,
        1.0542662648296037,
        -0.07703014640032137,
        -0.7779927241101544,
        0.09508003822479755,
        0.7550236920944516,
        0.14755039833285072,
        0.23820041371536207,
        -0.2508455683401025,
        -1.0798667374615705,
        -0.4306935637827505,
        -2.703734007027073,
        -1.096541841562448,
        0.5682200453861301,
        -1.3335158327081575,
        -0.2815626313229741,
        -0.5419979321901686,
        -0.12314072598187349,
        -0.5525839066914054,
        -0.08214355218837312,
        2.265557130290712,
        0.9569872036612614,
        -0.4573378196247938,
        -1.3838351773017317,
        -0.7680881816569504,
        0.0277070648408834,
        0.8454945052601308,
        -1.4552963037802384,
        -2.547229539000256,
        -0.07184370003514,
        1.2786156301448441,
        0.1470981563973833,
        0.8691054662142906,
        0.45959658972688805,
        -2.9175312574093977,
        1.1260631400320051,
        0.4100833135142473,
        0.6082826946805513,
        0.22066503221374212,
        0.8214480979419925,
        -0.7218067144299706,
        -0.6375547356610081,
        -0.38585650405151173,
        0.149683848532527,
        0.27300886223804427,
        -0.5120321941333457,
        -0.7375396898565597,
        0.012376213368071693,
        -0.506690991156098,
        -0.2910513503166181,
        -0.4596848124145007,
        1.0384843638809884,
        0.038541971779245066,
        0.14261802573446541,
        0.3013344910771623,
        -0.16104839574017804,
        0.4305162750016278,
        -1.6986369303183393,
        3.8042032496498246,
        0.8996221872118605,
        0.30163564819747674,
        -0.638893682146509,
        -1.3611239612181882,
        -0.42633961375633883,
        -0.7459811531892071,
        -2.099092556202691,
        0.3615869667872492,
        -1.0327865872027275,
        1.392336210170009,
        0.6856276737320794,
        1.56602325332046,
        -0.8891300708508428,
        -0.6617033521210849,
        -1.1459705461079654,
        -0.9870193167415285,
        -0.7418307297368585,
        1.468065538582714,
        -0.9768384302032571,
        -0.4550287022197525,
        2.456953019208699,
        0.93361176305466,
        2.0669712396114885,
        -0.5749552572686949,
        0.8046595035866357,
        -0.8215345506270143,
        -0.37091471256821534,
        0.40190787833424757,
        -1.1293440597422066,
        -0.2629038446529387,
        -1.0392266361421905,
        1.24234679070239,
        -0.8568201228810364,
        -0.7128987240685684,
        -2.83683934011927,
        1.9285395144354622,
        -0.9062177202624196,
        -0.494424926565348,
        -0.39465177826423337,
        -1.3660886734582,
        -1.8176827789868333,
        -2.504239094873632,
        -0.1593701183305495,
        0.8768153902352821,
        -0.9755034270423356,
        -0.6401356199092986,
        0.2049809185426165,
        1.9079630417836446,
        -0.4527106638060324,
        0.9587960624802181,
        -0.5628547531961084,
        -0.1991040992192042,
        0.5612235380954472,
        1.0243163211923028,
        -2.258409096591622,
        1.8617828053436696,
        0.616884871304174,
        0.9025336836256432,
        -0.16434421209039818,
        -0.4274739899472179,
        0.9306542454240406,
        -0.5757219728883095,
        0.13798437216943688,
        0.05259636374355198,
        -0.7717465799990134,
        0.6923748242192083,
        -0.11402205322872834,
        0.19282642948414466,
        -1.158342598913361,
        -0.5196665562422016,
        -1.7074961963890487,
        0.9351101501103238,
        -0.9033648831086274,
        0.02921099264863087,
        -3.6426694128418933,
        -0.6390428900693665,
        0.25797473285432515,
        -0.14120188124269936,
        0.6592318186812746,
        1.476161086402587,
        -1.5694733950251811,
        -0.1991567745327959,
        1.451865863631255,
        1.6071538565678551,
        -0.32793880705685297,
        -0.44947516385911035,
        -0.29876312856835585,
        2.2642579686980464,
        0.12065388828521302,
        0.7708962449178546,
        1.0490566908579813,
        0.44555055415424505,
        -0.0829601394362492,
        1.719164242436032,
        -1.1294284929803313,
        0.41863241968886195,
        0.3756090023457456,
        -1.412812737991384,
        -0.23446990654567335,
        0.4650874081388432,
        0.06540173553090757,
        1.210353346114656,
        -0.23197371739482522,
        -1.73401961522991,
        2.328937974536292,
        -0.09287987326005229,
        -0.2148722530937212,
        -1.0773029437185586,
        -1.0790286111083272,
        0.5866242896772457,
        0.032250055366917815,
        0.7381310653589642,
        1.3270348946062338,
        1.5109773767551324,
        0.7628904168981927,
        2.581980201328325,
        0.4687248552810008,
        -1.0135572903760437,
        1.6470321393399376,
        0.9934912892802918,
        1.6093145963037063,
        0.9890868274365356,
        -0.9256784726087324,
        2.3833341804701567,
        -0.7060277114964857,
        2.1280078242899245,
        0.14653743405066352,
        0.664394921072328,
        1.075053350321165,
        -0.005317268636432152,
        2.0314126844235267,
        0.6879217424362574,
        0.7189214701893629,
        1.817871018184279,
        -0.9196108637233433,
        -0.5239231402546742,
        -1.0626221480558737,
        -0.40282395816679295,
        -0.344672247978984,
        -1.0814669066186313,
        1.0001756146136647,
        -0.4505953582283619,
        3.8722966799048795,
        0.25060789695791374,
        -0.44595691053484704,
        0.07551185450874306,
        1.2099889512932842,
        1.8020577007166836,
        1.5334630144211197,
        3.193133650672436,
        3.29831479693069,
        2.2791863362069122,
        -0.7665831288102467,
        0.5977482548827403,
        1.6019838229314194,
        0.6585953526748347,
        -0.7942552062780203,
        2.6345659917145747,
        1.491311799147771,
        0.9998207877649758,
        1.1853297795874778,
        0.22646957357897518,
        0.6568522588747606,
        0.2594073419069617,
        -0.01349473882880715,
        -1.627054249358614,
        1.0003284909714218,
        1.6068663687539146,
        0.9251799117750428,
        1.0674908537608725,
        2.843497554987149,
        1.2207690685516994,
        -0.16826378234236644,
        -0.9523584139331305,
        0.20479132296837596,
        2.1128792458804675,
        1.8236658405806296,
        1.5827910999576649,
        1.3302947539631296,
        -3.628594798776365,
        -1.480458374151514,
        -1.6714202306237942,
        1.252008467861619,
        4.1774692115448735,
        2.5235257830758413,
        -0.5957982784748256,
        0.38140889052860705,
        -0.11838843399601814,
        -0.7410006594634094,
        1.6607957568393803,
        1.1291625974485076,
        -1.484354137181307,
        -0.5258594881792792,
        0.7894858690729643,
        -0.7350128999152419,
        1.738981494080522,
        1.9394025627758749,
        -1.8796199949743213,
        0.03234194227282047,
        -0.4353421688699192,
        -0.307974318843817,
        -0.21442367460924083,
        0.3675728172226432,
        -2.023746875120735,
        -0.3569338600397033,
        1.2109970471675857,
        -2.8487334304137653,
        -4.362886864073143,
        -1.5396038037424458,
        -1.0420658329638803,
        -0.47566949650587087,
        0.538761643967904,
        -1.4790398101321711,
        -3.138155096362962,
        -0.4226961348595945,
        0.42432694744771626,
        0.16686883756767268,
        -0.18737084437883128,
        1.83251337475727,
        -1.9809580872151173,
        -2.2692486517659622,
        2.2857659676955393,
        -0.12663424547880206,
        0.21828236377179452,
        0.12476154755700201,
        -0.4195193650785166,
        -0.1455505436613814,
        -1.4823552440548164,
        0.9089768432404594,
        -0.09579125045999044,
        0.1447764475630526,
        2.1085226340118743,
        1.4978178742671713,
        -1.2749774282656887,
        -6.098967495341664,
        -2.2003915894231336,
        -3.404838626232274,
        -0.38856725588154367,
        -0.7488329202327723,
        -0.9456684476076159,
        -2.0088904862348285,
        0.7579768679978282,
        0.8922737943899975,
        0.7051398778465751,
        -0.5426120923002138,
        0.019139215474214717,
        -0.7492410777426624,
        -0.2873195247953137,
        -0.012019470816374361,
        -1.052904639419622,
        -0.2786536686556195,
        1.160519238557807,
        -1.2972377110397058,
        -1.7995052501312865,
        2.641209051067202,
        0.09619897879263649,
        -0.6421021113889207,
        0.9185219335068091,
        -0.25667558092179155,
        0.2113061896587327,
        -0.9319778719687686,
        -2.879873521450442,
        -4.539801964369058,
        -0.7910979164613432,
        -1.3603088137631367,
        -2.8541733462348717,
        -3.199384765729245,
        -1.913091038919206,
        -0.051209918532068445,
        -1.7091344147201766,
        -1.2150803633814247,
        0.08096220120961711,
        1.5939063491521712,
        0.34408249411883246,
        1.4116001573076777,
        -0.2815647640546598,
        0.024651134030728036,
        -1.6321135500760329,
        2.7382179865853473,
        0.06151385287285345,
        -1.476236058583046,
        -0.18405064212487904,
        -1.9168082931564507,
        -1.022249838004627,
        1.9877789819518807,
        0.09182038456030725,
        0.23639301181393582,
        0.1065462357180489,
        -2.942838178535885,
        -2.9074175539146414,
        -4.330605211216091,
        -1.4460542012481357,
        -0.3640200337031369,
        -2.4387342331072426,
        -1.3913015282432897,
        -2.2874447178844663,
        -0.986957395155806,
        -2.084361084705432,
        -1.1921583360255419,
        -0.4424783278252839,
        0.8911551450041466,
        -1.9001827290534987,
        0.347494100728491,
        -0.40086136245872656,
        -0.5015763453102093,
        -0.22971316901520647,
        0.15382590381200462,
        -0.9343039734874161,
        0.4488031249976189,
        1.17854370617004,
        1.1602003858870105,
        0.8361001078514612,
        -0.9101208167187113,
        -1.4945941702106218,
        -0.938411356684876,
        0.035251308402999046,
        -4.370764844579486,
        -1.7913380548847633,
        -1.9852132454841958,
        -1.5065533376339135,
        0.08067674537309268,
        -1.4359406306133118,
        0.7777961618638578,
        -0.574999291492874,
        0.30247217196641596,
        -0.13215026608561112,
        1.1424629333965008,
        2.296366290669693,
        -1.704763283973213,
        0.5108878053764327,
        0.3448041579748118,
        -1.2367878311454605,
        -0.599698471468083,
        1.276504844540804,
        0.38806109518160714,
        2.396548172072493,
        -0.4705803690145908,
        -0.10304317470937668,
        -0.24898655862260263,
        1.272339536380893,
        -0.8628599554962446,
        -0.3103629609780671,
        -1.7626676988194596,
        -0.09768783121177105,
        -1.7240921585950746,
        -2.5544112194748956,
        -2.9234847198622513,
        1.789456804741601,
        0.7274891875637894,
        -1.6033659945681926,
        1.9820071071978165,
        -1.555942737682462,
        0.6401723908257704,
        -1.9878861286530896,
        0.9624763488684328,
        -2.417295138868855,
        0.6664127331522751,
        0.7547065964301013,
        0.7317066603270004,
        -0.03067695423023116,
        0.4030481970840043,
        0.6220132132927427,
        -1.0583896053960906,
        -1.2112400238539525,
        -0.21052960405260526,
        -0.5697573768608344,
        -0.4196007970355323,
        -1.1629252404435773,
        -0.6697324041652165,
        -3.0220139950334963,
        -0.2854077275213613,
        -2.000823385659319,
        -1.3059042830049863,
        -2.5910482058999666,
        -2.3628687125519847,
        -1.8513780759099987,
        -1.3383276701867906,
        -1.2104767871412965,
        0.5596487507321658,
        0.8110353159433181,
        0.25605085737818967,
        -0.17012199736618117,
        1.9902502777844508,
        0.2718748029809235,
        1.7470540302194484,
        -0.007495322627948038,
        0.530375582693233,
        -0.6194401189745261,
        0.7833062019527179,
        -1.7530366420791041,
        -0.8704549631004881,
        -0.38124747331189757,
        -0.9620507325895178,
        -0.06820405396214038,
        -0.4259168994621943,
        0.20598049597916526,
        -0.9348061465162617,
        -1.0072055871026226,
        -0.18110423502018405,
        -0.5110994158862584,
        -0.733606329269645,
        -0.8033468005159867,
        -0.21381668250552258,
        -0.5187522008376195,
        0.33976116505017717,
        -0.2533025183837584,
        -0.5001391484009993,
        1.0986554089050373,
        0.5767431795185427,
        1.510819152042565,
        0.7990859237489608,
        0.7118540670888005,
        1.574409194646805,
        1.3355545277813003,
        0.8142917278998077,
        -1.705122911584022,
        -0.848818429496683,
        -1.0006344543785504,
        0.6851281907164057,
        -1.136267048494119,
        -1.0550902168073388,
        1.9903871233314263,
        -0.7010302689428161,
        0.703991881073378,
        0.8552063445452884,
        0.4459357167015986,
        0.11623066477653342,
        -0.26196406838236963,
        1.101715819547325,
        2.087757498145267,
        2.2076899516026587,
        -0.6004064277962988,
        0.3212812347123472,
        -0.5666069395855001,
        0.08168954308548233,
        0.02919487940415216,
        1.1843581890696833,
        -2.843157858510132,
        -0.06481902490467759,
        -1.487976405309861,
        -0.8832724471817852,
        2.1201026559373632,
        -0.3866964780207319,
        0.36583486464464854,
        0.5440497438636236,
        -1.4386612125026634,
        2.076946622666749,
        2.8043171149605604,
        -0.2321648585285409,
        -0.04950933155221615,
        2.3022948424357312,
        0.7501903973322229,
        -0.08094861362249899,
        2.2638177453330908,
        1.5752064395291607,
        0.7297744377669431,
        2.0578908515622456,
        0.3474134149912691,
        2.8619517803384174,
        -0.04639429767753574,
        2.759634786503063,
        -0.6624228907475541,
        1.7619666750742866,
        -0.05524714836842097,
        0.6151113381985255,
        -0.5403148707878452,
        -0.18090217872645883,
        0.8018606227785032,
        -0.29379860673937214,
        0.46845751645929323,
        -0.8168567538786162,
        1.5414526341959767,
        2.106555941198515,
        -0.5992202787531209,
        1.3212604701391868,
        -1.0080038520224366,
        -2.427224163521113,
        0.784642766142577,
        1.4882264556273883,
        0.23288658462293252,
        -0.20454230729754266,
        1.958167748877306,
        2.9884370414136003,
        0.0260661930618148,
        -0.4946296940960293,
        1.8985143109197697,
        2.2935453102230965,
        -0.5568622751821662,
        2.1842403401804065,
        1.510331105727983,
        1.1168121089087746,
        1.7810085281377428,
        0.4022100654849645,
        -1.3501603342204491,
        1.1032548079925495,
        -0.7911972006967256,
        -0.17952097876334036,
        -0.2803536808838493,
        0.4894274662501855,
        0.38057063257309875,
        -0.5467885492739557,
        -0.9198621848905167,
        1.6018649471013,
        -0.8917618061187758,
        -0.27973471610446154,
        0.5277361177274141,
        2.6339358390963588,
        -1.4768138132365816,
        0.07587261140837426,
        1.4573486713893764,
        1.0627954505390886,
        1.5321705728471224,
        1.3314024248188396,
        1.0288968497178947,
        -1.1229860255735595,
        0.7269118226083846,
        0.6278696458294154,
        0.9099032075199289,
        0.4534290310022729,
        1.2183987800316445,
        0.37695903555942833,
        -2.44811643133203,
        -0.560376804743549,
        0.28362280094977677,
        0.6495115315309681,
        -0.04686074841116649,
        1.3460303794489479,
        -0.4952643575731266,
        -0.6203723844760504,
        -2.419283071117277,
        -1.2800436842716303,
        -1.8697887395730708,
        0.39906119100244614,
        -0.7560551636384847,
        1.1360209177677822,
        2.6709466803392314,
        2.295574109469248,
        1.4998367954006724,
        -0.521485333374767,
        0.5522430616409518,
        -0.823951236413818,
        1.009885160175832,
        5.676082634262527e-06,
        1.6650387051886926,
        0.5590212869444592,
        -0.06024776352019401,
        2.579804035268913,
        -1.2645997826658655,
        1.703585256697079,
        1.2969528584222232,
        0.24266357383847972,
        -1.9958772306800079,
        -1.6152245888120458,
        0.14554341698246362,
        -0.5838159894388814,
        0.5852158321833975,
        0.02450948616060972,
        0.4196035345179513,
        2.126075846118301,
        0.6533393429815778,
        -0.926410226412609,
        -0.6960896850927555,
        1.3564272115108964,
        0.05290209059505578,
        -0.6416492432759003,
        0.6444501423865318,
        0.9954299335458159,
        -0.3308015325620346,
        -0.9692506451386349,
        -0.15664906490994535,
        0.8163970025570811,
        -0.3497417871913238,
        2.818667329889994,
        0.20794555542443105,
        -0.05135986226723227,
        1.1983808680038899,
        1.178935236066438,
        -1.6156299683570599,
        -1.145728152169792,
        -1.46962923817003,
        -2.831977653696727,
        -0.3263141514382438,
        -0.2908561633807038,
        0.9471288608965464,
        0.9982350261090527,
        0.1152096632030055,
        -1.1816068019237667,
        1.6763631680073983,
        0.6716853700180863,
        1.7775434640083627,
        0.9189205906173433,
        -1.1828637296884779,
        0.23849793869375577,
        1.4052544001367544,
        -1.653005901560485,
        1.082135775207851,
        -0.14981268047614676,
        1.752414645884947,
        -0.7674014876109453,
        -0.7801521817217875,
        -1.1238509679949993,
        0.48570924349914246,
        -0.8192249536929561,
        0.3277682301061078,
        -0.058773099324919045,
        0.6123655326295461,
        0.9243084053524897,
        -0.05331972793899747,
        -0.4817404427305151,
        -1.0464148790657188,
        2.2594284643976703,
        -1.2615728461389126,
        0.3445436114341115,
        1.0147393656281594,
        -2.2570802211036436,
        -1.2494455921156185,
        0.510160564967866,
        -1.6633657224838654,
        -0.02263050383069093,
        0.00515044782826909,
        -0.3358113125184713,
        -0.26233156336318086,
        -0.5150540300768753,
        1.0544729344777692,
        1.8027805592065251,
        -1.0805798175180545,
        1.033273610716517,
        -0.5340163969946953,
        -0.9488050351533643,
        0.10185656157059463,
        1.1542415398844996,
        -1.3581996557520253,
        1.6441402811030308,
        -0.9319510447849781,
        0.20236170875836068,
        1.4848971507921962,
        0.828346002917124,
        0.4021572760919213,
        0.4621364975272243,
        0.4849179285862139,
        1.0200007968405513
      ],
      [
        -1.5458346797823515,
        -0.5162926481268582,
        -0.6047121830520645,
        -0.34821196079618716,
        -0.9724941262720188,
        -0.930238911847625,
        -0.24918228980308366,
        -1.8815828351559705,
        -0.9095041403742791,
        1.049474474648666,
        0.7937453660562761,
        -1.531564227183888,
        0.19276503377024207,
        1.5151356562392484,
        -1.7642365433874305,
        -0.1511642291530479,
        -0.47181264987675253,
        0.45488310151086353,
        -0.23538545493943225,
        0.11653080650782588,
        -0.09432922660260173,
        1.36814921189153,
        -1.6345086678698657,
        -1.4118629828446936,
        -0.1851613810552712,
        0.726743324070648,
        0.9354189975911338,
        1.2220122569121434,
        0.9355624571953702,
        0.20914806843935094,
        -0.28633763084217684,
        0.8516191467878679,
        0.45171546813378505,
        0.30126723536096245,
        1.4661178977149203,
        0.49451379023663355,
        1.483598755323517,
        1.0714571183398522,
        -0.5410724732457428,
        -1.4395451540484177,
        0.7974393952257185,
        0.737178077132803,
        -0.913528273982658,
        -1.2042935648320554,
        -0.4339927591169246,
        0.24439300304262104,
        -0.5985891884648583,
        1.6036168332140701,
        2.2450522365164067,
        -0.27689305684902904,
        0.026768664928531027,
        -0.0733002415371327,
        0.34975305165956744,
        -0.08896131875676092,
        1.5328267166155616,
        -1.025038732812539,
        0.5277431642356539,
        0.017752055842994045,
        0.4336077666022238,
        1.0929880161056549,
        -0.470774493367629,
        -0.3017447636758805,
        1.8368729807651265,
        1.4630065956542426,
        -0.3658914617623668,
        -0.6373347570606192,
        1.435598304335987,
        1.0816683321856864,
        0.24601101446352214,
        -0.4387800900915335,
        -0.051580694822000804,
        0.3467699863118774,
        0.6146354564230273,
        -1.102525173461096,
        -0.7520809158701866,
        -1.0227831170624797,
        -1.7861426244790932,
        1.3281939835326542,
        -1.128444288524603,
        -0.0006149623231618885,
        -1.0858612653668223,
        0.9731710924544172,
        -0.42270928655497136,
        -0.23433414447655654,
        -0.0825389662304218,
        -0.9738346743248583,
        1.5605013634494944,
        0.10117062578231391,
        1.8018007534420768,
        0.7356843177876807,
        0.14964771872176152,
        0.2207584172547522,
        1.7617919667654385,
        -0.4106148208460881,
        -1.143210465820135,
        1.0562114537879093,
        -0.3409792744822572,
        1.6979300804665427,
        1.8481927568922618,
        -2.477538951885686,
        1.808553814262973,
        1.3279995343515145,
        2.9293006620759727,
        -0.06042124209426605,
        -1.464028066278198,
        -0.9513224795561671,
        -0.17535382126693463,
        0.08737775693730224,
        -0.1810019462996819,
        0.5982722493182221,
        0.7880137549378515,
        2.488237621871581,
        1.4902143328570125,
        -1.4339842710311677,
        0.5649887844896149,
        -1.30257235106368,
        -0.5129443713751555,
        0.6782536735666705,
        -1.110493856459005,
        -0.48291013965844465,
        1.1064591238672496,
        -0.16705147097003833,
        0.14297089030628496,
        -0.38786765669081125,
        -1.0451916570463113,
        1.1260400036665168,
        0.5388772321737786,
        -0.6068894568258653,
        0.10601991756776916,
        -0.11959840632242957,
        -1.1211865026073466,
        -0.9276600934362336,
        -2.1718506387179843,
        -0.4874117824642053,
        -1.0357299745088675,
        -1.1840936696683282,
        1.1072437563182131,
        -1.1329916057406932,
        -0.7436964410354838,
        1.378192846539704,
        0.05207570532337549,
        -1.807576124175777,
        0.47046417174401206,
        -0.9897024897201013,
        -0.9680170309748605,
        0.35606736890204155,
        0.6760574526674125,
        -0.5006201385609655,
        0.6784218202559947,
        -0.4879597250458521,
        0.39284219739826365,
        -0.7690749353244325,
        0.17715180097344616,
        -1.2562533664407352,
        -1.4289945926390213,
        0.8877686565382011,
        -0.9196116717593882,
        -0.48559720957384944,
        -0.5864938678091297,
        -2.788131212618524,
        -0.7971264117868272,
        -1.1279392953199316,
        -0.7522802437985686,
        1.482748829104854,
        -1.870435293894076,
        0.7104397175881262,
        -0.21949680686416362,
        -0.7377989511795496,
        -0.13203758980620509,
        0.21265262424009998,
        0.9616567288766552,
        0.24014412595157755,
        0.7567688773950215,
        -2.1726340906058996,
        1.7232340933530754,
        -0.5671419286584743,
        0.8452738095921033,
        0.28649519570563453,
        -2.2164128721993737,
        -2.697510700440229,
        -1.3965628373732075,
        -0.8753399239765616,
        -1.0322728738897684,
        -1.8671943404846956,
        -0.7404129541341397,
        -2.068971129840426,
        -3.3510805004835444,
        0.1808303512492043,
        -3.4605125520352504,
        -0.8613024280597947,
        1.599868214732921,
        -0.9290929521113035,
        -0.8362703556315003,
        0.10836231605076148,
        -0.2455434788854247,
        -0.3198451786772527,
        -0.5195557194645656,
        -1.1324014851261612,
        -0.6149847368664956,
        -0.43681324710909003,
        -0.5752769899189109,
        0.4782706727597637,
        -0.18106548374357784,
        0.585557228010424,
        -0.20283129370209746,
        -1.1641686319051308,
        -0.7046373537448166,
        -2.6328720120730686,
        -1.4272879326836805,
        -2.0349327151410885,
        -3.3659639174876848,
        -0.8570447365620334,
        -3.078172627327256,
        -1.740308839276937,
        -0.3414688542104604,
        -1.7427343595730034,
        -2.8670094527062107,
        -1.970123165211967,
        -0.6834399999768713,
        0.5432809107525187,
        0.14987621213597363,
        -0.748149138682283,
        -1.8146190531116138,
        -0.8742792889806877,
        0.47888246686825753,
        1.0370931277091384,
        1.0768009895805182,
        0.7105908626271156,
        -0.11181218161654101,
        2.07987868147512,
        -0.16071727869530777,
        -1.4057921988853723,
        0.1192550530587454,
        0.021968332736244513,
        -1.0577682707683125,
        -0.751999784795231,
        -1.3830466488625115,
        -2.126134851331588,
        -2.8202440738364887,
        -0.8392556873462366,
        -2.9750280994521194,
        -1.4849704056412556,
        -2.887530426328022,
        -0.1854585069835807,
        -0.3081355281905288,
        -1.7784098689615104,
        0.17214523171195617,
        -1.3301186435641659,
        -1.0130038464723845,
        0.811957624952769,
        -0.8483409310409997,
        -0.8165528413996231,
        -0.5136057144703373,
        1.2601556063098578,
        -1.2784422583084913,
        1.926863131540284,
        -1.1370801951816074,
        0.1358587160704511,
        -2.2083332375982243,
        -2.1040770111643052,
        -0.47771033699546356,
        -2.2222724376200755,
        -1.7993568332390109,
        -1.970405356833979,
        -0.8248616243697351,
        -1.6537658799996744,
        -3.150406413253172,
        -1.8852476209118807,
        -1.6951548118529915,
        0.40225348154799084,
        -0.8726829195997673,
        0.9261287012379147,
        0.29881194218413637,
        2.3192809529471288,
        -2.128678269926707,
        -0.03231918501978219,
        0.043014768860883644,
        -0.25011263321328164,
        -2.1476845291042483,
        -0.6289368532003401,
        -0.27555566718579927,
        -1.1133124864245039,
        -0.958940440131133,
        -0.3577216792397679,
        1.1657076616958009,
        -0.6898034382533437,
        -0.6938503367827826,
        -1.5739789248021356,
        -2.3909568693038157,
        -1.0394724504364037,
        -1.4683073338986559,
        -0.3931145117363551,
        0.4504797269531128,
        -1.9345457365910836,
        -0.918169932415439,
        1.3538503746462653,
        1.3516192483635738,
        0.9922961102789702,
        1.088475209161836,
        -0.35681647503790387,
        -0.0332434396365556,
        -0.3730173734756189,
        0.21367791805487418,
        1.017067925451865,
        0.27713915381749815,
        -0.6077075632679646,
        -2.0900227448243425,
        -0.23405443790805527,
        -0.7111545748379611,
        -0.8312485535697914,
        -0.5242629403405742,
        0.9828448665139345,
        1.3200635256200128,
        -0.8182293005854024,
        -1.581914810128203,
        -2.0874059321088305,
        0.2965588707195199,
        -0.7918876348209636,
        -1.5606982313707893,
        -0.7257776200695039,
        -1.4488776064244568,
        -2.708635553829232,
        -0.10622266700835561,
        0.9884786123474607,
        0.23947091483035918,
        -1.5449779941400759,
        -1.780156149284904,
        -0.25933872354245946,
        -0.7428019388599698,
        -1.3299226185002522,
        -0.9628436169937151,
        -0.619448306793819,
        -1.048975231062996,
        -2.190452466119509,
        0.1274524976424614,
        -0.6850363838802811,
        -0.01823904734596995,
        -0.11939854316750202,
        -0.4996367929257189,
        -1.3730782157853823,
        -0.8515220113421276,
        -0.7776372881566513,
        -1.1354774022786052,
        0.5540829681371654,
        0.3624684232873842,
        0.059858401009108365,
        0.22110123759361228,
        2.7012273096312036,
        2.0385339455159657,
        0.6500108115517955,
        -1.7748596203731912,
        -0.17659453280346035,
        0.962300970339573,
        -0.8679921406957086,
        0.6534816250282636,
        0.04285474860623692,
        -0.7488626668475606,
        -0.35015139998287115,
        -0.5303581905121912,
        -0.8688944529913479,
        0.1713061032182108,
        0.32497232536274745,
        -1.5458200191886182,
        0.6275967035908344,
        1.6977023088603143,
        -1.6003940310167404,
        0.049352320044718324,
        -1.3376070730669953,
        -1.730110509116914,
        1.0921981549247801,
        0.9556660673196085,
        0.6838308010259856,
        2.4171359242359185,
        2.109597998513843,
        3.1413712237005393,
        2.6426734893385375,
        4.8357395432263495,
        0.6655538731949989,
        -2.3083908993563274,
        1.3580417465370997,
        -1.041511455604047,
        0.4242830228765939,
        -0.074171151365784,
        1.2110116056511067,
        -0.24436464494987828,
        0.6327445941339428,
        0.19364188118076123,
        3.386173458514028,
        0.2942039095714892,
        0.8752694746871443,
        0.6791318187663928,
        -0.3800121303968698,
        0.5402646922537344,
        -0.9279473085778147,
        1.020486592551857,
        0.29650402115011654,
        0.09163196650683772,
        1.0816957022961446,
        1.5460839199490735,
        2.219107274218572,
        1.444238234497253,
        3.1263131450573565,
        0.9205871254784962,
        2.154728487249609,
        4.0258492703148026,
        0.561013719254233,
        -0.9735423462183005,
        1.237708674211585,
        0.9483174949758829,
        0.8862689799555644,
        1.0158932974668122,
        1.9220261581854863,
        1.1261781955875056,
        0.681339756788687,
        2.968240090223323,
        1.1838992335899172,
        1.5141885800322472,
        -1.653851387425368,
        0.12695779806420418,
        -0.4554553301925637,
        -0.7303775365520603,
        0.6802942544650948,
        0.0024415769707283506,
        -0.8914699097839058,
        -0.9122357806273599,
        1.349862775709593,
        1.978020960180899,
        1.0633129099363512,
        2.1317884207290883,
        1.7273752624588872,
        0.7366617115273802,
        -0.5767070305627073,
        1.5448821455126593,
        1.996281066006538,
        -0.4112405214501523,
        0.051240181487339546,
        0.5636120190191292,
        -0.8008344446117938,
        -0.43221267095966015,
        0.4887229640700997,
        0.7216767968832136,
        0.9913672869291876,
        1.778617959748279,
        -0.23396371485012735,
        0.22144647046953334,
        0.5845110953222699,
        0.012831209141470755,
        2.0272509657650155,
        -0.13144783253461298,
        -0.7801273453912713,
        -1.8703399115451085,
        -0.4487023467364555,
        0.5758409936955161,
        1.2271272884635223,
        1.6333530612861127,
        -0.04831701645339894,
        1.3634870249086861,
        -0.5706617785142213,
        0.1813604936213553,
        -0.23155387702829433,
        1.6017491946482882,
        1.5128662320681157,
        0.682739166780016,
        3.907704004810586,
        0.6170816184315995,
        3.357746325980389,
        1.1874165235126082,
        0.996290321272805,
        1.4310039678349282,
        0.1850269385828593,
        -0.029789273939425657,
        2.4088561543884563,
        1.3713173194628228,
        2.292107813082614,
        0.8654953295245108,
        -1.1555251266123938,
        0.2643170580087302,
        0.5922925908953418,
        -0.9889328673684931,
        2.4969836201819158,
        0.01985531017638634,
        2.199602176017815,
        1.3245384556539257,
        0.6728074021385915,
        1.6322058168289286,
        0.3854301740130398,
        0.9214190186343549,
        0.39617277238626103,
        -0.9468162418302135,
        0.4508844539456454,
        0.3619505547722967,
        1.2406752750646555,
        0.6179540142777092,
        -0.08831900589859328,
        2.1707331770815297,
        0.8454993584554878,
        1.7490334564704064,
        3.543575606210269,
        0.07966560487331371,
        0.1343622147942275,
        -0.14861278030829933,
        -0.9382335676797858,
        1.0763132849156958,
        -1.6998081733644201,
        0.8231338305210092,
        -0.5838515573449023,
        -0.12266430027148706,
        -2.160329405647496,
        0.5738498288034409,
        -0.4171499156841294,
        1.1665000161443175,
        0.6190960047246735,
        1.2621548195828245,
        -0.3132249027374306,
        -0.8035768253270726,
        0.27417800562511907,
        2.164739574935087,
        -0.3994879790659409,
        0.5333981943907177,
        0.44377885769720904,
        0.9792223370850388,
        1.5615504942228748,
        0.10963618484401907,
        0.15895918736223455,
        -0.5051594864889636,
        0.33631995465377784,
        -0.6625836879360034,
        -0.1621006136029295,
        2.8936796006250174,
        0.4495276532239325,
        -1.6923085206253756,
        -1.1795522011308635,
        -0.18961994382409847,
        -0.1872699458728904,
        -0.5573369116754886,
        -1.0123170775004058,
        0.5312420079120075,
        -0.3937000004766947,
        0.4301355748440638,
        0.27640651547770334,
        0.7502512012224032,
        -1.1265817646941307,
        0.100029876944968,
        0.10430456033520859,
        -1.0577968630523151,
        -0.30234519631802675,
        1.162755154081595,
        0.7378860561658388,
        0.3516012544276013,
        -0.10964536271827341,
        1.0791140858185098,
        -2.3892743549045994,
        1.1874534428582006,
        0.589610384469874,
        0.5788979443466065,
        -1.0308354392717667,
        -2.7873618767505115,
        1.1847344099184645,
        0.5631076911393477,
        0.4895502503488878,
        -0.08550480476675743,
        0.7367035962392595,
        1.123493364497849,
        1.4002375286472992,
        0.4057414546329487,
        0.0991927643231144,
        -0.26579470102933367,
        -1.8992177405292918,
        0.2055464069959611,
        -1.0114676181142723,
        -0.8126097241179807,
        0.783276859276056,
        1.7252014935979965,
        1.119920022081171,
        -0.29346882063038077,
        -0.7258336161581184,
        0.47888894005971067,
        0.04935771318587905,
        0.4492079712769983,
        -3.279111576519073,
        -1.14753558711481,
        -1.5082131431381127,
        -0.9330093094772647,
        -1.2656461743058185,
        -0.695294570721805,
        -0.2644897081177218,
        0.8934049761826762,
        -2.1565329569505485,
        0.47236962860157106,
        -0.05398262405234382,
        0.5145234186575869,
        1.7144838717984359,
        -1.267807798816695,
        0.3478791088411789,
        -1.01362381475207,
        -2.7199306912721313,
        -1.7942055377158532,
        -0.74991789714402,
        0.6327363117793249,
        1.6039052932299258,
        0.9439695540436561,
        1.2660885052559605,
        0.13466215010703889,
        -1.1997615171620757,
        -0.8009899208748988,
        -1.9916186199297392,
        -0.23055291275081202,
        -0.5600006651682726,
        0.4492589454864761,
        -0.7235242967144914,
        -1.1936370748386744,
        0.2006956933070994,
        0.1418584404306345,
        -1.1954889147250614,
        0.28844047714151666,
        -1.7016339692352709,
        0.3109931313133171,
        -1.0266399283207341,
        0.30920541005146757,
        -1.3714022913831576,
        -0.6917928453405269,
        -0.5142696694907678,
        -0.6603410288086974,
        -1.305161332737827,
        -0.5442483328641726,
        -0.15429233751867355,
        -1.6377202445744052,
        -1.7073047814512616,
        -0.7690862058355444,
        -1.7274528035596186,
        -2.3839313367808206,
        0.7358974849289113,
        -1.581725792318909,
        -2.352660780721183,
        -0.9229222776667286,
        -0.782873036415369,
        -1.1104823564638615,
        -1.8269213737279675,
        -1.1436008118242182,
        -0.8254235796208501,
        2.280349048751332,
        -0.5057250246064311,
        -0.18911442512332355,
        0.613923608851007,
        -2.3847845037574795,
        1.2623941310192643,
        0.9561841287499179,
        0.44056975201379506,
        -0.041478504901850934,
        -1.8285658246819012,
        -2.4536821278392704,
        -1.4868224717211451,
        -0.8438965631396658,
        -1.5171323202525044,
        0.6761764157607123,
        -1.2428040683789288,
        -1.9816233718149172,
        -2.0554907969008416,
        -0.9144008890915302,
        -2.2977273265449334,
        -1.1629087064171915,
        -1.576604540227847,
        -0.2302018546363788,
        -1.2137234169235436,
        -2.0860409951686556,
        -0.5240390399642298,
        -1.1345694169748426,
        -1.3717088845387597,
        -1.1971578506934892,
        -0.008398197873531549,
        -0.24746595575595498,
        1.3086046287001352,
        0.6283078923691731,
        0.3812842292350889,
        0.84155211067084,
        -0.8199095873553267,
        1.990881687964665,
        -0.07960860669757974,
        -0.6880354150824308,
        -0.013685241939854301,
        -3.186036304332461,
        -0.36273839214039605,
        -2.0506676108758835,
        -0.2260458120822378,
        -0.2467434735269887,
        0.04378636233022202,
        -0.6426419426906129,
        0.12094583191122224,
        -0.6826759362495343,
        0.6071206195134103,
        -1.0509619580081753,
        -1.0197314821710057,
        -0.9078662091082595,
        -1.2304553830160045,
        -0.2711501000811341,
        0.28750292495639246,
        -1.7367492590783842,
        -1.436790051777288,
        0.6200378982677534,
        -1.6267493081768456,
        -2.698364080265518,
        0.023792120473145578,
        -0.49817129998628806,
        -1.4871313005580402,
        1.3733957667259256,
        -0.11806063360944732,
        0.4473025576949732,
        -1.072259187434124,
        -2.7273232413434285,
        -2.004145897988549,
        -2.2466580165071584,
        -2.2585956935059186,
        -0.8127788353343601,
        -2.4422728977412507,
        -1.7562158531642251,
        -1.812139255595345,
        -0.7753325495115205,
        -0.7305907834508625,
        -1.9801704379672764,
        -0.7629673653295043,
        -0.8249309970986198,
        0.19718869473018064,
        -1.0869028379905115,
        0.4458667683134529,
        -0.5388333693845198,
        -2.177711814154335,
        -0.8252420871348335,
        -0.2776298703766925,
        -1.3828938583519308,
        -0.8838881969785495,
        -0.2593844469413602,
        1.1850498182247684,
        -2.927008433000184,
        0.15996769291968574,
        -1.3891556659839297,
        -1.1277894579249308,
        -0.8099325135380926,
        -2.1613633376246053,
        -0.670136311479317,
        -0.6982548246937152,
        -3.0427618588908483,
        -2.144895559029371,
        -2.624576469820473,
        -2.447720560868071,
        -0.14275001874601176,
        -2.609580738018962,
        -0.675276413971562,
        -0.970747436899419,
        -1.9179978680867673,
        0.6805610951124107,
        -1.099023406458118,
        0.23681639455971745,
        0.34261868109545507,
        -0.21097859005663883,
        -0.6224482841927217,
        0.6014742346987663,
        -0.032322595799887825,
        -0.7792047852661692,
        -0.2733157469050158,
        -1.0424082844511056,
        -1.3318539249796881,
        1.19415309935857,
        -0.9017545887021093,
        -0.8578236963152371,
        -0.839697382838168,
        -0.17538740676014802,
        0.7358011535987999,
        -0.1740098113007,
        -0.7235856881796655,
        -0.34466015889024265,
        -1.0927215514528752,
        -0.4691303615986046,
        -2.370355506871628,
        -0.8250012281749146,
        1.4390914190413895,
        -0.6996205092692497,
        0.10400279514443694,
        0.6181352396478118,
        0.7188625154774896,
        -1.106035668913547,
        -0.09191573302075187,
        -1.607620413447501,
        1.0047693148362404,
        -0.6966804547741877
      ],
      [
        -0.8549728779198503,
        -0.01273118937562465,
        0.897395798290544,
        0.8599070738500565,
        -0.5801899457031864,
        0.9986570723698289,
        0.334907929472659,
        0.07972898141602948,
        -0.5238976651129289,
        0.5491986563076622,
        1.210803598031964,
        1.5806864563073584,
        -0.808625443572234,
        -0.12131980336252846,
        -0.8051431398152854,
        1.096378357131955,
        0.3001492049791126,
        0.29391461919820716,
        -0.1496889294251826,
        0.3139339929802426,
        0.6980870330226132,
        -0.49622226928655055,
        -0.05301352864340738,
        -0.9652503513794991,
        -1.3105452754180384,
        -1.289784046015766,
        0.021840163432545533,
        -0.3754263692361456,
        -0.11169393534271517,
        -0.8225422482663836,
        -0.10192467654246364,
        -0.9730394956643731,
        0.4641749015382702,
        0.0177957587400571,
        -0.35285069941633807,
        0.400300367087835,
        0.40812885358682877,
        0.9891846153502266,
        -0.9674503660212754,
        1.0326310017716882,
        -0.9014899196034704,
        -1.849306467919512,
        1.0422359602145352,
        -0.4461042381833529,
        0.4625431331875713,
        -0.32286262031444357,
        0.6217707436823511,
        0.8125249258135788,
        -0.39673127291924276,
        -0.7797705833287953,
        -0.1566232713794837,
        -0.3003464335731055,
        0.15554888156867056,
        -1.1470501201489465,
        0.5805153170693241,
        -0.4447448534299578,
        0.1259003868617775,
        -0.46240747418418326,
        -1.8230309492548447,
        0.07090115768288441,
        -0.02815691726662911,
        1.2539906712648976,
        0.8558252874368258,
        -1.5143788545462011,
        -0.8506706762377865,
        0.733381490903265,
        0.678005330525439,
        2.1424224988824836,
        -0.19325917213124152,
        -0.5084915188823356,
        2.0216948285536374,
        0.7188820941788908,
        2.401581961995061,
        -0.05734929326834767,
        0.2306403262796304,
        0.3128434910789543,
        0.7499728433913926,
        1.0096235654260328,
        -0.8047291817073946,
        1.436998642440498,
        0.08797469924159036,
        1.1076669351699442,
        0.38201112066964854,
        -0.9136234172019649,
        0.35959187073781795,
        0.019826651840803323,
        -0.21752718649595523,
        -0.18900564269979864,
        0.7936832942353816,
        -0.09778239724849086,
        0.004931830253730509,
        2.7426710048965215,
        -0.6329906401682361,
        -0.4476285371772034,
        0.22003970619517862,
        -1.636723924260009,
        -0.3844740593571201,
        1.196406445503207,
        0.7793803664865091,
        1.6437864249205678,
        1.9960292920881533,
        -0.2422876337688529,
        1.0657645268870681,
        1.508156279718203,
        0.435140134102717,
        1.1321795133008963,
        -1.3136356538611078,
        0.3483456764411777,
        -0.4832302724686632,
        0.6762610826949909,
        2.168437009578348,
        1.0522586562776581,
        0.6886232862201164,
        -1.5148033664698601,
        0.8331067937947996,
        1.5728284444516851,
        -0.7678553193279987,
        -0.5890515988873198,
        0.5803418089086041,
        -0.04214523073312568,
        -2.2012352010423855,
        -1.6916230908694814,
        -1.3506867828443443,
        -1.6163176097176106,
        -1.9819422035631213,
        0.5297463796783805,
        1.1103881666981457,
        0.5005559525305469,
        0.2740463838795091,
        1.6642584626123265,
        1.8785332886454564,
        -2.3959483219892754,
        -0.843337137470052,
        0.15399149873321114,
        0.6417951804788413,
        0.7516792113013255,
        -1.621210460172342,
        1.723643162378152,
        0.5956520916370031,
        0.3867420708684241,
        0.5088256917223551,
        -0.45231698295842354,
        -0.31302937458535185,
        -0.8262058822037037,
        -0.19785893038934357,
        1.2257626303524929,
        -0.9431518234121989,
        0.30628585298801725,
        -0.49550623742693944,
        0.5689446446059634,
        -2.13114820222923,
        1.1087167025712956,
        0.06194015858571695,
        -1.0356767874785224,
        -0.19204273119583387,
        0.7135055836561885,
        0.31146822099415067,
        1.2785098373612034,
        -1.526232867625652,
        -1.0390736441005703,
        -0.0036669776954016756,
        1.245094593706052,
        0.559428160751559,
        3.5499510516745243,
        0.5062532270675846,
        1.631120564786878,
        0.5704434947449569,
        -0.48803537899784444,
        -0.0468787520160223,
        0.35880903057426694,
        -0.06527434870776964,
        -0.114542870020833,
        0.33173773570110393,
        0.8394817926658892,
        -0.9001716475961742,
        -0.21412772688023193,
        -2.543292339237616,
        0.02170038246626578,
        -1.4845130126932329,
        -1.528229746508348,
        -2.1161478323443186,
        0.6952574810670666,
        -0.20318095904810973,
        2.6595706101606877,
        2.3132038094922414,
        1.0103745321924658,
        0.8918094787777071,
        -1.932069176002658,
        -0.5911379240010926,
        -1.0906349591400128,
        1.5159947874355242,
        0.3561980395217754,
        0.2508474775003822,
        0.7867200113853153,
        -0.8746423671362746,
        -1.0124471254248806,
        1.5810665033430475,
        1.8253357555509246,
        1.1882701033327134,
        -0.7515018147144761,
        0.48405452022302037,
        -0.9658946455104629,
        -0.35297756459901636,
        -0.9646391508804805,
        -0.02701282618687214,
        -2.799656832867008,
        -1.3777252001638338,
        -0.5760667135815418,
        0.4541221312923106,
        -0.9359116723260055,
        -0.007664261970121595,
        2.6627599730488565,
        0.9659137045983561,
        -1.8052725323349472,
        -1.0575013653924867,
        -0.05295349501013064,
        -0.9605126256515473,
        -0.46251340520810225,
        -0.015900800140361916,
        -0.47543167490406746,
        -0.8276625307441045,
        -0.8816178030259311,
        -1.527239886404815,
        0.324193059641774,
        -0.8423326619222616,
        0.6884826949901967,
        0.07014384309674808,
        0.7390086133399231,
        -0.6265482844569397,
        0.9843869462465122,
        -0.12621056575344958,
        -2.7387968162433136,
        -0.7184679865661716,
        0.7280846450269033,
        -1.9835900301297207,
        -2.150531765156635,
        0.5189138921041485,
        -0.9745358564016339,
        -0.544202375828616,
        3.837725263524734,
        0.8229351278868352,
        -0.38555128190376586,
        -0.358096896780116,
        -1.950444938343407,
        -0.2433685154361788,
        2.6012806894622487,
        -0.7206097996036288,
        -0.6200146211878763,
        -0.5179804714961805,
        -1.913747443353354,
        -0.23659185922260378,
        -0.4063558049247952,
        1.567053038500766,
        0.1250041477270974,
        -2.216299715445353,
        1.1598029100685436,
        0.7499171427696311,
        -1.9388064163048238,
        0.5336470492449653,
        -0.411650860554298,
        -0.39100982727992556,
        0.6889766767962081,
        1.4511770690524728,
        -1.7157568033003858,
        -1.20173842072663,
        -0.5514683293626045,
        -0.8283296728140492,
        -1.1918553138301373,
        -0.4358908866905998,
        -1.4463428112836925,
        -1.3452559169905436,
        -0.6233999513421674,
        0.2223837393849008,
        -0.11445801883988467,
        -0.023163493912170468,
        0.1250640395039657,
        1.252496980372067,
        0.795463354304294,
        0.6265214354351243,
        -0.09245591810500269,
        0.7404886534337538,
        1.8881361795574563,
        0.36316093716690506,
        -0.10660803699541095,
        -0.19952675307398765,
        -0.0572167991218571,
        0.7720768797467135,
        -0.8873954180139443,
        -0.46836516129803674,
        -0.612637938244897,
        -0.2660963640979838,
        -0.3869652154718084,
        0.5194728925916424,
        -0.8065807407369904,
        1.1231459191631852,
        -0.05931094650226002,
        -1.6142800055279156,
        -0.8910765440941333,
        0.15528275692375554,
        1.0746969286475019,
        -0.7269429240935049,
        0.4768995266695276,
        1.6158514506883508,
        0.08455898000006584,
        2.4635855639742434,
        -1.7992468971189013,
        -0.6716597958384104,
        1.423202911647692,
        -1.1354924430612203,
        -0.2075905802154966,
        1.5964983840498483,
        0.7974981734875317,
        -0.3835846289071472,
        0.004134203904998924,
        0.10974494449017498,
        0.2383409886682023,
        0.579774253073282,
        -1.8076431950325202,
        1.0626395137951847,
        1.080926702810854,
        -0.139755930480537,
        0.5538684310410436,
        2.775915667483696,
        -0.8069248209706428,
        0.12552749309955508,
        -1.0452693100926818,
        1.6615160471269408,
        0.6500888746971732,
        -0.5128007820283914,
        0.9253722962419126,
        -1.8799758714163202,
        2.0033220973594736,
        -1.3812392971389524,
        1.985442623213964,
        1.2406220640316146,
        0.27711133992050535,
        1.4059694290699876,
        -0.03336103074881184,
        -1.3590863933904536,
        0.15696591926596534,
        0.4286117823608214,
        0.7434916891409719,
        1.646354933849612,
        -1.7192645835103855,
        -1.0839694987056636,
        1.3259371317011601,
        0.658645828166538,
        0.8236427656060348,
        1.8014021610061155,
        3.0103010895666937,
        2.3103577102259707,
        1.9700141403507323,
        -0.14904301782272872,
        0.9877132850296543,
        1.203157124565764,
        0.829076883433478,
        1.131933456268324,
        1.4736519225716946,
        0.3790147959499028,
        0.48992449148912315,
        0.681115037546205,
        -1.1360902727867368,
        0.8918558309607802,
        0.9959894536630798,
        -0.18871232533599036,
        -0.03733840218514504,
        -0.9022374568233325,
        1.0164291231254414,
        -0.4283156125043594,
        2.028551809285602,
        2.4647866064516832,
        1.3920723016641587,
        2.4831491659480633,
        1.5726232395388557,
        1.6037408691098256,
        0.8991884204381482,
        3.6722890031811435,
        2.469975660275996,
        1.0496023681684983,
        -0.046497022688549536,
        1.1302537826783932,
        -1.0989104970122507,
        1.0566380402322526,
        1.4886691350055925,
        -0.6839768887342887,
        0.3056011941772005,
        0.2536548673959876,
        0.3530601542041535,
        0.07629114452564863,
        -0.7456622014544796,
        -0.4544894857138529,
        1.8239476107262793,
        0.7340731918785415,
        -0.4818655402704595,
        1.1893601780516636,
        0.8360624541331232,
        0.442049730001974,
        1.0995664155560667,
        2.9964983443354867,
        2.3733105479707164,
        6.395227975135005,
        2.1875803472942006,
        2.54144912361356,
        1.3444246566136713,
        0.8477389956627573,
        -0.5486290073462375,
        1.0488303054005617,
        0.5256580807062962,
        0.5799069264429404,
        -0.9295991309913193,
        -0.1733586560859402,
        -2.107254927195495,
        -1.501204865437429,
        -0.6733581434826788,
        0.9943193084918618,
        0.20836473400524083,
        -0.6670204500232997,
        -0.9303399151275122,
        -0.754684009279844,
        -0.7968587744979474,
        -0.3087413997233064,
        0.12794021248704024,
        0.8879646073102418,
        1.365353116498742,
        1.1087539258322343,
        1.6036494638168313,
        2.6441339242932327,
        4.504364855189075,
        4.461906321590706,
        1.8272289383192521,
        2.0290217153582546,
        1.9674202033208472,
        -2.3875893923891915,
        -0.2227265437766311,
        -0.4265071382863107,
        0.3422962453997215,
        0.036012267427105726,
        0.29382075950394204,
        -1.1244936925254054,
        -0.16616804544882013,
        -1.0364320822844857,
        1.084058964047489,
        -0.059299906974425304,
        1.3858747459304988,
        -1.0883963004509984,
        0.9916576395377824,
        -1.181497718745044,
        -0.05274215883952446,
        -0.12682359640826285,
        -0.3050048022044472,
        1.0774205792328084,
        1.9115126195448977,
        0.894413312667376,
        1.5044928410470475,
        2.1954706553188523,
        0.35606969728539184,
        2.14292192641804,
        -0.24542606981031703,
        0.849219245982258,
        -0.08395898666112393,
        -0.49109717352647764,
        -1.6271784191725402,
        -0.008785292079477924,
        -0.35370367073475273,
        3.1428373865626833,
        -1.567102573800996,
        -0.683770858421624,
        0.20000938521069933,
        -1.2367048711514914,
        0.9058649293026374,
        1.4034325070932283,
        -0.7621025139075298,
        -0.04164817846565245,
        0.5206709784471477,
        -0.2687776276690995,
        0.31839807309235707,
        2.1494304445958274,
        0.8251464922383507,
        -0.76204993830072,
        -0.26543933395968033,
        0.8548114696334067,
        0.36910903190456223,
        1.929453206426453,
        -0.4309175522118525,
        -0.32729476402745883,
        -1.7265256268908358,
        0.5935635479765873,
        -2.0066325775352114,
        -1.5866698304668019,
        -0.7334176879031068,
        -1.2139272850766494,
        0.03295154836177922,
        0.006967079603031947,
        1.070192608072465,
        0.29891970437179893,
        1.43940369219612,
        2.6110711497702157,
        -0.8917889076395248,
        -0.9315802426638199,
        -0.6071814622973134,
        -0.46417962090403103,
        1.5189663365445754,
        1.1679417173041498,
        2.3506063364576404,
        -0.9796900941918077,
        0.11812505346908549,
        -0.23252658098869228,
        0.966232445508076,
        0.23644837833022797,
        1.5224018304809022,
        -1.2202803422016837,
        -0.5875650480215633,
        0.848147256677121,
        -0.7051190242443803,
        -0.206147258890843,
        -0.46666342990022536,
        -0.8001896008937991,
        -2.191694478992001,
        -2.4061078307213584,
        0.33599858022648116,
        0.24426800834309675,
        -0.6617714571097467,
        0.8113387876432266,
        2.0675241250603467,
        -0.48632332827054764,
        1.439916049622791,
        1.5978437108666992,
        -1.492876561171329,
        -1.6275945703311687,
        -0.8866230304152771,
        1.3306188173546785,
        -0.5818621254244931,
        0.29496368325985967,
        -1.7118976530465262,
        0.3791894572037486,
        -0.16610093514086618,
        1.0334812042017212,
        -0.3809234186684794,
        0.4685382269250955,
        -1.3003476587113272,
        0.7354057229761457,
        -1.23462349315905,
        -2.3432583415245776,
        -1.2719971494319262,
        -0.7665318773387324,
        -0.563017465526275,
        -2.9875439823380443,
        -1.0603474271593152,
        0.8682804457958953,
        1.2110615904546636,
        0.5775986265552927,
        2.500104374522948,
        1.4675376225819892,
        2.3720903408140797,
        0.7038408171020754,
        -2.1778753692597297,
        -1.4434434217550913,
        -1.3273290626376446,
        -1.8931539367595884,
        -0.12534078103012603,
        1.059202633574703,
        0.7110960425167299,
        -0.5513095363003297,
        0.23434544314033817,
        -0.37407614185980914,
        0.9034020221943573,
        -0.3065283527282559,
        1.498263489060699,
        -1.3896612882929469,
        -0.8669869578906266,
        -1.0734158920606822,
        -0.15919525659247566,
        0.429654992848072,
        0.6814289180200667,
        0.6274484939474244,
        -0.11117669908046914,
        -1.2445700333272212,
        -0.5202336474356601,
        2.084376755365374,
        2.416492470059609,
        -0.11093098087338953,
        1.7801282171025836,
        -0.6427360022380023,
        -0.6674336332556282,
        0.5769696887904096,
        0.47123228913282617,
        1.121068418261757,
        -0.06903700013207657,
        -0.3500571065865844,
        -0.5395697255610359,
        -0.15619167165369235,
        0.5129907846101179,
        -0.34631331915240887,
        0.6741328252502985,
        -0.3062918027526778,
        0.9103983745678303,
        0.6066816781981742,
        -1.0414280475703495,
        -0.006088371160026021,
        -1.2115500825156453,
        0.5607451710271325,
        0.8234165757548448,
        -1.312646541694441,
        -0.14935787579613174,
        -0.5776212665432509,
        0.5481917660734899,
        1.9320865542356735,
        1.5933567310857408,
        1.0351328490730827,
        -0.9861041760938152,
        -0.025378731866239564,
        -2.088088670056597,
        -0.038092649758933485,
        -0.5347322034319978,
        0.5512573087817729,
        0.15740012054742333,
        0.4231223251045012,
        0.9209331757366037,
        -1.070020289001701,
        1.0423595074200633,
        -0.3617038063083067,
        -1.7858777494593396,
        -0.07800067255323313,
        -1.2032472620655712,
        -1.4878318315255108,
        1.7464942454648296,
        -0.6184593213818999,
        0.6757879993724436,
        -0.7373348650365686,
        0.5173237886038955,
        -0.17875243668066002,
        -1.6914047290757388,
        -0.08670048045894499,
        -0.5920259011417801,
        -0.7866288127067713,
        0.6489573756427873,
        1.138504670749859,
        0.7707114623992317,
        0.08527722331456677,
        -0.603342339611578,
        0.494494719396758,
        -0.41761104270808247,
        -0.1410362815143118,
        -0.24057893040562292,
        -0.9929397667907559,
        0.19859746655297114,
        0.6948139687880205,
        -1.6359980619522305,
        0.5802917959927056,
        1.2611752488628043,
        2.7184144543187876,
        -0.3159755020388126,
        0.8176359080746164,
        -0.9671766921702475,
        -0.51933880667203,
        -0.0643278334868305,
        -0.6834158916146157,
        1.9663191886233515,
        -2.4708754663103707,
        1.9581188396870886,
        -0.0820400810818841,
        0.4570981781303337,
        0.34152731891141475,
        1.8996835580668407,
        0.23353635870648085,
        1.4808500812538083,
        -0.13277654610119682,
        -0.8059478773404345,
        -0.5092672105694843,
        0.26013520292780357,
        0.17443066040840663,
        0.6948159414028013,
        0.21954093313163017,
        0.9515763208188602,
        0.030779925154647773,
        1.3360708877919818,
        -0.014993192705565553,
        -1.1352722929701908,
        -0.2834994110790595,
        0.48934840692172277,
        1.157281337359362,
        1.3277547550657633,
        -0.4128009484602586,
        -1.756068619815858,
        0.9421263982579251,
        -2.436612091758806,
        -0.6404529703375142,
        1.1011319165279148,
        -1.1239362177042829,
        -0.6328713230729951,
        -0.6182672199554562,
        0.2902343805874731,
        -0.6308931088908187,
        -0.2938962097036758,
        0.32393042472355854,
        0.14491265695006042,
        0.6196652456904526,
        0.8161522632064598,
        0.14370211205212446,
        -0.7122504603733808,
        -0.9531420963368866,
        -1.0691452389344718,
        1.669016013766302,
        -0.30003262224045185,
        0.020363749147541705,
        2.0744411797728395,
        0.2958909189378006,
        -1.0077825086466792,
        -0.050010915117104114,
        -0.3469352894007771,
        -0.5695891307484026,
        -1.0422639357026247,
        -1.2041016874731065,
        1.6521192566258027,
        1.1146401573774651,
        -1.630791907609511,
        -1.4483300832817392,
        -1.0520577623075522,
        0.18342555092494345,
        1.0353609789647902,
        2.0843482025999145,
        -0.25296457489443847,
        0.7798393462841726,
        -1.1891054512246395,
        0.24589283226070976,
        0.9288789425882926,
        0.9042953089433897,
        0.8678959916082172,
        0.2737668892049051,
        1.176723790846587,
        -0.3209880353008876,
        0.8274559844868101,
        -1.408787064153553,
        1.2762785544199244,
        -0.320445141765511,
        -0.6639644855016161,
        0.5595360322359993,
        -1.4958640340860117,
        1.827026015851581,
        -0.3666209965960368,
        -0.005553687755630204,
        1.1606694589493427,
        -0.6859552541039989,
        -1.483328267519889,
        0.5562574702685092,
        0.8594661722740605,
        1.596731397377666,
        -0.7504686803842487,
        -1.4501221967152673,
        -1.7772584065015649,
        0.49087583436720067,
        0.5797272679384876,
        1.2371926012338637,
        -0.009577769576800912,
        -0.8911656319777391,
        0.6543927145488936,
        -0.24223292063918317,
        -0.0716500629142491,
        0.15438584821182452,
        0.18797257270509132,
        -1.874558872646274,
        1.2939941330411961,
        0.23874875096263415,
        0.38690480161643653,
        -0.277079411711994,
        -1.8955130765355024,
        -1.7720451443395406,
        -2.117141626781988,
        0.10600325218595805,
        0.29217823410676247,
        1.3012950294422359,
        -0.861474301578873,
        1.1108153811352168,
        0.8364953675283865,
        -0.7331316080320751,
        -0.08140020008559254,
        0.7841862910026123,
        0.6279014642338256,
        0.9988952686900032,
        0.06506777925046395,
        0.44586331019844544,
        -0.999318365399066,
        0.21387602818144832,
        -0.16829445055093098
      ],
      [
        0.4931444614514827,
        0.11227261093927901,
        1.7130211924688836,
        -0.08799634421900752,
        -0.8450907422003965,
        0.39618040779693103,
        -1.0595135588882878,
        0.3260595617321534,
        -0.16932927448789312,
        0.9503645025809878,
        1.3446168691388674,
        0.4870136494508462,
        1.1531065253385118,
        1.2852697452507902,
        -0.06043936876961344,
        -0.2392446609717795,
        0.03009211103909019,
        -2.2616316317429406,
        0.6421788273561123,
        0.31214098575171223,
        -1.0994377532024862,
        1.4427884692139816,
        -2.5752904769271914,
        -0.6224203775751028,
        1.9961057804161026,
        -0.17703628102433533,
        0.09294352451279952,
        1.646536348157484,
        -1.1476093723354401,
        -0.36616571942686754,
        1.1720790041927747,
        1.5053541871788163,
        0.262414418426613,
        -1.011909305852347,
        0.7216994298300087,
        0.6019535818512882,
        -0.7740589939863447,
        -0.5129455293838471,
        -0.16796064965635246,
        0.3485853974522013,
        0.8798491899792713,
        -0.37327049328388434,
        -1.1775472105624056,
        0.3295754128102087,
        -1.4543376467395537,
        -0.5517570339603404,
        -0.3968514435137242,
        1.1707986907033725,
        0.5179870729309285,
        1.2314288454289668,
        0.648681607293574,
        -0.8333073237881812,
        0.7992197459207263,
        -1.0630996016047476,
        -2.014934086257791,
        -1.1245185091452745,
        -1.4664637065841502,
        -0.12833890773590384,
        1.0465768478240844,
        0.25781298451808526,
        0.41239092711590974,
        0.883831107833241,
        -1.2085086870103627,
        -1.870401644759264,
        -1.9067403882832517,
        -0.43160684797719745,
        -1.7480033845249228,
        -0.9406527518515178,
        0.9614176007836855,
        0.35281382994857,
        -0.14698545033122434,
        -1.41232670912185,
        -0.2931001105668162,
        0.8746014105017593,
        1.5084591452669243,
        -0.2369456344204238,
        0.0743804556763654,
        -1.5582156372143081,
        -1.161861883362403,
        0.20002049022882412,
        0.12420842178599822,
        0.11325671477794778,
        -0.04533766655382362,
        0.13252028229946744,
        0.8833653090447706,
        0.3352768993423007,
        0.7033768035091941,
        -0.7127580974009136,
        -0.2069846766582858,
        -0.5756248731337438,
        -0.20821908865683675,
        -1.6642975353232827,
        0.9146128409718309,
        -1.580388159680943,
        0.5354239734845683,
        -1.465638685375524,
        -0.8185490514661002,
        0.273261450061392,
        -0.8535939630525965,
        0.20004278735816672,
        0.30291730794482863,
        -0.9212474772302087,
        -0.9446363976433799,
        -1.1894682656108952,
        -1.0051855556565144,
        0.16983307970510042,
        0.10966588921348966,
        -1.2135728243656092,
        1.1982058210543391,
        -0.23164937484767564,
        -1.2544278395558717,
        0.6346677606170644,
        0.006158910391580968,
        -0.4094972873186759,
        -0.9635174354328255,
        0.2068028838695537,
        -0.7145106385535296,
        -1.237549849945286,
        -0.014650635963050917,
        1.5214051544191338,
        2.4321395869361977,
        0.4654583465318504,
        -0.05405398641125926,
        2.2660782602400196,
        0.4261161228926852,
        0.9254306357178697,
        -0.08612957406201331,
        -1.6637010731296564,
        -0.2877471834072174,
        0.7425949604518833,
        -0.033049461040919395,
        -0.373796539909812,
        -2.0584215997481374,
        -0.9778808366117645,
        -0.8459168528122003,
        1.2662784918232428,
        -2.577584368516389,
        0.02128395498815041,
        0.8866073148724737,
        0.6108339171012511,
        -0.18301204502460433,
        0.8386661061021667,
        -0.3450892972645356,
        -0.28358793180339303,
        0.8897826111116025,
        -1.5953651243668339,
        2.0555727212689017,
        1.2179108163996428,
        -2.03594682572987,
        0.4056024969747295,
        0.08150949173823917,
        1.4111819042839548,
        -0.279932323673179,
        0.3226097962911816,
        1.821189980778678,
        -0.010565149577391145,
        -0.8348556667866708,
        1.7049297868496673,
        0.9910050827401913,
        0.04026388241085112,
        -1.3967094007336864,
        2.095497978828793,
        -0.5029899259127538,
        -0.11020947168894416,
        1.445886433376789,
        0.09317118144426621,
        0.5721948663860984,
        -0.14722071680029586,
        -0.9404041320452513,
        0.5904208983653922,
        0.23617532615957776,
        -0.14159220779805626,
        1.1803790555911153,
        -1.3894929794782918,
        0.7188047771658216,
        1.0858194273815223,
        0.7075895704162456,
        -0.5861212816335178,
        0.9428203192118632,
        1.0134961358485965,
        0.10334692273839931,
        1.818785040719127,
        1.6428514935803566,
        -1.7603942073868581,
        0.13045142694193354,
        -0.14370537245838325,
        0.5702476208413241,
        0.06931184901231066,
        1.7565557764720459,
        0.7708976125425749,
        0.4172331446841025,
        -0.2539931960806571,
        0.6997180627172426,
        2.429265746049678,
        2.1589386883389596,
        1.306730490982911,
        0.3704834239602493,
        -0.5272761637869543,
        -1.615424660407724,
        -0.38328757092853744,
        -0.7646121270356325,
        0.05172260198277796,
        -1.1698937304591894,
        -0.2537036550592068,
        -0.04804528154320106,
        -0.9000319101927521,
        -0.31815448104835636,
        -0.01649304495867178,
        0.4073940163938923,
        1.090226505679525,
        0.8722735732612112,
        0.3644035056942691,
        0.572002244024838,
        -0.6094099097960658,
        0.4571766885266143,
        -1.392194302217349,
        0.2948539173856952,
        -0.16982994503815144,
        -0.519042895326563,
        1.8010893878362149,
        1.0876146487664096,
        0.8436947568303709,
        -0.7416487982610571,
        0.9715395027235154,
        1.6226194369746185,
        1.204219195966738,
        -0.5515785664593774,
        -1.8900669008813893,
        -0.5111861427192869,
        -1.4063166021659737,
        0.7689340638068066,
        -1.633622619980349,
        1.0538121534785914,
        -0.8777590205228626,
        1.2179934020012906,
        -1.1986825930445133,
        0.06740542653806735,
        -0.9891057795304895,
        0.35920540904930803,
        0.0029782537517549904,
        1.5546891980133224,
        2.224078440822516,
        2.216171621569593,
        -0.6397063848752528,
        0.9790250870970602,
        0.1617368596848185,
        0.5964281585442611,
        1.159641428084377,
        0.7887590835288216,
        2.052192264557184,
        -0.4908591730024622,
        -1.055190703108644,
        -0.40703965844676193,
        -1.0278334530636035,
        0.47987934660872716,
        -0.17116114219171838,
        -2.3338277201940563,
        0.6528886051472517,
        0.39315678524440933,
        -0.7154120046890112,
        0.2766094660345069,
        -1.3713066251055246,
        1.06225342962724,
        -0.3139140334163231,
        0.23282580345274914,
        -1.3456048370464708,
        0.8645749600561646,
        1.3371950075392227,
        -0.3339484268837084,
        -1.903789907835763,
        0.29027198467990184,
        0.5558907021053183,
        1.5500793142960727,
        -0.22400374023549857,
        -0.657622649693569,
        1.3723442971388558,
        0.6901271867316283,
        2.4396841784827172,
        1.24586200666459,
        -0.5446711190462006,
        -0.38437364436586374,
        -1.904134558470499,
        -0.6112165986604732,
        1.2421053336959311,
        -0.4428019185446387,
        -0.4328247414415858,
        1.5099763855367563,
        -0.8204889184414511,
        -0.4553140875695547,
        -0.5805787690919789,
        -0.6021709658456778,
        1.1771612223978962,
        0.2009112171470869,
        3.228631937831954,
        -0.9061806416291849,
        -1.2140258533833443,
