{
  "num_layers":3,
  "sizes":[
    784,
    50,
    10
  ],
  "biases":[
    [
      [
        0.9172611232428869
      ],
      [
        4.151156354107959
      ],
      [
        -0.6333973331424969
      ],
      [
        0.23659316105589662
      ],
      [
        0.9122445702736842
      ],
      [
        -2.2779432215916753
      ],
      [
        0.5137461472233847
      ],
      [
        -0.2104718340048945
      ],
      [
        4.997512094999122
      ],
      [
        0.8162390483801223
      ],
      [
        2.0889351655105
      ],
      [
        0.40178042112699025
      ],
      [
        -0.4662398870950383
      ],
      [
        -5.2863341755384505
      ],
      [
        0.015403307625020716
      ],
      [
        -1.831733369622954
      ],
      [
        0.3119968474058887
      ],
      [
        -1.0547107223409238
      ],
      [
        -2.844957173169899
      ],
      [
        -1.4389029190466276
      ],
      [
        2.7268898501658168
      ],
      [
        -0.0667443307077585
      ],
      [
        -1.4944818150209969
      ],
      [
        0.8421020698024257
      ],
      [
        0.5625987616092489
      ],
      [
        1.51796888662483
      ],
      [
        -1.4805861963813516
      ],
      [
        -1.0487349960448795
      ],
      [
        -1.1273287223077144
      ],
      [
        0.765198648912621
      ],
      [
        -2.805006963071384
      ],
      [
        1.9692200878974986
      ],
      [
        -0.6725805591665337
      ],
      [
        -0.8568359683160856
      ],
      [
        1.888787766340507
      ],
      [
        0.9559375508301048
      ],
      [
        -0.6367992569455135
      ],
      [
        -5.592793707915163
      ],
      [
        -2.7287685740806378
      ],
      [
        0.11754541283020352
      ],
      [
        1.5956479110407074
      ],
      [
        -0.784581614028617
      ],
      [
        0.6269443247870857
      ],
      [
        3.1961376359712905
      ],
      [
        0.5810375673804227
      ],
      [
        -0.5229213184238755
      ],
      [
        -4.128460939126185
      ],
      [
        -0.7081965897101116
      ],
      [
        -2.241409129966866
      ],
      [
        -2.3795858895411603
      ]
    ],
    [
      [
        -4.548565192358152
      ],
      [
        -1.803828226646994
      ],
      [
        -1.8308753807341964
      ],
      [
        -1.922223582486446
      ],
      [
        -3.318018890504318
      ],
      [
        -1.5538944732505082
      ],
      [
        -2.9042048159996416
      ],
      [
        -2.1760201113349176
      ],
      [
        -6.819938214093036
      ],
      [
        -3.171700352067609
      ]
    ]
  ],
  "weights":[
    [
      [
        2.1599510305660767,
        -2.4274593447892814,
        -0.5088988896709162,
        -1.3231987662501394,
        -0.8735839495749788,
        0.8111543505528483,
        1.2971507219192522,
        0.16153797664292022,
        -0.4611083155474714,
        -1.5670429021950119,
        -0.21602280502700663,
        -1.1138982817811276,
        1.6914778419576217,
        1.4469579187030217,
        0.4006618082910988,
        0.14859629478421477,
        1.505138715117773,
        0.9028073957997542,
        -1.1702706884012384,
        1.981940174586765,
        2.7891504912063994,
        -0.192262831646041,
        -1.950111260412296,
        1.2155857085866997,
        0.8300985588909725,
        -0.02409467485262198,
        0.7396025802045031,
        0.7984935662921199,
        2.2219092916697782,
        0.6026488434674417,
        2.391067013959463,
        0.17381457800465888,
        0.019455343092417875,
        0.388362514030939,
        0.25681170255147057,
        1.8309552215020055,
        -0.24766819485376165,
        -0.08384708589513581,
        0.6625704495471741,
        -0.5273469678864221,
        1.5141199400784342,
        -0.0374443903205998,
        -0.5234241677013943,
        -0.36175022426449127,
        -2.613166790171003,
        0.8277735004696103,
        1.0512102330835171,
        -0.394590006524128,
        -1.3362642208048612,
        -1.529463000028885,
        1.4506369246778086,
        0.06781987415445398,
        -0.03298749416142396,
        -1.880625247835872,
        1.525612884176059,
        0.0024471741175076498,
        0.5921882250228252,
        -0.4733416807353576,
        0.29079382746345156,
        -2.3378370548432104,
        1.2821560939786416,
        -0.03238850008541568,
        0.5575219987465351,
        -0.723319650682787,
        1.1506635839571215,
        0.7162316828247995,
        2.0667348370054897,
        0.047453873768516654,
        0.37448062736396626,
        -1.6077789813280858,
        0.30525669636903896,
        -0.17206765149369982,
        1.572284131330094,
        -0.015143400698140094,
        1.951193369626896,
        -0.5166585595671926,
        -0.25094776380813677,
        -2.195500590564177,
        -0.06723166197263224,
        2.1505164307490947,
        0.22305581569939162,
        -0.9291100394406736,
        0.8305198593587994,
        0.3059625723334548,
        0.8262419562411651,
        -1.1554426741630246,
        -0.3928521367893463,
        -1.3341366372845662,
        0.2085701651712831,
        1.4809088766250016,
        1.563851680791037,
        0.6621437146025266,
        0.9701997546235727,
        -1.8103458990308046,
        -0.3392175257466103,
        -0.8211000457405668,
        -0.04732934797898753,
        -0.9359406030239309,
        1.103596682625091,
        -0.30630786968503154,
        -0.24872506632295094,
        -0.5369741133417537,
        -0.498455429524381,
        2.1049049106487767,
        0.3384568397323356,
        1.601778733227208,
        -0.5910170111401928,
        2.3407508633043133,
        0.5700986623166553,
        1.5753293074828132,
        0.32545464733434226,
        2.1451443077312873,
        -0.952310521342712,
        -1.4012765865589456,
        -0.7862296227236637,
        0.28294623411696046,
        1.3681602257635188,
        -0.6167675022420095,
        -0.6140124783669727,
        1.5344888831523715,
        0.4908772842800413,
        -0.6800307199753772,
        0.8719840371780443,
        2.833744400660409,
        -0.07777645072798085,
        -0.5296392568614327,
        0.6855448314994524,
        -0.614023155487685,
        0.8962108218436076,
        0.700813472849139,
        0.30560568661230175,
        0.07603862835051402,
        -1.0788890381406278,
        2.176800232774642,
        0.31145556259935125,
        0.7720200233898503,
        1.0227631134136772,
        -0.7080631369657352,
        1.1856379531240808,
        0.38049792103790997,
        -0.1555341307058193,
        0.41235098309483126,
        -1.0780192261237587,
        -0.8511554652874299,
        -0.6510718092981171,
        0.7268130570037908,
        -0.6676855262096004,
        0.49725092632666795,
        0.1276983064354022,
        -0.3199629187616505,
        0.6011084680729664,
        -1.839207826680137,
        -2.050519757624105,
        -0.9098867332628574,
        -1.2357886238162652,
        0.2567114388027801,
        0.7775835641650989,
        1.3733764266103616,
        -3.115281825349975,
        1.6739468792862733,
        0.30240774764055117,
        -1.7834594341770984,
        0.8142727494989482,
        0.9235636240180706,
        0.9347358659796889,
        -0.5008819278478549,
        0.1232748249342685,
        -0.5605178939120947,
        -1.3122059924581702,
        -0.17482106554880578,
        1.3976835180226352,
        -0.6903023903613679,
        1.5631200186152094,
        -0.1782480800124482,
        1.091579758612716,
        1.059541922557492,
        0.04991381605460725,
        -0.1903419613916777,
        0.5498501667090758,
        -0.18248213057024096,
        1.6121665455141572,
        -1.3286782019490742,
        -0.04664077129791815,
        -0.2678412678238109,
        1.712350878543052,
        1.2484123621697663,
        -1.6304817428573297,
        0.4038189691267899,
        -1.0660599008169596,
        -0.3276318392026297,
        -0.7032336145207223,
        -0.12313966786155489,
        0.9530223339943772,
        1.0535819069406596,
        -0.059094108218129965,
        0.4774051740678026,
        0.7187039724132207,
        -1.275852239074768,
        0.03984772816443697,
        0.7788175231136114,
        -0.15697669689410002,
        -0.3254960174001527,
        -0.37538503494177455,
        -0.583971640505957,
        0.21361523786353845,
        -0.5198512990282055,
        0.9360279332561343,
        -1.8293373739740237,
        -0.8471149841195634,
        -1.1849026311565312,
        -0.6383589091339322,
        0.8744197449633972,
        -0.9348802344867989,
        -0.05102768856454705,
        -2.24267448252515,
        -0.3715517856421488,
        -1.340865315277639,
        -1.3057804574156089,
        -1.741182025281067,
        -0.38393054855430503,
        -0.8721519148274267,
        0.6057795154260333,
        -0.6343732580044611,
        -0.6775740532217864,
        -1.7439784185077472,
        0.26343631532183087,
        -0.890178060084418,
        0.5632025374010121,
        0.8325643470947758,
        1.5245538487024881,
        -0.9809463945825369,
        -0.41167880350598707,
        -1.2194779423715194,
        -1.4040546132969247,
        -0.08003085191494783,
        0.17111360345026705,
        -0.45666388057523943,
        -0.6113703516323863,
        1.4553714580457604,
        -1.4327850185369198,
        0.5294203311894077,
        -0.7132609700942785,
        -0.10216609778297997,
        0.18599054760038278,
        -0.2562087514730116,
        -0.6606035831429103,
        1.5729637432098542,
        0.8447744614407589,
        -0.7119720922756726,
        -0.14425029540589263,
        0.44220631824063567,
        -1.4255577201339653,
        1.5024081117217483,
        -0.1920957862138329,
        -0.1635370611868004,
        -0.30750905430338815,
        -0.01411856165010989,
        -0.5825359294691873,
        2.0031777578023835,
        1.1516001883789087,
        -0.29825707762075054,
        -0.4211312433214381,
        -2.6971296539924987,
        -1.3966873075694304,
        -0.24874677489456032,
        0.21469442025484875,
        -3.2110381217600863,
        0.5849618266433715,
        1.288216342362441,
        0.5316220627570682,
        0.05992155457880616,
        -0.48139900771289484,
        0.7800170402369684,
        -0.5001781824782449,
        1.1215573180595968,
        -2.3883379671826352,
        -1.0672075692963494,
        0.13793646651841573,
        -3.108322690107763,
        1.3292812093024047,
        0.5845982822192838,
        1.468766104859044,
        0.6310966271652642,
        0.9943939178987641,
        1.1518804994737406,
        0.565465677903523,
        0.034473875287963966,
        1.2308470966361018,
        -0.6322642275887965,
        2.0158692885482,
        -0.8262684098342749,
        -0.902384693769971,
        -1.2913727829682455,
        0.9663542751660772,
        -3.5950032833963537,
        -1.361648719420447,
        -2.810227521099005,
        -0.8172592261941827,
        -1.2433593775517882,
        0.4655282960701302,
        1.723888512187225,
        0.22145170352803006,
        0.6710072410405501,
        -1.6058892278950272,
        0.6012923381680984,
        0.5213871180121196,
        -0.47826604969554504,
        0.18763524673144205,
        -0.035831590424500535,
        -0.5200785334972945,
        0.7220781039899261,
        0.1771641274542728,
        1.202372679410219,
        -0.5786293770611566,
        -1.4332530819453657,
        0.2640103217144502,
        1.0304212140233475,
        0.9002135199073853,
        -0.7078650146365186,
        0.1896317166774039,
        -2.4437005742783713,
        -1.1485801516599512,
        -1.254267036108825,
        -1.8598735438251732,
        -0.22739454365914935,
        1.0142776203259538,
        1.3705439877894088,
        2.4402108240073033,
        0.4921372364289628,
        -1.370134312387593,
        -0.28735033969627743,
        -2.449490040513699,
        -1.4089860510666459,
        1.0816982786763574,
        1.6527653973219565,
        0.29263327040858006,
        -0.23141263756298433,
        0.32557575205596717,
        1.0168003622634993,
        0.12204942122683687,
        0.5090522550995233,
        0.6178985485439433,
        1.3497552310613723,
        -0.3359909622886253,
        0.05214308835370621,
        0.3630789721989472,
        1.2691111448162176,
        0.8855968229825226,
        0.9307384029344339,
        0.49739618620485504,
        -0.6603609741209286,
        1.9211733796457369,
        1.535407908243993,
        -0.5954151089482771,
        0.5861094095142826,
        0.379764929726699,
        -0.41817035461702884,
        0.13737567168569645,
        -0.5722316009896801,
        0.9109533396081673,
        -1.2717532420230955,
        -0.021207254023785337,
        1.3030199462536198,
        -0.6372458033193061,
        0.20154539735840982,
        1.05034123432395,
        2.1563074509762807,
        -0.38777406348325694,
        -0.403623756141966,
        1.2009408266705293,
        -0.364795194869953,
        1.659214357787878,
        2.257671322612749,
        2.0999559541564428,
        0.33812591812900067,
        0.5494928538791752,
        -0.3791794955557975,
        0.1947150967100888,
        -0.6228889349432633,
        -0.6248831457075582,
        -1.2361469362419797,
        -0.4228501527253493,
        1.6252588507520256,
        0.09807295006890268,
        3.064185243082318,
        1.525423964902394,
        -0.2749261177388742,
        -1.198875859077342,
        -0.33414207111963246,
        0.11755162137247126,
        0.028162854175069016,
        0.10901096876230401,
        -1.4458461093008572,
        2.634119958651534,
        0.32668124678969745,
        0.5472827153413052,
        1.7464549036678043,
        0.2389797246941665,
        -1.4530750892457884,
        -0.30835797255376796,
        0.6015396861589906,
        1.5427460640033472,
        0.25769795277201357,
        2.461288201528142,
        0.6985233856922223,
        1.1002917013537294,
        -2.325969083256282,
        -0.16694554344548987,
        1.0588972727021024,
        0.8825669324089932,
        1.0880177640603719,
        0.7689744100216928,
        2.5545372093765555,
        1.7207250383227044,
        0.22193240219337518,
        -0.21183749225699167,
        -2.8256535922946213,
        -2.547470394981937,
        -0.5740682975138954,
        0.344002880674285,
        1.642267204259056,
        -0.785315846640266,
        -0.7192170404546023,
        -0.8199460815942508,
        0.9612314823036006,
        -1.4898404463877566,
        -0.5127662526828682,
        0.7319090191724221,
        0.1967488886875782,
        -0.5671598429249437,
        0.7662071148388453,
        -0.045826316879602244,
        1.7293421969322138,
        -1.5572955926676744,
        -0.7516393829142225,
        -0.6569328297140579,
        -1.132026894068145,
        -1.6453932144417116,
        2.8124199372328693,
        1.868059879009273,
        1.3537982351548254,
        1.4052348992084187,
        0.8595601973178525,
        0.7519079098667383,
        -0.4168037069976033,
        -3.157279189013966,
        -0.700255845139671,
        -0.6652596646281055,
        0.4222231222134659,
        0.861804234780124,
        0.571017611960182,
        -1.0400568548967768,
        0.41224945503238364,
        -0.5390636146672084,
        -0.4969802470966925,
        -2.1310657282634655,
        -0.33160482364097454,
        0.0011003067110169312,
        -0.18187412625920604,
        -1.6134533365250683,
        -0.6397795885974279,
        -0.8261412451223782,
        -1.3656378030663878,
        2.7778859464245835,
        -1.847146341679515,
        0.3901760298371579,
        3.0219146090483915,
        0.5557930586563418,
        -1.133120910118003,
        -0.007891904258342956,
        -0.6735611046452914,
        1.0772829019850036,
        -0.05304448482525349,
        -0.41735711655721974,
        -2.8032976229989752,
        -1.218588985629512,
        -3.790587806407945,
        -0.1324182678623259,
        0.8947628468019843,
        -3.7798053121793735,
        1.7243050349952127,
        -0.24041737583583855,
        -1.8567443414194562,
        -1.6928727436685864,
        0.03404860620008832,
        -1.5465089262068707,
        -0.5902006737338409,
        -0.028548166130033328,
        -0.39714572154422884,
        -0.29734632573006015,
        -1.9129776976671016,
        -3.7209469214698396,
        1.6844388240515669,
        3.8233126829785,
        1.7209372217351784,
        0.8832948517156276,
        0.06776336599920053,
        0.9944289094197087,
        -0.9575534353781537,
        0.9792720881482324,
        -0.08354277293012259,
        -1.7505904802459142,
        0.1547041753063918,
        1.8279924844230693,
        -0.5136722295103674,
        0.11727753316757245,
        0.30704826217068576,
        0.27676040048849854,
        1.8270340148321174,
        0.32337184531815816,
        -0.5829362742100674,
        -0.8766835661565517,
        0.45442925620823954,
        0.4744199336465191,
        0.35690760228963914,
        -0.9479255324808332,
        -0.20993200623641375,
        -1.664663043876809,
        -1.365444066524842,
        1.7804025524376643,
        4.075563288880575,
        1.6305612370705964,
        -0.5147939988054805,
        0.9616564997673054,
        0.26277348131477707,
        0.5853769124148138,
        -0.31370633196847547,
        -0.6902289629166591,
        -1.5379947474547249,
        -1.876738759743535,
        -0.12869491366946467,
        1.8070579645818643,
        -0.4360597631652526,
        -1.9783562697046055,
        1.2230197967958547,
        2.455485142564393,
        1.3879944562004554,
        -0.3146567015200893,
        0.3611182292307518,
        -1.8143393995807435,
        1.9055482991791968,
        0.404906248039385,
        1.0817505991860965,
        0.5590561645107629,
        -1.9681891470000659,
        -2.104599384595317,
        0.8650375605998049,
        0.005440484700123644,
        1.9316865376427848,
        1.0982886245599532,
        -0.40884881758443475,
        0.4741486594434034,
        0.7880897315722806,
        -0.26497062051736053,
        0.16090558326763707,
        -1.2676077557767553,
        -0.42991833594903656,
        0.23710228110953077,
        -0.09053771380326109,
        0.06148414797374701,
        -1.1645785638190573,
        -0.2280127130335649,
        -1.3471910981590867,
        2.08163504855588,
        -0.7058892295929982,
        -0.5761213953450708,
        0.21026092247169942,
        0.7353095249956665,
        0.5442275507894946,
        -1.4405918496766574,
        -0.4948849831079366,
        -1.6676344832708418,
        -2.1472674563952783,
        1.7686704390339019,
        0.7559881593370292,
        2.0653236309206147,
        1.0195622149581358,
        -0.45833700627366736,
        0.005735091977172214,
        -1.7858853196573234,
        1.0057406009744272,
        0.5409761845590492,
        0.1576612727738166,
        0.15958778007462732,
        -0.48051037669138746,
        0.35741586288526217,
        -0.5086858077816979,
        0.6982466494575863,
        -0.2586925409628768,
        1.4423661628299638,
        -2.354718780301657,
        -0.1333416378125523,
        0.2773760496926051,
        0.11655076885916947,
        0.06354642629203058,
        -0.19471152841092756,
        -1.473491798618601,
        -1.0167009604470905,
        1.1210020304589332,
        -0.9457927503888526,
        1.343271273073288,
        -1.2543953097974467,
        0.7043217379826135,
        3.2579971498507603,
        1.7110972116266807,
        -0.6381977562482348,
        -0.7038130765915537,
        0.9870206113547956,
        -1.1117002533950797,
        0.3390986521974498,
        0.9060481117801685,
        -1.5391140002488954,
        -0.11996964103626236,
        -1.4248574833074363,
        1.2492107723882215,
        0.7495037731566583,
        -1.1638809030617263,
        0.11391843690822982,
        0.6271976806496976,
        -1.8995218076457103,
        -0.8008397089733762,
        -0.9465479071740626,
        -1.0853616594335131,
        0.743678799908889,
        -1.604409665671274,
        -1.406423819907323,
        -0.7451807307696149,
        0.42951794073557964,
        -0.4821939485519098,
        0.3356007368491165,
        3.300537881609908,
        1.9910233077909334,
        2.11354663130056,
        -0.8031253658750471,
        -0.7505797315701976,
        -1.1577466921734882,
        0.07934480348730229,
        -0.8497824498307313,
        0.034063579072491405,
        -0.2918594612826189,
        0.601541775112736,
        -0.6577333918096281,
        -0.5832529610782428,
        -0.6417584558877885,
        1.2597629340157714,
        1.7273767925792183,
        -0.7721163698446991,
        -0.48958558217600023,
        -0.5121728115269922,
        0.46765504572108013,
        0.05022838850433081,
        -0.6190702094355888,
        2.7500753052217806,
        0.2371455348562281,
        1.5877237744391905,
        -0.6140221944488876,
        -0.5047601632684251,
        0.46119739111629066,
        0.9699567160106657,
        0.32505400647878924,
        -0.05635051234307853,
        1.5337986785688364,
        1.2155267033570705,
        0.01495283919425253,
        -1.1481626400154363,
        0.748424131705461,
        -1.36620327615683,
        -0.5155452859145514,
        -0.4915599501473218,
        1.495739485185798,
        -0.6776433789967752,
        -0.5570350565102407,
        -0.39939655702452764,
        0.09866740720988718,
        1.811915095914974,
        1.2464059850359657,
        1.776296414405501,
        0.13156154139596518,
        -0.06817444466072078,
        0.9666703139485588,
        2.1995012274437586,
        0.996447519949233,
        2.293034531177835,
        -1.0176146335110523,
        0.8217993709852162,
        1.162156254963935,
        0.23659964460645536,
        0.9170514219867333,
        1.4000405398097853,
        -0.38200378000602236,
        -1.7862282354928736,
        -1.5631320534717992,
        -0.7758643520398082,
        -0.15533254306150632,
        3.1556073165776604,
        0.6452796471930214,
        -0.04715149181607239,
        0.23311614315885562,
        -1.3918547085319188,
        -0.6790629350910634,
        -0.6867554220653921,
        -0.35369490400130926,
        2.3365679369420995,
        -0.1538361613881885,
        1.9758866163218056,
        2.383265430076427,
        0.127554621943996,
        -0.431583152357697,
        0.2473159171728062,
        2.9209111089667474,
        1.7530939711466806,
        0.7478859162969052,
        -0.5699423015348923,
        -0.3855735915303601,
        3.135427529342509,
        2.426123832801533,
        5.147471468457128,
        0.6956858906936514,
        -0.7752050101000224,
        -0.8464375581239779,
        2.2228606462041176,
        -1.3769683932641177,
        -1.3135154659148587,
        -0.3602058343928752,
        -0.11384081247522503,
        0.2053897579735202,
        2.643147710924872,
        0.30772212543427396,
        0.7491422143290944,
        0.044288357284795146,
        -2.2902072228889683,
        0.2700335389043434,
        0.39790782866540564,
        0.5380661418789106,
        -0.46921970599469587,
        -0.28211313304857094,
        -0.9040145879107762,
        0.5468425234538346,
        0.353715633133713,
        -0.6923293015381137,
        0.12762546139362266,
        -1.212711352288259,
        -1.6538339328512106,
        -0.7307954859941904,
        1.4610746520144566,
        1.9218890922174099,
        1.1322279750002506,
        -0.06746045202519692,
        -0.6883316213762384,
        -1.2469623881174272,
        -0.07865746248745444,
        -1.3399271004066124,
        0.38003432869715453,
        -0.03981023101357457,
        0.8314360659353579,
        0.8296852003858715,
        -1.799156389474986,
        1.905841400506784,
        0.16009756351133922,
        0.2921094440503522,
        0.7729742701788337,
        -0.13893955643392492,
        0.6599087148713377,
        0.10711896542696779,
        0.9145549640529708,
        -1.2797938533783393,
        2.829929757226674,
        -0.14272212006086038,
        0.24280923542695562,
        1.5818271570955145,
        1.0002285977070566,
        0.6726542847913516,
        2.3802361741482523,
        1.910656098084939,
        2.872911842697221,
        -1.03159933935238,
        -0.198928017824213,
        -0.3898162009049464,
        0.7205385926266682,
        -0.8573113173861895,
        -0.6418829933451066,
        -0.7004796262231919,
        -0.6185578537475508,
        0.4404698501746901
      ],
      [
        0.8213576860965321,
        -1.0862044205547121,
        -1.576217506458972,
        1.2158259845008033,
        -0.12425345169912055,
        -0.6025158786597945,
        0.31203273022819117,
        -0.18801006441444468,
        1.2449822892244307,
        -0.2956060527490141,
        -1.097735505900164,
        2.3502152140980805,
        -0.27104680195303366,
        -0.9351626817425863,
        -0.8663782093782094,
        -0.06736801339085025,
        -0.32424217203353056,
        0.2696506100888952,
        2.2328268096022033,
        -0.2790889925313389,
        0.22271204481160234,
        0.03188154477070814,
        -1.0801079021150894,
        -1.7588986739098247,
        0.5986221301389353,
        1.1384778663468285,
        0.23997747574501876,
        -0.762949063539677,
        -0.6490562217388981,
        0.5351249534103657,
        0.8130191565700541,
        -1.1255017747170086,
        2.6819749400774944,
        0.8231707037955082,
        1.32356856856912,
        -0.49263115167031196,
        -0.6187390518551275,
        -0.33360395164076107,
        0.1580976469484448,
        -0.6221476831800056,
        -0.35235807385682916,
        0.4901689445642073,
        -0.7188123460263397,
        0.6000369074307751,
        2.355728340260116,
        -0.8836151940351789,
        1.0454411426079289,
        -1.0739468893331185,
        2.2490754798416632,
        0.5518625788187933,
        -1.220026598938567,
        1.6866308032644972,
        -1.756592382548506,
        -0.508868404376587,
        -0.8877652463357488,
        -2.7560710531172625,
        1.0356233456238713,
        0.20851811637676423,
        0.6416329347768374,
        -1.4345177018941515,
        1.3887530143243787,
        -0.14105173753817754,
        0.9030584755249154,
        0.3682060036131249,
        -0.14021271492579665,
        0.2523442132092121,
        -0.2864045676394433,
        0.9241932554401364,
        -0.26571109865910086,
        1.0117455001308537,
        -0.5423984476069943,
        0.6807475106227839,
        -1.3320626322326274,
        0.3613208849201193,
        1.6562838287550627,
        -0.9763958445724801,
        0.9602887071597355,
        1.170966162993774,
        0.2655729899725946,
        1.430766078075696,
        -0.20802024250447157,
        0.5577089968454326,
        -0.07545661652676372,
        -0.6899304269007073,
        1.9402256642498041,
        -0.8711370131261384,
        0.41230581683272177,
        -1.733941603807616,
        1.1738098421933603,
        -0.7868389265410445,
        0.017975125138859425,
        -1.2352981113520098,
        -0.3093321868372961,
        1.440741431330267,
        0.8285590196378432,
        0.1471457856076155,
        -1.2298172106223069,
        -2.2621851197590566,
        0.6610922816146192,
        1.5530639800499044,
        -0.7503911573824776,
        -0.4908486612890698,
        1.1896714226311838,
        -0.03849529647142784,
        0.8579249069607847,
        1.518779876669248,
        -0.5937486635837663,
        -1.0484982001631633,
        -0.25282952429293687,
        1.133078853288389,
        0.22232079878188837,
        1.877299534765587,
        -1.299451570612605,
        -0.9891757274738505,
        0.41223511596288065,
        1.7913309333591394,
        -0.41337831832858796,
        0.11916424012230407,
        0.9201039878217306,
        1.263549837161144,
        -0.7011679065674405,
        -0.7504284950358893,
        -0.9311355482085799,
        -1.2849994980017003,
        -2.962507248562681,
        -1.1106781014383036,
        2.1837838024892444,
        -0.9637752659377642,
        1.4328686602956446,
        -0.15395813000628863,
        0.58965206181844,
        1.7272624308651405,
        -0.20756589640542308,
        2.2295344813036126,
        2.2219093969848043,
        -0.4100570737596721,
        0.7308839387279593,
        0.49926654529178044,
        -0.2809013671373039,
        0.24491893985871432,
        -1.2432601560676504,
        0.11503524489068,
        -0.9908640712632868,
        -1.1733473718344272,
        -0.9395361183363646,
        -1.6979155061851605,
        -1.4741664547339535,
        -2.340771699963159,
        -0.7528542017411414,
        -0.5675433317930979,
        -1.556390278888642,
        0.24331279502384418,
        -0.7744157367330098,
        -1.4358402484179773,
        -0.2347075479525457,
        -1.295761150247386,
        -0.307027186853767,
        -0.16762410314474968,
        1.227463556011468,
        1.0337652239429518,
        2.5827845017202575,
        1.4496413205944452,
        2.043455568354807,
        2.041274080134404,
        1.515286905830673,
        -1.2829271794381882,
        -0.5703701151121953,
        0.36390397911545075,
        -0.5753803448077814,
        0.9927606528419062,
        -1.6091800914514587,
        -1.5549135936775655,
        -0.27520410037917864,
        0.5327132821465849,
        -0.14341728872989706,
        0.11624319715967321,
        1.7535840164299434,
        -0.6517847876998728,
        0.2156787568530552,
        0.4711282750747154,
        0.4580539655296601,
        0.18575552009642984,
        0.06332717044302352,
        -0.07600861327002828,
        -1.0495478363144826,
        -0.7729495772285345,
        -0.5113308068257612,
        0.08957419176428673,
        0.24666928633830432,
        2.547404639081723,
        2.318830250027155,
        0.9887938347599271,
        0.02797805095105337,
        0.9725635038051929,
        -0.936101477286228,
        -0.14917445706025742,
        0.8955632199864461,
        -2.439747566785324,
        0.14490145074989533,
        -0.3067001942617987,
        -0.3083245681996101,
        -0.16508681160301408,
        -0.5473341565719482,
        0.2827111782942961,
        0.05095753972859927,
        0.6022916144033581,
        -0.5165297985018041,
        -1.6366096516310755,
        -0.6010040837720235,
        -0.5462465523913782,
        0.7047166173674491,
        -0.5663840607771032,
        -0.2453614192485689,
        0.6573107389406259,
        0.29911035236601663,
        -0.2244067662182197,
        1.9727865146400647,
        2.910689252477446,
        3.3794771839380737,
        1.6412295305161617,
        0.026507782474105485,
        -0.689267678895638,
        0.9078600046388765,
        -0.43626235209766234,
        -1.2191855179506303,
        -0.8165371686025783,
        0.8625969627972236,
        -1.3759009931612813,
        -2.6647915522803887,
        -1.1287492875013223,
        0.3678023078369064,
        0.7052063283611407,
        0.35570226950004025,
        0.22159748112197517,
        -1.1697673158659174,
        2.7158533033088847,
        -0.2881704241272358,
        -0.47454540809892815,
        -0.23686924980291058,
        -0.8292014815672093,
        0.8248484714527279,
        1.2679328978300213,
        -0.6594403756031993,
        1.413672698418843,
        1.930329523714602,
        2.9873294569410938,
        3.216966195493671,
        2.3833720579296336,
        0.6784216163130053,
        0.5309849946859238,
        0.6470550104611489,
        0.9185480360608804,
        0.7520512412010169,
        -1.587407389655715,
        0.02986380640787551,
        -0.011676342993233963,
        -1.7017902202661728,
        -0.5554238387316411,
        -1.8463661359978674,
        -2.60710009380427,
        1.7622036445794276,
        1.7374603311367018,
        1.7965000545138186,
        0.8951660776764353,
        -0.72899577293965,
        -0.018664930893747864,
        -1.555272722846393,
        -1.916318841126323,
        -1.467887402406011,
        -2.030092329257678,
        -1.0333054993491355,
        1.3269849144982568,
        0.47744445648483197,
        4.576375553592996,
        0.5700337750490663,
        -0.07207701979841266,
        0.47772199553109196,
        -0.5174197128706883,
        -1.3798998067116357,
        0.06580697062736952,
        0.7163884375949043,
        -0.18021092570889938,
        -0.02045937550576457,
        -0.6717711424841017,
        -0.8904785769698003,
        0.21424269121118916,
        -0.8326461991667911,
        1.0899424650441047,
        0.8503957763942839,
        1.9353238549620306,
        -1.988518728439095,
        0.2310330333718278,
        1.8826361794936546,
        -2.6536759402511843,
        -3.448197198786448,
        -3.7409612163265944,
        -4.341579921334227,
        -0.06746316635342825,
        2.3567273072323407,
        4.018736988928296,
        1.8533292682202471,
        2.258202527235469,
        1.3772753059044438,
        2.2275260055787105,
        0.6975468956252935,
        -0.7349112221878613,
        -1.34194871394506,
        -1.3877464841172997,
        -0.1773879223456546,
        -0.4819617228472158,
        -0.12789869436607026,
        -1.4474203964747572,
        -0.10703606239676879,
        0.03543165259239384,
        1.0393988799773795,
        1.1667145218477404,
        0.8554881385274827,
        -0.13363578182769603,
        1.6685423413180664,
        -0.8713436592791127,
        0.061195472831115184,
        -1.4830879453148906,
        -0.9285479238478248,
        -2.9535020083376984,
        -0.69082287862556,
        1.5703087792289354,
        2.601934246301168,
        3.0752158870873014,
        0.34190052996675613,
        0.5012240417852525,
        -1.149904717866348,
        1.5824484168245518,
        1.4890519695044167,
        -1.0677050870518339,
        1.0976102053915244,
        1.5640010644725966,
        -0.6615397096660648,
        -1.2684567596513472,
        -0.5470081993821215,
        0.4266000306358779,
        -0.33832895720165235,
        1.8573229376848908,
        1.3870170513434017,
        -1.0111368625849395,
        1.4072383114254718,
        0.3799818480499102,
        -0.2969069628370945,
        -1.6212705758909505,
        0.9886813489499228,
        -0.4365301860027693,
        -3.9306182956832516,
        -1.0811368289530925,
        1.2404151383347306,
        1.70625455707168,
        4.8048922222358295,
        -0.8916966420695056,
        2.5602250683153476,
        1.3882076077534753,
        -1.14368869547788,
        -0.08196433681135311,
        -0.7053183983175346,
        -0.36047700581130904,
        -1.32172983444866,
        -0.36876978804059163,
        1.2818480965404953,
        0.1277360735706146,
        -0.12365722843236146,
        0.3675970280898342,
        1.000669197129491,
        0.8572719829923564,
        0.5851804748410147,
        1.9861093815871071,
        -0.6395766832903873,
        -1.4205285576585511,
        1.4008224541770964,
        -0.3802954296329721,
        -0.8604706473609008,
        -0.7902553211164168,
        -0.03201808679389474,
        -0.09864965382997345,
        -0.5173523120454075,
        1.8464249808538327,
        -1.4250948222416255,
        0.14743298034700994,
        -0.26603044772290235,
        -0.47985705304737825,
        1.7271335366994032,
        0.3842320155392782,
        -1.0288284608456841,
        -0.7741257053740775,
        2.310170562257959,
        0.8123122357446918,
        0.12705802368814872,
        -0.3454549956856468,
        0.12617668660779988,
        1.2218718612029658,
        -0.1613890649913902,
        -1.0501063802336288,
        -0.17503465171532911,
        -0.12237731657276422,
        -0.9748173077044243,
        0.409309872678278,
        1.624348583454014,
        0.16919031879150198,
        1.453767742743532,
        0.291485954286793,
        -0.8055677913497588,
        -0.7878545033271209,
        0.028401063849797945,
        1.5062027275952348,
        1.5168900587229084,
        0.2764811823339457,
        1.24689074853485,
        0.07016142717525689,
        0.0829780552864429,
        0.5283667499150286,
        1.2266926584879985,
        -1.558697855173347,
        -0.3600691812699,
        2.7801839870121037,
        2.027628630739105,
        -0.34947304956017083,
        0.4892349773396697,
        0.4397973698875433,
        0.08941702944988644,
        2.702026124063996,
        -0.3111917226905816,
        0.06594709661185442,
        -1.9478897596073574,
        0.12148834557784016,
        0.13021412351826486,
        0.894308175110031,
        -0.3556997316355709,
        -2.327364586604307,
        -2.0611080960808774,
        -0.9659574886101236,
        2.6061384527617446,
        1.1783401825019328,
        -0.8052922674634504,
        -1.3382245847210454,
        0.8721069318936802,
        -0.6335327574412004,
        -0.4734602814388576,
        0.1338900498673149,
        0.2634383724856269,
        -0.8205431746632549,
        1.0330637231723736,
        0.627545110840509,
        0.19848289291808174,
        0.3724774458780968,
        -1.4525628364238474,
        -1.0726218399618632,
        -0.9129943867013063,
        -0.148913292455412,
        0.05698808460759888,
        0.1393371187221339,
        1.221834871024044,
        0.06722438580190383,
        0.3254852182895461,
        -1.470632972940071,
        1.6843983237723874,
        2.643647683210763,
        0.9397928580815211,
        2.086698904728037,
        0.7321287892864813,
        0.3450133543835259,
        0.38007831063670133,
        0.2710305012993391,
        -0.11112703043830748,
        -1.4973913924863433,
        0.18795315377106545,
        0.6956496387481702,
        -0.863557750852266,
        0.15467094028928133,
        0.427197866608051,
        0.04459667214572461,
        0.31241239681431104,
        1.0759357446190723,
        -1.254941330685367,
        -2.435926467010252,
        0.6068856951725683,
        0.2563803187846055,
        -0.11145002152843268,
        2.205338319695095,
        -0.48060729416632647,
        -1.1238204271261496,
        1.0125948242929628,
        0.7749024130590694,
        0.3499874267907035,
        2.082802713571858,
        -0.25865763555662435,
        -0.09919447360410627,
        0.6645611800995788,
        -0.4202431013185264,
        1.2812711692148757,
        -0.22287700266303206,
        1.6170338950671657,
        1.4236464651712348,
        -2.281975092858117,
        -2.285284018054261,
        1.0075949882543025,
        -0.18947244371748215,
        1.5449614417862845,
        1.6466692319363765,
        -0.9708205050255775,
        0.8394242182831334,
        -1.4811487611877412,
        -0.9970533148316009,
        1.0556593234480105,
        0.16047160853075132,
        -1.1243438275413067,
        1.605986059839452,
        0.7625615189827023,
        0.7419082917213298,
        0.4533944039188282,
        0.07744255230283467,
        0.8297267555630737,
        0.4349390047208711,
        0.27908672613968283,
        1.4707676780201657,
        -1.753712466100108,
        0.4786689500868851,
        -0.6226511441494037,
        -0.616575598397439,
        -1.8183772164765606,
        -2.0799345122522443,
        -1.135793647336524,
        0.3051699776613314,
        0.8550619640786024,
        1.3290426458948859,
        -0.6351521587401214,
        -0.7071547532953445,
        -0.08284433150720923,
        0.5652565663170388,
        1.8907846632417,
        -1.2415519941189028,
        -1.8103553099580525,
        -0.22745392084530058,
        0.5627340793155586,
        -1.0348154216570187,
        1.032534101549537,
        1.5224893214880382,
        1.8018588256157315,
        0.8190493138309298,
        0.8946497463544589,
        -1.6655479896866898,
        0.13602838593764136,
        -0.14454743230786826,
        1.0364530990502727,
        -2.273206572948949,
        -1.95203822265288,
        -1.6193847016041556,
        -1.2100840646053197,
        1.1812686155195502,
        0.3541379502845283,
        -0.2604038211231324,
        -0.24625761668025525,
        0.04534152983775805,
        0.3325118348880932,
        -0.7379484419292897,
        0.06420880045225866,
        0.6583145078306936,
        0.6322833606808306,
        0.33909325009770497,
        1.6289016886418777,
        0.6137329147197971,
        0.5874838860962179,
        -1.3103711886313956,
        2.510518272723552,
        1.04719939464398,
        1.1992742211217917,
        -1.105458466115489,
        0.8971506084120598,
        -0.9383098385851545,
        -0.47620331049154063,
        0.928845821374495,
        0.10673100313431742,
        0.5590682950489038,
        0.7696064313418007,
        0.5197763605497367,
        -1.3760246185534128,
        -0.228780935720654,
        1.6462467108724226,
        -1.1862182834589414,
        -2.189968175701969,
        2.4029818903088183,
        -1.118477645030934,
        0.01890055114258004,
        0.6872941315206877,
        1.741357569587559,
        -0.12350583326450924,
        1.5370388314940742,
        -0.9693412944012954,
        0.1725786124004641,
        0.12882635366221057,
        1.1701662995834217,
        -0.8588010569941232,
        0.14627964920236275,
        1.5658680578641957,
        0.631437089894835,
        1.0447792601249144,
        1.294832124601727,
        0.049951678987903904,
        -0.7545270635719851,
        -0.379425328237055,
        0.255622406550951,
        1.1677030750879274,
        -2.9092231386261993,
        -0.5816749554304441,
        2.155937170450186,
        1.9050522549770177,
        1.8833321954795117,
        -0.08400296420527446,
        0.20948675610695983,
        1.0997471394089562,
        -0.17199850294429886,
        0.7509360731926077,
        -1.858263735956808,
        1.0478622392072734,
        -1.3788510294586351,
        -0.6983633256696192,
        0.7437944713570613,
        0.27037498518148545,
        0.333099132053663,
        -0.3918170812683541,
        0.4163408712130596,
        -0.13708718936166386,
        1.2990316048366448,
        0.679910651056142,
        0.6033711650393397,
        1.9116813695495833,
        -1.8715188163411072,
        1.309628240103676,
        -0.225796973994284,
        -0.8969891479813162,
        0.7013496102313507,
        -0.12670782926748436,
        -1.3080957008675806,
        1.409112130656681,
        0.40897668539537446,
        0.3631069367886414,
        0.5269306711015654,
        0.8508827534550705,
        0.4010671907724177,
        1.4754915581546373,
        2.559171548490051,
        -0.10022976468783903,
        -0.6261534315430103,
        0.24839730084195336,
        0.318330793018655,
        -0.5654705697886153,
        -0.5793302922193656,
        0.2980597649349628,
        -0.2283706937509796,
        0.6679580389102383,
        0.052492539780309405,
        0.6364298762111652,
        -0.36830973041778,
        1.4767538078457108,
        -0.22427989268316378,
        0.4474627534791101,
        -1.0493135180599906,
        -2.019918171821669,
        -0.344586168373097,
        -1.175365554315935,
        0.8512191737392883,
        1.858965267348165,
        -0.7918525128145071,
        0.5343464251044369,
        2.419652345649594,
        0.49083297769159806,
        -0.9088759313397109,
        1.9519440695014523,
        1.4546428893536245,
        -0.06411979122274822,
        -0.38538252590370525,
        1.194230911816533,
        -0.2142160558767716,
        -0.8268357857586988,
        -1.6866817682319537,
        0.04276835819549737,
        0.07933014810727278,
        0.15051899134041438,
        -0.19554468172643424,
        0.09687822832108789,
        1.809603240495643,
        1.141324260542508,
        0.3433484092381795,
        -0.2818277345708704,
        0.7479078549344311,
        -0.21062688415850817,
        -0.2113859547319826,
        0.07819022506598265,
        -2.0238014771349917,
        0.45603973472809456,
        -0.04794234977596296,
        0.7836355170818451,
        -0.25092564557919056,
        -0.13567971906409193,
        -0.6157183933160739,
        -1.7577619728279577,
        1.599948535234266,
        -0.8550214141600665,
        -1.3644781794012122,
        -0.45583895875638036,
        0.5505409626293071,
        -1.7339354760465557,
        -0.5145710573356748,
        -0.8786404933056737,
        -1.4954734594199728,
        0.3042689203360034,
        0.3510347029053578,
        -1.8862072256284654,
        1.2417704010985233,
        -0.29166065912933803,
        0.47516345887435013,
        1.884893783817347,
        1.7597086969016755,
        -0.3895816801571634,
        0.942102263852448,
        -0.565160083500007,
        0.41485500355826194,
        0.8340480697891671,
        0.7144918091721686,
        -1.0643556174916775,
        1.3088610892943235,
        0.0647827342419826,
        0.25503226543553403,
        1.244192192794244,
        -1.4270424418058487,
        -1.217739617835818,
        -0.23915363078944663,
        0.3907098235693182,
        -0.42889237671864816,
        -0.7654714788212436,
        -0.9417239780032771,
        0.8131641769822541,
        -0.33808976993137074,
        -0.40969675516609255,
        2.038876303930148,
        1.279765815195734,
        2.0328246997719184,
        0.40712497608303955,
        0.7931640384474029,
        1.0892079152988128,
        0.7542306406032291,
        -0.08767816636626642,
        -0.6515723760626072,
        -0.5740253565259329,
        0.4463126405151203,
        -0.6917299516770556,
        -0.15427524445924318,
        1.7906240490107737,
        0.6517974361651387,
        0.8001180630227858,
        0.8679873080846402,
        -0.10867473927632132,
        -0.7474203293798659,
        0.6161673185006076,
        0.17154668904911347,
        0.3966383559354348,
        0.8475507742373136,
        1.2658286755745212,
        -0.7864768012715642,
        -0.23531065363891082,
        -0.05385167058041503,
        -0.3992514209439988,
        0.37700074238333453,
        0.44509074061663556,
        3.323155343549777,
        -0.2508270807079045,
        0.31663241700740336,
        1.1663991521320358,
        -1.9097452479228778,
        2.050948844737787,
        1.189105415693237,
        -1.2852159342687115,
        0.22252630864257963,
        -0.6670969193840786,
        2.127133886980371,
        0.1947492885756155,
        -2.0725973861322897,
        1.0640174265482851,
        -0.19556280482207503
      ],
      [
        0.5453546632802978,
        -0.11634832671446414,
        0.8423252688556434,
        0.20584230342223903,
        -1.3746891687959473,
        0.4429179054135608,
        0.1746829059033599,
        -0.8252387872593061,
        -0.5262809510167812,
        -1.6265724168569824,
        -1.3371261296558865,
        -1.3390356150142306,
        0.4457859021649215,
        -0.14216230588999926,
        0.3798347669817974,
        -2.0722499377534924,
        1.2572961430002931,
        -0.9691378532406362,
        -1.553883165875371,
        -0.1923860915754853,
        0.5806670371791363,
        1.2056774721127899,
        -0.8242504001570259,
        0.04500269703530708,
        0.14903822563729216,
        -0.08896635937954113,
        -0.10344580894181354,
        1.844497501971671,
        -0.19042550631768745,
        -0.07680197852809421,
        -0.8869079787112958,
        -0.49257715772927685,
        0.877320563746941,
        0.3080432214048036,
        0.04744521102964249,
        -0.4461073955393801,
        -0.6224242348749994,
        0.6783911623344333,
        0.5695458407887883,
        0.1492693195393593,
        -1.4800424296095842,
        -0.2622790085822536,
        -1.0317746002743282,
        0.9491022447321326,
        -0.5516927583405918,
        1.2271674259943994,
        -0.8746203225333112,
        -0.7355021295699907,
        -1.3541634613754372,
        0.3243839050514586,
        -0.6157195014851963,
        -0.7667251613134232,
        -0.17913114364153734,
        -0.6442839002320457,
        0.811534128527038,
        -0.030365366088357052,
        -1.4355682565548578,
        0.41857353587689183,
        -0.530135360965778,
        0.07547428245887916,
        -0.5570212606946441,
        -1.16772759094052,
        0.10225456901625464,
        -0.2404073342672179,
        2.0076191975394004,
        -0.5011386160123276,
        -1.0717437968569226,
        -0.3705055537668486,
        -0.8342300714238466,
        1.2237906324808887,
        -0.5959589698357637,
        0.9040410001497555,
        -2.6961923169737965,
        0.09193944077176307,
        0.06946812248202273,
        -0.23513874843068247,
        -0.7806292516422129,
        0.08204700637290596,
        -2.0008440652637605,
        0.8890400122009219,
        -1.7180453829691698,
        -0.8801058221627529,
        -0.3208558366527768,
        1.50393168605633,
        -0.26897770323317827,
        -1.8381256362216825,
        2.296366126949677,
        -0.5396022696934308,
        -1.064149761145299,
        0.7202045001523152,
        -2.53972911706678,
        0.4653734284297962,
        -0.5562265882548423,
        0.27660041603227714,
        1.8921080986435959,
        0.9368335216257923,
        0.864041849667894,
        1.710930749982444,
        -0.5456736329462843,
        -0.4231930224332849,
        -2.140525258822301,
        0.23773771712497743,
        0.6282796740925061,
        0.45145938567112526,
        -0.5461506565649109,
        1.5902339458837362,
        -0.02467017563704228,
        0.08740162497119212,
        -0.16359262525746723,
        0.673658229737966,
        -0.6627034864207806,
        1.9096158258825846,
        -0.8497509640641241,
        1.0418363947226594,
        -1.9517743151460003,
        -0.7603912196239971,
        -0.3203165237404511,
        -0.39038047629300865,
        -0.3306835324145075,
        -1.93745278372864,
        1.877189686026198,
        -0.12658429607623675,
        -0.49589371414168326,
        -1.0040236527103519,
        0.6624842772799051,
        -0.47398400446866795,
        0.12832410770905045,
        -0.6342935691966043,
        -0.9950610495084667,
        1.3096030034654533,
        -0.23628556873631296,
        -0.08307672492266975,
        -1.0898566844817317,
        -0.1854823019761901,
        1.3024097659301024,
        0.27906559097915057,
        0.7369547299238128,
        0.5954342830785498,
        -0.284340605107929,
        0.18848226353744643,
        0.7466308685393402,
        -0.23659956355102477,
        0.7585415763302461,
        1.149150108822022,
        0.06306004984960216,
        -1.4824485348828984,
        1.929246206485086,
        0.795241732077421,
        -1.6918023491171013,
        0.9164785522540518,
        -0.9194517444403524,
        -0.5753149829696378,
        -0.5206452685393352,
        0.5161152077091381,
        -1.2206677038730227,
        -2.1150977236923576,
        0.19663770435177322,
        0.22000962823366446,
        1.1982305526680932,
        0.4357933240109808,
        -1.1813639956676218,
        0.110580892073802,
        1.7214805339620154,
        0.85216243725132,
        -1.0454792556120167,
        0.6061056721340048,
        0.47164523683674786,
        -1.3229242892903093,
        1.5577732985265433,
        -2.1147753088614674,
        -0.8277371198274522,
        -2.0828530967786927,
        -0.12312050330328776,
        -1.3737680760469464,
        0.9703102665220299,
        1.0394302155134036,
        2.129057867841621,
        -0.94019977640131,
        0.27768465011749,
        -0.6272579199909268,
        0.11115465264153866,
        0.44034122237891926,
        -1.9982176853754186,
        -1.848379412627376,
        -0.9333962540894505,
        1.3394552219572189,
        0.6240949691765515,
        -0.5754831913325402,
        -0.7896624054733381,
        -1.4600172427297742,
        -1.3373684800450385,
        -1.040667447126038,
        -0.309306914661389,
        0.06909777129022124,
        0.5491096298386454,
        0.5958500506889532,
        -0.2747485066968557,
        0.423242375275973,
        -1.0846786548691059,
        0.23876219300858834,
        0.9939063495088006,
        -0.23273471021316075,
        0.4024162676144397,
        -1.581601078426909,
        0.3468882948986047,
        0.03399956564958975,
        0.4059074937738574,
        -2.708264117200185,
        -1.1385103017954075,
        -1.6315595070270963,
        -0.9075562850482625,
        -0.8195302736068534,
        -0.38741244243107537,
        1.1603953937943658,
        -0.2535341604117118,
        1.402015889253295,
        -0.2833249748153345,
        -1.255920741673977,
        -0.19484631992694404,
        -1.6217773376318954,
        -0.9336241849711449,
        0.2207972016847933,
        2.3938995616200427,
        -0.8357259836471479,
        1.2803287055168704,
        -1.3944363322736324,
        0.9532577803651437,
        1.6570146030276034,
        -1.5279083956302562,
        -0.11615362648663846,
        -0.33488872981875184,
        -1.127120138407802,
        -1.9558407549905845,
        -0.21294779806752565,
        -1.26246161324858,
        -0.3780421502722908,
        -2.13659962574286,
        -1.9049804364579495,
        -1.2561794391382857,
        1.109694740031023,
        0.4904019759701858,
        1.4852503911774628,
        0.3172538922716732,
        -2.6489812767608285,
        0.5876744208286044,
        -2.011312886974221,
        -1.2548835581284887,
        -1.3344914331222677,
        1.1839176869103523,
        -1.3248772758777552,
        -0.39086906557117707,
        0.05070781146451248,
        1.8460270062322128,
        1.5557088541125448,
        0.8280943225349855,
        -0.32166912007254606,
        -0.36493766159479063,
        1.445193932809837,
        -0.28003410106765925,
        0.193131254859434,
        -0.9653969840839469,
        -0.8030591838458289,
        -0.10257310008294782,
        1.5045109799012846,
        -1.0072515064441696,
        -0.6064435591748327,
        0.316398455668305,
        -0.44922777097554084,
        0.8676886583264042,
        0.18030714034084053,
        1.0951665198274985,
        0.9081633420563693,
        -0.502777724759845,
        -1.0884434274721686,
        0.9235693060260362,
        0.4350448079642759,
        1.6181567062139315,
        -0.4423840117098641,
        -1.79962845358363,
        -0.367188923641776,
        -1.328887961883223,
        -0.8087004610458435,
        -2.02246748019708,
        -0.06669497991022245,
        0.9271038407967205,
        -0.7752549447122269,
        0.5805410752031709,
        -1.0887055347368508,
        -0.555063653001872,
        -0.6521107643239148,
        -0.10233102658901666,
        -0.17134104746473838,
        1.2747502758368927,
        -0.6243103219678323,
        -0.6603035015968289,
        1.04403757238435,
        0.7829739345922545,
        1.492931956857393,
        0.3095792920971801,
        -2.376759053616872,
        -0.7236994891267388,
        0.6162522975132673,
        -0.6518338963588167,
        -0.520494539924844,
        0.10250228192042127,
        -1.363357507880939,
        -0.6324689018203928,
        -0.7690518830638362,
        -0.6075609846692285,
        0.4341955839168101,
        1.21410835092067,
        0.18847980453295837,
        0.12006898923167347,
        0.33136415178250694,
        -0.09209540833353931,
        0.9322773934778028,
        -0.8030306580442439,
        0.5043813732303606,
        -2.20235233274437,
        -0.23558640773411602,
        -0.4286371543338651,
        0.1555130553476115,
        0.7762452274934158,
        1.0923361851730244,
        0.8014174313664527,
        0.12171790630522782,
        -0.2605564739320504,
        -1.881875450545506,
        0.20053666133734507,
        -0.357604529482718,
        -0.1819236832840231,
        -0.8675022516921147,
        -0.3644116888422041,
        -0.06264287217570666,
        0.30062404153210137,
        -0.2708537321026029,
        0.08667735702348943,
        0.724553055082563,
        -0.08027643228855647,
        -0.3229741506740177,
        0.6682434555024043,
        -0.48967436851266793,
        -0.8140814244181236,
        0.33542820900877424,
        -0.13923904693729222,
        -0.7156788383432092,
        0.6119306536455089,
        0.8404037359860818,
        -0.5280735598345281,
        -1.3638727940148332,
        0.8340825634087639,
        0.05091917810293148,
        0.6567937670831613,
        0.5430526724688203,
        0.08122187225746777,
        -1.1961759568848052,
        -0.8153955013374298,
        -1.1488242516861706,
        -1.6951423555454466,
        -0.351706988596824,
        -0.3600555087162841,
        1.5125242511655066,
        1.3730787375739308,
        -0.828676026082416,
        -0.9595078344360152,
        -0.5455689573708354,
        -0.11783010670066807,
        0.9869677932912674,
        1.624946035529242,
        -0.15565751287346952,
        0.01775661837134707,
        -0.4358519388318052,
        -2.4813176577147082,
        1.5414209016297484,
        -1.6378618484467404,
        0.256638607144218,
        -1.7602362783424348,
        -1.0227428691475797,
        1.7419251010815293,
        -1.7124191049946438,
        1.9522116729005818,
        1.2034078161144681,
        0.894754053715477,
        1.2740225293637055,
        -0.5483275240869983,
        0.38173255105881926,
        -0.7315323178058165,
        -0.06110552949585815,
        0.2743678260283797,
        -1.0506140577496546,
        0.12604298744042863,
        0.3982684274078978,
        1.314914337134804,
        -0.052585238536126365,
        -0.8003156700542304,
        -0.6517093339124168,
        -0.06471289531793127,
        0.4290081241105349,
        0.03281288616943116,
        0.6372537583923721,
        -2.0794228599167695,
        0.3312793950608543,
        -1.5353890901265899,
        -1.0341014520428164,
        1.6804864483508402,
        -0.5336030934234076,
        -1.0239137067790263,
        -0.5101809524230538,
        -2.4213129434240797,
        -1.9809398368714737,
        0.4537547643213436,
        -0.8993720236496304,
        -1.204771793574461,
        -0.9022085802244649,
        0.12711415309291135,
        -0.3695142574543959,
        0.13044011806276562,
        1.7371808650059133,
        0.41636661979992867,
        -0.25497181993627743,
        -0.4215182694849884,
        -1.1576167365450472,
        -1.7521480519244506,
        1.3290096306729018,
        -3.046485541256421,
        -2.006825688263949,
        -2.128900785662802,
        0.5320464755924217,
        -1.9916412843068652,
        -1.7601571571744912,
        -0.38270183223747173,
        -0.605413570627987,
        -0.5131608462730628,
        0.05364272731991426,
        -1.2452589908447056,
        0.5732283479889061,
        -1.1140759944590208,
        0.17261258285331452,
        0.07694968987458178,
        -0.28529737253039494,
        -0.6530983828179163,
        -0.08642669314612621,
        1.0044157639019624,
        -0.10826853271155226,
        -1.3000061692692992,
        -1.1174127392387936,
        0.6002630742846877,
        0.07682906996017895,
        1.037307238561328,
        1.256481114330722,
        1.0977128104279905,
        -0.29164792733511363,
        0.712108371570729,
        -1.3842291855507927,
        -0.08985618118538191,
        -0.1585823812824014,
        -1.3846827660341139,
        -0.2205677958130979,
        0.7986022886618748,
        -1.2201571751560762,
        0.597841742033984,
        -1.198373563908644,
        0.6212527730243625,
        0.5092652978999664,
        -0.8731074003921028,
        -0.5721203805444846,
        0.25339299189173087,
        -0.4889003633412834,
        -0.1716995095461542,
        -0.2434573383672832,
        -0.7976654505592383,
        0.9518215098209367,
        2.064695894762018,
        -0.44878214239002684,
        -0.024771588437866244,
        0.2060128751807027,
        -3.1288287650972273,
        0.6715597076279907,
        0.9880882103730783,
        0.09920738959187517,
        1.66030056318434,
        -1.1358702982424147,
        0.40043126615373575,
        -0.5759912419491208,
        0.5366556426419687,
        -1.243664780648508,
        -1.0367538535142864,
        0.015663773111390195,
        -1.0449868745803312,
        0.0987968250546378,
        -0.6355861176270258,
        -2.0499780932292486,
        -1.713901404561222,
        0.3780058933730605,
        1.0568824041620588,
        -0.44225170958419907,
        0.1148263124123607,
        0.30513405186681375,
        0.06446703266820952,
        -0.6902306619831106,
        0.9785009374546496,
        0.23770306208097985,
        -2.411432373092195,
        -0.42342986837285973,
        -0.7307390141694786,
        -0.011846410668460993,
        -0.5922117234758087,
        -0.5266614920209229,
        -2.2058711255150465,
        -1.4760444414946325,
        -1.8489218562364922,
        1.4941311762876257,
        0.5569200193965952,
        0.11607592986080371,
        0.9042187178485316,
        0.47264870743604065,
        0.8894969701916619,
        -1.3290329692855147,
        -2.1270778773179964,
        -0.45322098916520853,
        -1.1442537786570297,
        -1.739625653393242,
        1.442205437465822,
        0.6783758480830661,
        -0.02818984426034329,
        -0.09821966552716543,
        -0.7607909178481994,
        -0.21332346241889502,
        -0.8272223929873782,
        -0.8909896785636355,
        -0.2981442230025858,
        0.9778521825520603,
        0.16757046389679411,
        0.13811872703021613,
        0.7105593530946204,
        -0.5257976245101667,
        0.7288028328237292,
        -0.6086485679515958,
        0.37034868816224686,
        -0.46389989894059447,
        0.15193662029458016,
        0.5407104118348746,
        -0.6615274730280435,
        -0.763330327995103,
        -0.04851140582712368,
        1.1561615602152298,
        -0.14185698829393886,
        -0.15257984181280768,
        0.03938213693372496,
        -1.5355661240302023,
        0.9989045407978892,
        -0.8791618941947443,
        -1.6335738540124736,
        0.010517003491848684,
        -0.04713814852990081,
        1.5709269338910998,
        0.2759762090972133,
        -1.4019594993572053,
        -1.051975386817109,
        -0.7886943690927324,
        -0.37907877321854966,
        0.6561539623628355,
        -1.0490349712728473,
        -0.6406714637815152,
        -0.6304472491441355,
        0.7552634456017432,
        0.00011191998114000923,
        -0.0223181712187216,
        0.9064243624656213,
        -0.8564944840572888,
        0.7458590100658583,
        -0.8494620216166338,
        1.0936279602576806,
        -0.43013295285538594,
        -0.5428457860012573,
        -0.6784849982064463,
        0.2939509726921022,
        -0.8649523726524811,
        -1.2988618822720708,
        -0.20342929855527617,
        0.5299515528072354,
        0.20443777199255556,
        0.882277899576159,
        0.5714100816697689,
        -1.069898205345259,
        -0.6610206021195505,
        -0.3965056344687392,
        0.2832725714723513,
        -0.21152927582882705,
        -1.0025032422794307,
        -0.1172660257423988,
        1.3327091083394544,
        -0.9061348659811886,
        -0.5978828644051151,
        1.0413882219941089,
        -1.0338516389116625,
        -0.38723968121178753,
        1.2287612233936895,
        0.9686463077544034,
        0.010709255115843287,
        -0.6368070670859317,
        -0.03865844604002377,
        -0.48403972469678447,
        -0.9025460779733102,
        -0.12126144832207933,
        -0.7563275863150707,
        0.9851571295308141,
        0.017932540221063196,
        -1.3729296947138452,
        0.24617175764070234,
        2.3644501038558716,
        1.4921459916406292,
        1.2109646640025957,
        -1.809344333702023,
        1.0238061104731737,
        0.031202659395904817,
        -1.7063638190611992,
        1.2012653798659743,
        -1.4198016326652172,
        -0.7611395926710675,
        -1.3147497653690499,
        -1.5369582777831559,
        -1.0214505965713412,
        0.7532064984254938,
        0.6364715649252838,
        0.32953223402763815,
        0.7383383068454771,
        -1.3444475446185014,
        -0.8020718391799726,
        0.3465547344509946,
        -0.27359685214320606,
        0.3974347480384906,
        -0.8725139009650599,
        -2.0709124669711554,
        -1.890197591645308,
        0.6128216181220246,
        -0.4163576255802755,
        0.3795573802766776,
        -0.11432956527441583,
        -1.313726409687415,
        -1.193419203962752,
        -0.3062385073919844,
        -0.9573491903935332,
        -0.40543928171809257,
        1.699265186166306,
        0.8190560211975298,
        0.8074781923612845,
        1.0884794376580051,
        0.03310149867149416,
        -1.9793691451814852,
        0.6666752259906784,
        -0.9299020642895292,
        -0.9658127080444435,
        1.0772231080545194,
        0.7687293045745595,
        1.4787461260053405,
        1.5116355046664083,
        0.47629514189206135,
        -2.0902082891517555,
        0.09763871569879992,
        0.19921385230648506,
        -0.3294348632652382,
        -0.12773660460370134,
        0.11159225940776027,
        -1.3850274886841811,
        1.0462730209348434,
        2.1631367382818207,
        -0.3153871130181917,
        -1.4411883118798583,
        0.35334088850158374,
        -0.5250136044203381,
        1.4096578393147963,
        0.2407152606087405,
        0.7439738465314049,
        0.3730448318914426,
        -0.49986409566620665,
        1.2796515836260574,
        0.9434355090616543,
        -1.4590608973668056,
        0.9580917307679114,
        0.21855987968936977,
        1.3979441503473633,
        0.6432652951443029,
        -0.0938587333539336,
        -0.8275615510354256,
        0.41616979534768633,
        0.8103359416875918,
        0.387334200186041,
        1.0775966970577844,
        -0.6721418446705577,
        -1.6873200915196598,
        -0.02153679041112187,
        1.0558182147144737,
        0.03096019817673932,
        1.3659731938098538,
        -1.4983799770339408,
        0.796634140825049,
        0.26245473929732976,
        1.5145733303746345,
        1.1243712724134387,
        0.8692307842301621,
        -1.2700530312061096,
        -0.26288630767029786,
        0.6837598117822368,
        1.7932400616537587,
        -0.037605924777685346,
        0.7524285474705963,
        0.5818793617905269,
        -0.7189867852054781,
        -2.6500107111960385,
        0.30779411900248976,
        0.11855868229882857,
        0.4602611369059119,
        -0.7182879189640294,
        -0.6027577402430355,
        -1.288713323503693,
        1.7966969398108603,
        0.2729331555248196,
        -0.6482237254474851,
        0.5981404478990942,
        -1.491138946644,
        1.1745802656463533,
        1.5762175257113606,
        -0.8145527411892433,
        0.7310888088017377,
        1.0112868503106012,
        -0.43264501369273783,
        1.0715100469259076,
        -0.4177886905944929,
        0.20581681621573467,
        1.8634888463233716,
        -1.279350875048267,
        -1.317989342373103,
        0.5083249705270628,
        0.03329334607571266,
        -0.9623584839279773,
        0.25853489565062565,
        0.13935632320553276,
        1.577594535167965,
        -0.5258755504776673,
        -0.46851521565690896,
        0.6533041437921523,
        -0.08484722313069251,
        -0.46389389673069326,
        0.24229868801777957,
        0.5205883860131326,
        0.7070550479299434,
        0.8974850734831734,
        -0.06345999400956948,
        0.7371155136587293,
        -0.38130053153842086,
        -0.5649090762023594,
        -1.6319135752485239,
        1.4459219226642457,
        -1.2875361781960328,
        0.36396177904853594,
        1.7351623691229454,
        0.1730972931222004,
        0.7582081836790076,
        -0.22793189731788815,
        1.555903157548701,
        0.6576534798140652,
        0.14425136362975322,
        -1.2299781045363256,
        -1.6232762390574222,
        0.1799036107230975,
        1.2624342146164953,
        -1.1123262939758984,
        -0.8659209746690004,
        0.8010206221071068,
        2.096183625057312,
        -0.23433244208742232,
        0.9793724265936764,
        -0.5524727119387036,
        -1.9178238600360984,
        -0.06824646130823482,
        -0.6637217326859521,
        -0.30780919223577696,
        -0.6870607145603881,
        0.18438547518220352,
        0.28618031802289445,
        2.116434850932205,
        0.14665097927988938,
        0.03469440400712464
      ],
      [
        0.9764419540727313,
        0.3229037658110264,
        1.5074280979853523,
        -1.7534797840920844,
        0.44951109375761966,
        0.42658148460191614,
        -0.1536438521771482,
        0.01455665549141708,
        -0.13392064363907855,
        0.6273395524144012,
        0.06023804694491176,
        -0.28528394384477485,
        -0.014412401988410942,
        0.2711489558500578,
        0.659695079414228,
        -1.567351206161264,
        2.3810083113464073,
        -1.3770229540273777,
        0.00038523034930308724,
        0.4630474213990209,
        1.4596678649387318,
        -1.0184627590598911,
        -0.8595202091578055,
        -0.019464898062668958,
        -0.21477004158653984,
        -0.7230295132730081,
        1.1181460983599463,
        -0.028522863584404555,
        -0.341727391691633,
        -0.3386245588987507,
        -0.4020587052167859,
        1.9237188383852721,
        1.8348229883169789,
        -0.6735173143505819,
        0.44477075225479307,
        0.4336489284620953,
        -1.1138192513540737,
        -0.34308852669473106,
        1.8552217894278522,
        0.14441408967192595,
        1.9519154319401333,
        -0.5247552658282063,
        0.9411662358228853,
        -1.1357650963322796,
        0.4497973798714514,
        1.2562059424139853,
        0.12242601918268266,
        0.9078511074069263,
        -0.5010618992900574,
        -0.06514703330966293,
        -0.7564733529891379,
        0.1314949241029375,
        -0.7976336029489984,
        -1.0595185225989006,
        -1.420446403713494,
        -0.49855547804051503,
        -0.9388646154438022,
        0.004601984671857933,
        -1.033626144206736,
        -0.07764315041866066,
        -0.26288674591216665,
        -1.2702164133915395,
        1.5250848499405993,
        -1.1582144585398773,
        0.0659508779760903,
        0.3623748475434834,
        0.5306719727344598,
        0.6360622774975518,
        -0.4541250624954953,
        -0.19238392450849526,
        0.5119569260013506,
        -1.7009416440234337,
        -1.4071083497949524,
        -0.41130531138791676,
        1.377174887870082,
        -0.278424216844628,
        -1.4618034479237467,
        -0.6024269416456784,
        -1.6197745372332906,
        -0.3673809724842307,
        1.3013174894768507,
        -2.552621123626879,
        0.6103809033099072,
        -0.6513475126703843,
        -0.9042117642150844,
        0.4194036689363629,
        0.8071008344528021,
        -0.11609299672220466,
        -0.31599998591077316,
        0.8379450700733417,
        -0.005867973840777464,
        0.452991710160686,
        -0.5261491194314465,
        -0.27394404575646847,
        -0.8008037180870549,
        -0.4825563803478615,
        0.48435876060596833,
        0.09032326691119529,
        -0.295027109899826,
        -0.7946954792931044,
        0.5839970326153002,
        0.49485090079438493,
        -0.19825489649487274,
        0.24598955958090263,
        1.1990491729143342,
        0.2235402792929163,
        -1.4204528366273688,
        -0.9508057882202807,
        -0.762032217932026,
        2.0996190174707112,
        -2.2527895737658925,
        -0.25010891110378036,
        -0.31228155825868614,
        -0.396284193385344,
        -0.17968547513655161,
        -0.00434469355969936,
        -1.3593838596992012,
        -1.6843834581357682,
        0.3201541758025768,
        -0.7100601124446186,
        -1.637968584612965,
        0.5332090018825273,
        1.7169205830526166,
        0.08804316238170176,
        0.9017110266522459,
        0.3091407541093154,
        0.6629778779159333,
        -0.03897302069946807,
        -2.1873818887041176,
        0.8030397592496465,
        -1.832487726668279,
        -1.337318535174858,
        0.6310032909062429,
        0.8659549913817469,
        0.4957322219180135,
        0.5702337182079207,
        -0.8046642687591735,
        -1.5149316797520151,
        0.10188357698280182,
        -1.934462172269528,
        1.4622591051755744,
        2.272771693887277,
        -0.22976473092733218,
        -1.732014126903341,
        -0.32742013309131185,
        -0.5308827992985264,
        -0.871584850402268,
        -1.1978119066024036,
        -0.7842181912670433,
        1.3979153947053344,
        1.0186543872074905,
        -0.12175843603790679,
        0.07271147001411439,
        1.1955739130919267,
        0.42191111155197275,
        -1.8152027429856537,
        1.0725498799067272,
        0.7489194374158362,
        1.6081577145922947,
        -0.11912430738335862,
        1.1744403051149868,
        3.0097704541887302,
        1.7413302776157589,
        1.2473571574874427,
        -0.19273809122703847,
        0.7155851494019326,
        -0.08420583574882856,
        0.1047882028481086,
        0.2123054157795258,
        1.1168088314910607,
        -1.5822834226068305,
        -0.007609224196802919,
        -0.6487428655627554,
        -0.6954722728885565,
        1.1312913531528905,
        1.3938933471590127,
        -0.05613472261300593,
        0.8218001563096112,
        -1.005250439597747,
        -0.6091252780523416,
        1.3491725211992596,
        -0.4798674550690331,
        0.8831698715905223,
        -1.1283904095388824,
        0.5710539234805234,
        -1.4085858366602082,
        0.4399422922119387,
        0.2938848553891953,
        -0.582940396214851,
        1.5722343247672332,
        -1.1661738121978258,
        1.1601905472371938,
        -0.4933236176667379,
        -1.0922842791218998,
        -2.2146964138216956,
        -1.3830275329295987,
        0.03529825971351085,
        -0.10157850373412654,
        -1.3370241241396768,
        -0.8206461684934883,
        -0.10987543398325156,
        1.2824844858194557,
        -0.5213966941755481,
        1.0916432230602318,
        -0.473533378210343,
        0.3520022605243216,
        -1.2160258173049847,
        0.5714078279252182,
        0.31181137555438604,
        1.8036641635168786,
        0.48269352257607745,
        -1.022609910968529,
        -1.9964792533308986,
        -1.4198780155921829,
        1.6201022065238948,
        -0.42998196830324314,
        -1.2079926003424637,
        0.8087412847728748,
        0.701828953982518,
        -0.10670894813517112,
        -1.4899667566429353,
        0.7106943287089151,
        2.1341305933208052,
        -0.681725596179355,
        0.11701976351580223,
        1.0782517469267636,
        0.17889229892346734,
        0.26981537409837864,
        0.33327539660324035,
        -0.9322005233645142,
        -0.8356334544416231,
        0.11195628642166344,
        0.6874505930955733,
        0.9530703114370243,
        -0.197383496606409,
        1.917117151427811,
        0.3679605083554118,
        -0.9710715603505681,
        0.5421661107353399,
        -0.7471805489801235,
        -0.75107345040519,
        1.291858510709765,
        2.0086788122982604,
        -1.1601127618504352,
        1.1031066045291664,
        0.3774350915359822,
        -0.8690846183176593,
        -0.22891903597376995,
        0.47451562527279,
        0.26739559709551924,
        -0.09168808766149028,
        0.8217032466294439,
        -1.113979560461487,
        -0.23019076672317443,
        0.8562841191512467,
        -0.533095409711888,
        0.8627125460759953,
        2.123835307041103,
        0.7815793592716396,
        1.3402836498345456,
        0.015450636274231601,
        1.3710805465679479,
        -0.23622197354409438,
        -0.15507525291977337,
        0.27210438932265324,
        1.6578748661630933,
        0.9649667730080297,
        0.6971736446244408,
        -0.09117063185328901,
        1.705219992104579,
        -0.28181920850241843,
        0.2761685018250641,
        1.3981855906392744,
        0.3710315297205402,
        0.3184351378672007,
        -1.314055945315972,
        -2.6097796689613575,
        -1.8872525036154983,
        -0.5372351568685848,
        1.5886616998589311,
        -0.26758181329382097,
        0.38882942243506063,
        0.1689287161487669,
        0.6465592968300976,
        0.722489052178328,
        2.1352349255789087,
        2.7035121505217385,
        0.8230168503075437,
        0.3210030105097928,
        1.8681702753482785,
        -0.05189412624591327,
        2.802004140289316,
        2.556475959410547,
        2.4881631729851867,
        0.5175441086452194,
        0.796939192512465,
        0.5482680071177674,
        0.7273646621441069,
        0.6096053767572701,
        0.7561947290589448,
        0.8057590741895976,
        2.4361490681682305,
        1.5235769624196438,
        -0.613515395665262,
        0.16192233961775612,
        -0.3967238190163802,
        -1.711163453511076,
        -0.7023144189551849,
        -1.1550886291148388,
        -0.8902381471210603,
        -0.8961214998247304,
        0.3713827490836163,
        0.24288050908543962,
        0.5480835647659781,
        1.1418128849006683,
        1.2582250752230864,
        -1.2477782996405138,
        2.474773391375334,
        0.43183293352719676,
        2.306465628920375,
        1.3653840616618893,
        -1.5601211069873442,
        0.5076103448192468,
        -2.1759781740839257,
        0.7645849695112945,
        1.9860762398599645,
        1.3868669292229565,
        0.2112646685163945,
        -0.5158427823206273,
        0.6627148436378659,
        0.06120728058268143,
        0.13843353487273802,
        -1.0195161192300488,
        0.15202112177385113,
        -0.13960285482309273,
        -0.24058899940501363,
        -0.8727974281331394,
        0.05292778839583601,
        -0.10582392487238695,
        -1.446502001554635,
        1.0872803801683384,
        -1.1409128807324582,
        -0.06389997165789003,
        1.0680004776900776,
        0.9943287216104701,
        0.7309733931857199,
        1.270273934793366,
        -0.8205888248395121,
        0.7792771476208162,
        -2.044522983428956,
        -6.621414756689686,
        -2.871500594052406,
        -0.05645340810816087,
        2.1610450928874,
        0.2552757656479434,
        0.6128668956349337,
        1.5039463099413808,
        1.3355390387687045,
        -0.5049689316864897,
        0.5841580499656789,
        1.396034389679888,
        0.4655662042416778,
        1.0659978191604373,
        1.7235995268080637,
        1.1193326341667182,
        -0.4575489816846295,
        0.34096545555666724,
        -0.680235245664868,
        0.3473642258913941,
        -0.5918382847823976,
        -0.7655114036197036,
        0.8966320309326264,
        -0.6356727437109613,
        -0.5785825846515624,
        -1.6204026413501527,
        -1.3244517457751808,
        -1.2510779044418885,
        -3.4278103181838877,
        -2.7965692876247563,
        -2.8354939214279895,
        -2.448229055812886,
        1.4234226272384047,
        0.2105119152908555,
        -1.4624195096535124,
        -0.7654477225112563,
        -1.315048990033777,
        -1.2720791552753032,
        -1.5965250570133986,
        -0.8834055368090425,
        0.8486732453100652,
        0.8557168128053432,
        -0.9188646255387811,
        -1.0976586858643185,
        1.4921798106502924,
        0.21861377728339165,
        -0.6409687293519246,
        0.6393753500360997,
        0.4777296665882845,
        -0.29027645009710296,
        -0.8695993429789203,
        -0.7371329007624499,
        -0.8186469916471159,
        1.2122116855658391,
        -2.451494577077399,
        -3.4680021499762965,
        -3.45469580430449,
        -1.3792730157210296,
        -1.449370394677252,
        -1.525324677856713,
        -0.672499943428781,
        -1.33494995752577,
        -0.8526990064746822,
        -0.476786917734309,
        -0.7341614403488325,
        1.0207562139296535,
        0.306816710104747,
        -1.909593313704789,
        1.0146431211043365,
        0.3831473326031007,
        -0.43674122386359027,
        1.1041566719734792,
        0.21753440045405983,
        -0.08502261075137849,
        1.0240636237779843,
        -2.786502508090915,
        -0.08078028052122191,
        1.2644187158021105,
        -1.2555077928020735,
        -1.5040845775233531,
        -2.1060772629543254,
        0.6529971772116951,
        -1.8016577202218447,
        -1.7913101284066104,
        -1.951216461887115,
        -2.5380146287170975,
        -1.2130762393745247,
        -0.6499869058841837,
        -3.548331930341825,
        1.4324306294241493,
        -1.153635636821485,
        -1.2132241568832323,
        0.5234584072479525,
        0.14713936343947984,
        0.9367293355563887,
        0.04262261375525218,
        0.15818705474323685,
        1.5664770395909737,
        0.5605496121556994,
        1.2439580424312124,
        -0.9587646638347259,
        0.41017434051700497,
        0.6132591837416608,
        -1.8153649844414348,
        -0.24548511218658167,
        -0.641054062616092,
        -1.6850107405758925,
        -1.1637807207452733,
        -1.753453734704658,
        -1.1497748182312506,
        -3.4411688236139497,
        -1.9471620160260763,
        -1.840091928406449,
        -1.7604431655137864,
        -0.193446061321844,
        -1.3521535248902903,
        -1.2715226313326495,
        -0.35993305102038636,
        0.29031691537577226,
        -2.151647012082086,
        0.6277539876185244,
        0.7086893352710422,
        1.1004694302899003,
        0.5858642363043418,
        1.8074624220887776,
        0.3381169472490907,
        0.7211515459279324,
        1.7453497538620182,
        0.17206201293689435,
        1.034396974769869,
        1.0581475171228285,
        0.6532513031599632,
        -0.6318799123440624,
        -0.7318119408853653,
        -2.710290820436594,
        0.18850955850694082,
        0.18190304146485417,
        0.6653767080034366,
        -1.4076477170800838,
        -2.14277793172189,
        -2.067695122152122,
        -1.5335255345603538,
        0.42266235838012817,
        -1.5716378947824017,
        -0.8268225167000617,
        -3.197232293712948,
        -1.6212758809515075,
        0.9826764005069442,
        -0.7552866018375091,
        -0.27114555784605904,
        0.2812913599044035,
        -0.2700696916969456,
        -0.3497974277820065,
        -0.8158775336412978,
        0.2856292987797242,
        1.3138484898716525,
        0.25842251519165815,
        -1.0201087406405807,
        0.4692306784921225,
        -0.2698953482594758,
        0.942729762684862,
        -0.017303657329848926,
        -2.675980360703459,
        -2.5132803014102496,
        -2.1809452392869555,
        -2.1161878231768125,
        1.057386064650236,
        0.9046303556466271,
        -1.4572108706305043,
        -0.8034738885935422,
        -0.7842128457984255,
        -1.6948726851273148,
        -0.5344942871038493,
        -0.33774459237086896,
        0.5153074054306802,
        -0.5160226539984503,
        -0.4032892110947174,
        1.2309743718696635,
        1.071253690576722,
        -1.3766138557339123,
        0.21577749724867135,
        1.3318298963334365,
        0.6047598425305779,
        0.4745741988833466,
        1.8149743696225773,
        2.9779261323229664,
        -1.2211759243016473,
        2.0190452987037957,
        1.7676898037152893,
        -0.41210159348951003,
        -0.3531382634917846,
        -0.08471378349777771,
        0.6206876213795037,
        0.18566189806853722,
        -1.3052631666657635,
        0.01890907697235652,
        1.7529754616707556,
        1.3296852639512626,
        -1.067309814263593,
        -0.5369319393062324,
        -0.3719789648618253,
        0.40229390787357927,
        0.14192842529304228,
        -0.544831746719427,
        0.33959428644784945,
        0.4278831390676838,
        -0.15800709171733535,
        -0.8446913415427519,
        0.9744800553407573,
        1.1982602522984276,
        1.771758559317803,
        0.4895906491009623,
        -0.6712153168614394,
        -0.03619964363379154,
        -2.7641497647366307,
        1.0976562345526812,
        1.5237716291946715,
        -1.3990910601704147,
        0.48313616687757893,
        1.6472028347441343,
        -0.3067953394297948,
        0.4412256531476077,
        0.1537293392638467,
        -0.8667965578985003,
        -1.0579105599527328,
        -0.17066897777918275,
        1.0018645770618722,
        1.1128367529374248,
        -1.7017824497033467,
        -0.5651371728371741,
        -0.5269995207254167,
        0.6770487618779373,
        -1.4548037717697893,
        -1.5731521237950874,
        -0.7306224806765643,
        -1.4536677477485263,
        -0.05527200311854643,
        0.4982313993045019,
        -0.446544745478641,
        0.6579743715152423,
        0.7523669405197928,
        -0.9701971029402112,
        -0.3835356492045309,
        0.392672084387581,
        -0.6908567407176299,
        1.3534680450062317,
        3.042383767906629,
        2.938205935061661,
        0.760146185766959,
        1.5905936175502828,
        0.495245942979662,
        -0.14772775012511338,
        0.8759553870791312,
        2.012939210331341,
        0.5432180638166256,
        1.0882515618094892,
        0.7510276736580879,
        -1.1601418161278936,
        0.37742197807412464,
        -0.4991318843513256,
        -2.1667111053902466,
        -0.9418940891569374,
        -0.7578395429376523,
        0.3992882074212671,
        0.6570849715908,
        1.824240340367438,
        -0.70355675521226,
        -2.2213211204862238,
        -0.5014397699075341,
        0.13420495178589992,
        -0.8885599174486708,
        1.0456868926433114,
        1.3039065984495612,
        0.9302746999576725,
        1.349932732542678,
        -0.23506500460596694,
        -0.9117787382041288,
        0.4550160049854826,
        -0.9642741784704434,
        0.36540153193752883,
        1.5148403089853715,
        -0.25120297302708433,
        0.6694671277065162,
        0.8567749068391723,
        2.3139225388544005,
        1.482146138448179,
        -0.09062772461103978,
        0.19945515512280493,
        0.15669360377634717,
        -2.0449147275524244,
        -0.5712237777827213,
        0.23149736888691788,
        -0.13828320415420142,
        0.022495196925627212,
        -1.0193947905699836,
        -1.920295705106416,
        -1.3670320134527794,
        -1.1886050051707926,
        -0.29929657472366217,
        -0.450990917465128,
        -0.4235594961145732,
        -0.5533250188748434,
        -0.30047191393141737,
        1.0738432340731818,
        0.6733635368733838,
        1.4792499533469567,
        1.2641707115853806,
        -0.49749834468791665,
        0.4219202881643757,
        -1.042473509660683,
        -0.9185829302363867,
        0.13789672093025002,
        -0.22331567212269043,
        1.5357472627807693,
        1.4596045826460269,
        -0.9437887487613668,
        0.8728831260250914,
        -0.9970927660450436,
        -0.5461224982581643,
        -0.00204266795702668,
        0.4127749985207918,
        -0.12246311203028948,
        -0.2807853262419356,
        -2.3143321294864236,
        -0.28207603596043757,
        0.1413827324171087,
        0.7758758484560178,
        -0.26482808493391213,
        0.5794346992078215,
        0.5076201817911143,
        0.937119134200143,
        0.018761655185725524,
        -0.8961848154320424,
        0.02360459274585999,
        -1.321845813023417,
        -0.3415336042730184,
        -0.9337352253360892,
        -1.2571547747591345,
        0.568972022446642,
        -0.14890571139554265,
        0.6677803831293577,
        1.0278381042216431,
        -0.6476774428086322,
        1.0426328207296698,
        1.7882070736850058,
        0.32537353598386914,
        -0.70391802952986,
        -0.9640440251146832,
        0.1338484218010262,
        0.49859363982383986,
        -0.3268399964054876,
        1.1212269042040786,
        -0.2594662969933603,
        0.39780145078984264,
        -0.4823530398006742,
        -0.4074415302844475,
        1.2306865320713092,
        0.5413045438124826,
        -1.2431176696518944,
        0.03441957919121765,
        -1.4289677258618219,
        0.8522427852630297,
        -0.6608305094800337,
        0.12820808434781686,
        0.7071587624210348,
        0.7741821454875142,
        2.190344290065574,
        1.3129188936525404,
        -0.4371944315226085,
        0.5678400245286359,
        -0.7786546976628175,
        -1.470483191310953,
        -0.259278680929275,
        -1.1927657181486477,
        1.0581580689151617,
        -0.09844062895577528,
        0.20906065527340514,
        -0.4743738192200496,
        1.5132716475639534,
        -0.867985654538358,
        -0.49805997013230796,
        -0.06858726232899101,
        0.7844209876638245,
        1.8717233310301296,
        1.0906942832766031,
        -0.7544520602365665,
        0.6428805766746466,
        -0.04276379601876121,
        0.4316777840033802,
        0.5500371867520734,
        2.257305090172552,
        0.22004974069576594,
        1.858023837885988,
        0.9751974619852055,
        0.1533081427578428,
        1.2495071095770158,
        0.23042538469535015,
        1.1307543414870798,
        0.868546829012954,
        -1.3130900973325499,
        1.2960996747052314,
        0.9847665676838547,
        -0.11812789659135056,
        -0.8898838680210399,
        0.8225664181260218,
        -0.19797100914953336,
        0.580584881616103,
        -0.7031635648464987,
        0.6136991822451444,
        -0.010599099301300553,
        1.986928881859576,
        -1.0147585351277346,
        0.20076832052291552,
        -0.21138574149525421,
        -1.1005091460779515,
        0.43896281152774075,
        -0.016678122379710728,
        -0.28336158838887154,
        0.0768477318572644,
        1.3210215188948908,
        0.10665179322548057,
        0.7574315407463892,
        -0.22976372307141033,
        -0.5876541190650899,
        -0.1936825564582637,
        -0.3359597361437244,
        0.19393138134018806,
        0.3059219943387314,
        1.184174376074663,
        0.8115051317330825,
        0.20027405083489805,
        2.5832472783181286,
        -0.05343076435658549,
        -1.3848695886668696,
        0.16207466112413624
      ],
      [
        -2.580142824765934,
        1.3069895366815176,
        -1.2720751290200465,
        0.41087922701769647,
        0.6335585634681893,
        0.31333967488277753,
        0.23083631048692144,
        0.23493972227922533,
        -1.7285443644746803,
        1.1344662822986504,
        1.0912338458685025,
        -0.02881599611130962,
        0.04632834017887312,
        0.4347051321003906,
        -0.103762638355608,
        0.9003010244870958,
        -0.15557487788942195,
        0.005203654634763221,
        -1.108138850437145,
        0.6007375058396538,
        -1.537048073485805,
        -0.5241601374786141,
        -0.6018627101269917,
        0.3215821832135694,
        0.5369554338571364,
        -0.22293929339488489,
        -0.17201280405567607,
        0.5897217761367348,
        0.8463195503832284,
        0.18090871817883156,
        -1.7449940377589825,
        0.9903126352230107,
        -1.6414221183476936,
        0.44501185096664275,
        -1.1261895870071919,
        -2.1882625839898737,
        -2.279682024238018,
        0.0033673670888526557,
        -0.5647074180759639,
        0.6756623651900765,
        1.690757078277145,
        0.5231505621304446,
        -1.0561286301959647,
        0.6767449037793019,
        2.1224594455262067,
        1.5061606478981981,
        0.146953070259787,
        -1.0488090832883028,
        1.380109443259261,
        -2.0830379190944255,
        1.0370807792357808,
        0.37042532817034607,
        0.8028092441971065,
        -0.8116011187677393,
        1.2851878239994075,
        -0.46882331055263804,
        -0.7476765241267126,
        0.3325702292649044,
        1.3440219120363903,
        0.15925619351435089,
        -0.37354404902237326,
        0.12868286226869632,
        0.24755982130693047,
        0.1185048390100927,
        1.2339558728376634,
        -0.46989210536579323,
        0.678880545512031,
        -0.561271167578191,
        -0.35948320299940584,
        0.9149935481455531,
        -0.08341063621271652,
        -0.15986592276324646,
        0.6414864049247645,
        -0.5625689097233592,
        -0.9487566798797742,
        -0.596882271921866,
        -0.3325207725575116,
        -0.43384081179132267,
        0.7245975011697398,
        0.9679262263087589,
        0.30328113495747056,
        -1.0921921460909887,
        -0.09294892216008287,
        1.3327306276337276,
        -2.243196549338446,
        -0.9229899274728707,
        -0.45913251743111944,
        0.9211528044899555,
        0.4410062250957906,
        -0.4722622195476539,
        -0.24506279715345244,
        -0.6650108304963798,
        -1.2219838652201227,
        1.2626755717158307,
        0.3484745310087396,
        0.7273275115807639,
        -0.019570623067493513,
        -1.264559903375288,
        -0.6223732228743566,
        -0.3835227601944909,
        0.392441753170973,
        0.02447008448243771,
        -0.4085912806939773,
        1.1180740918361247,
        -0.08625076928851794,
        0.4890832650250436,
        -1.1876244555074855,
        0.3288188209916688,
        -0.6313411955701764,
        1.32120972544096,
        1.716520750922851,
        1.1352738104989368,
        -0.7134112685755194,
        0.018859793592055644,
        0.10511509924998351,
        -1.358514371244805,
        -0.7338131552117104,
        -0.3523883330105786,
        0.24476312370111086,
        0.25482632340166556,
        0.03605696457409539,
        0.3813192803833616,
        0.5197435091009037,
        1.70518588278605,
        -0.9285393868821042,
        -0.6231633171949961,
        -0.7003378744461232,
        1.7155965318964173,
        -0.5062324927671019,
        -0.3248900153129845,
        -0.8729750956648351,
        0.5235434716386389,
        0.08592408233889287,
        -1.0646634216202944,
        -2.2248882294458987,
        -0.027960316764373876,
        0.5451482529216503,
        0.11644051952851353,
        0.4877002244195581,
        -0.04216067295971447,
        0.7007005464955357,
        -0.37261591310224396,
        -1.264881708226979,
        0.5808943446835335,
        -0.214350668637716,
        0.05929014370495803,
        -0.6467306723217057,
        0.013558081087628014,
        -0.4797023593051606,
        -0.8510381031954848,
        0.21225758128390515,
        -1.433896368472897,
        1.5121506956768165,
        -0.40214078629072186,
        -0.13613512814945172,
        0.6658993307633345,
        -0.14018076902686225,
        1.5575672621855832,
        0.27822911229488817,
        2.0088617419436723,
        -0.47451185568540616,
        -0.443602396492159,
        1.1427226701662705,
        1.6268191385766628,
        1.0986289787926324,
        -0.1533364660479476,
        -0.9954035602421103,
        -0.1784248283909288,
        -0.9643031178864756,
        0.5180874972577296,
        0.8979801673383229,
        0.29123802782766806,
        -0.7426785661514654,
        -0.6785033730555398,
        -1.3028585704491764,
        -1.3011249451216162,
        -0.1319556422853866,
        -0.7196341793234478,
        0.3360492323266086,
        0.4610237022275615,
        1.136549937627623,
        -0.5722958868093012,
        -1.0079014620437756,
        -1.510041865328857,
        -0.5362566075081792,
        1.046073905306879,
        -0.4795339513513421,
        0.24188326927928355,
        -0.6664209994362539,
        0.28844376935745253,
        2.531177102475838,
        0.1359866971355407,
        0.2432297150019901,
        0.38793318823975564,
        0.001409806167141768,
        0.8244421978154137,
        0.3927652319955171,
        0.03858774548778548,
        1.821428176862619,
        -1.1806880867571372,
        1.135847208825335,
        -0.3213864106795552,
        -0.49777270615263247,
        1.4424724911551439,
        -0.06180851773831719,
        1.0509028583311435,
        0.39763147755558087,
        0.3034146705658566,
        0.523655601868639,
        -0.8282747586658584,
        -1.446677393057989,
        0.08403975149559081,
        -0.5843333073522305,
        0.6300179513063311,
        2.133544143749464,
        3.78240698233301,
        -0.39447947697486035,
        2.2022219721650416,
        -0.007160295221426786,
        -0.4270505207161434,
        0.17469642761326104,
        -0.8270362837188256,
        1.6407445270818912,
        0.6883582898594859,
        -0.5829024882144055,
        1.5103094561646713,
        -0.513339096846551,
        -2.2197800815522752,
        -0.8239875531474048,
        -1.21798266485492,
        0.28165189930526285,
        -1.1767471502121225,
        -0.21057885316870004,
        -1.4954784038624656,
        2.4964267939250577,
        2.599388156924415,
        -0.3423995738604676,
        0.31257243565720483,
        0.4353576851402445,
        -0.40001456526795215,
        0.2169190844706321,
        1.3103482451488528,
        1.0091105368478497,
        1.6102380473357154,
        1.4802008038135481,
        4.041891854066465,
        0.016063485374556253,
        -0.053767284231003874,
        -0.8485834830883652,
        2.7403984515095337,
        0.38843892076237074,
        0.6518921974666265,
        -1.0401073529146598,
        1.0018845384207777,
        -0.9667470859132866,
        -0.5395651414467391,
        -0.024302095512413257,
        -0.015254522168502288,
        -1.167765030544652,
        0.19227749214605128,
        2.769007676949146,
        3.302702798458196,
        2.5123037495841927,
