{
  "num_layers":3,
  "sizes":[
    784,
    30,
    10
  ],
  "biases":[
    [
      [
        -2.826661213820411
      ],
      [
        -0.4886543273919998
      ],
      [
        -0.3024570167086924
      ],
      [
        2.514205459027663
      ],
      [
        0.4246066378126559
      ],
      [
        -0.1388073631971843
      ],
      [
        1.3882524777362317
      ],
      [
        -0.14342292450791286
      ],
      [
        1.8340072430363208
      ],
      [
        -0.39354900800777043
      ],
      [
        0.8931126033357094
      ],
      [
        -1.7870687796880242
      ],
      [
        -2.3594906559254674
      ],
      [
        -6.05084979421455
      ],
      [
        -0.33338752468194494
      ],
      [
        -0.7360675416401263
      ],
      [
        2.6958779990777955
      ],
      [
        3.532149224088361
      ],
      [
        0.013268454924983407
      ],
      [
        -0.8193856454612092
      ],
      [
        -1.5149888516439225
      ],
      [
        -3.7205816986981053
      ],
      [
        4.08313925220969
      ],
      [
        -3.328028201887107
      ],
      [
        0.38876027143207226
      ],
      [
        0.44966519028091445
      ],
      [
        0.5357899066935385
      ],
      [
        -0.9587122033455537
      ],
      [
        2.2586735255821497
      ],
      [
        2.0624979946293345
      ]
    ],
    [
      [
        -4.052475536018194
      ],
      [
        -3.416368581135064
      ],
      [
        -6.466380503369614
      ],
      [
        -11.062718245983671
      ],
      [
        -5.721744425496461
      ],
      [
        -0.44782487511855795
      ],
      [
        -2.9524965467721676
      ],
      [
        -4.912919538417044
      ],
      [
        -8.55565755471203
      ],
      [
        -4.153063163487772
      ]
    ]
  ],
  "weights":[
    [
      [
        1.0069221025702693,
        -0.26157284218953275,
        -1.7935651798509002,
        1.120404033823319,
        -0.6825318344582312,
        -0.08845599696645835,
        -1.211629406733397,
        -0.7945798637568814,
        1.0314666378741955,
        -0.5334487825626231,
        1.0979479140838508,
        -0.7752263765044306,
        0.19932541826506134,
        -0.9116805007310359,
        -1.6533223111212125,
        0.2988471423706093,
        -0.07303060919186168,
        0.4138569679732149,
        -0.5295486879162936,
        0.537798757959066,
        0.6291613522884866,
        -1.11334898356831,
        0.20751356519688535,
        0.4414164481271657,
        1.5539106035716144,
        1.8421985207157539,
        1.3856624597645675,
        -0.29214712159069,
        0.39632234909963504,
        -0.4158443912802806,
        0.2270338048566422,
        0.13366782652319206,
        -0.7710506529150857,
        0.59986624762343,
        -0.24763888191134115,
        -0.8695549659890641,
        -1.4191814676603638,
        -0.02013809267515449,
        0.05936452251544239,
        -0.38336749024284467,
        -0.42517359055837317,
        1.1241596328186971,
        0.36677325219965,
        0.9517523152153732,
        0.4537674832540256,
        0.17628302508897628,
        -0.29518741852564634,
        0.2461178367791297,
        3.0962781675829745,
        0.4604704074357228,
        0.3562970034939218,
        -0.39581651582884686,
        -0.35901288679962595,
        -0.18656205448900348,
        2.607340972814662,
        -1.140855547698902,
        -1.1139055992734004,
        -0.16440436246072002,
        -0.644369723302616,
        0.4358677686961106,
        -0.7945104395672102,
        1.9693154159577293,
        0.433639796731587,
        0.9182132350792267,
        0.8039765501067994,
        1.1746013600656313,
        1.3546168445740823,
        2.27597946217215,
        0.290092642783965,
        0.6475808119911511,
        2.8216578764221505,
        0.02392080389653493,
        1.745267306946754,
        -0.8178941774022159,
        1.4419849073673539,
        0.6166426251776786,
        -0.19434639446510552,
        -1.6317680854366814,
        1.4596919749845354,
        1.78806152708043,
        1.3722656991846864,
        -0.526373526077757,
        -0.49948675230125705,
        -1.2505486401004837,
        -0.9244316617628823,
        1.2528542385876795,
        0.32510157982031324,
        -0.8679003695191234,
        -0.8979296243260962,
        1.4148277044826465,
        1.9002530895192629,
        0.8357804102383565,
        -1.6416636650799665,
        2.236318770511961,
        0.13546167480947732,
        1.432339765044094,
        2.6555627958934327,
        1.605963295325995,
        2.157102811813269,
        2.1599878624048054,
        0.38949624015647283,
        0.6503118983002985,
        2.0206392354651705,
        1.6408212900282664,
        2.16257366705427,
        0.5659084307341987,
        0.5968140688628325,
        2.1758877459408916,
        1.2891269779687435,
        0.5044200208602163,
        -0.6308778057381125,
        1.0297347744116832,
        0.26089414834327096,
        0.46733423552579173,
        1.2210514431425534,
        -0.3980508533710953,
        -0.22911045291060575,
        0.43471872835975595,
        0.24563703877423304,
        0.06719519753554754,
        1.199893745968709,
        1.4337507468808584,
        2.9321582379686872,
        -0.22509637531269738,
        0.18807005859225148,
        1.228298372641247,
        0.567016684532216,
        0.8871409763543554,
        1.9064414701096848,
        -0.08497650303156115,
        0.839345797505737,
        0.7360372988865089,
        2.6220958819085904,
        0.5087194274046957,
        2.126742613182473,
        1.022109562638613,
        1.2814649531740605,
        -1.3373709305540842,
        -0.06971864763945243,
        -0.1922007807277783,
        1.4287653560173428,
        0.09593748197539925,
        0.7582869236846772,
        0.42911782614360744,
        0.3495297836660953,
        -0.3472100689773344,
        -1.0324548333399848,
        2.1377474310948092,
        -0.021360881342620288,
        1.7995917226987066,
        0.539230921998409,
        -0.634574280258538,
        0.12583936138731078,
        -0.4742885583086871,
        -0.30318629736250574,
        -0.2404379382206631,
        1.7250006499005952,
        0.1312338606071707,
        1.0590138028903957,
        3.0489607244016743,
        1.4269359793679586,
        1.6426785070965582,
        0.27689699309003724,
        0.8987773497819399,
        2.9578113751642245,
        0.19821805769280598,
        0.7572702417823869,
        -0.3797450713530729,
        -0.2335567886110708,
        -1.8324032597898685,
        -0.902274152313378,
        -0.3484016501316917,
        0.4914635946953007,
        0.7959799537268594,
        0.08989137988300484,
        1.4514759551147773,
        -0.963767780773789,
        -0.8190745746647943,
        0.3207503707382865,
        0.4295488341500454,
        -1.0414756767139293,
        -1.5123240258757864,
        -0.08769657865697421,
        2.0496142824429646,
        -0.6766941469681979,
        -0.41843874783060037,
        -1.402915236739489,
        -2.552273590221555,
        -0.20646704749104303,
        -1.1911040805396869,
        -2.0527890913525875,
        -0.8183672569834085,
        0.8151020694896205,
        -1.2696784477253045,
        0.3465942574113622,
        -0.3697805089232504,
        0.20517787768412987,
        0.6848802959676956,
        -0.40015479732144527,
        -1.4850091923016888,
        0.5507570047548362,
        2.484855004229687,
        0.6705196851854233,
        0.6738750718696226,
        1.1784222176094987,
        -2.6668296083052616,
        0.2450231761316052,
        -0.31327700203904324,
        -0.4402838643643253,
        -0.9693672381837702,
        -1.299102902379405,
        -0.5727948967973282,
        -0.1940480022424341,
        -2.8037901463027004,
        -0.47297509304244095,
        -0.4621925964496644,
        -0.033015429900047896,
        -1.0072587951158687,
        -0.7728212955876664,
        -1.2294986859017953,
        -1.9555332550715865,
        -0.4494865996336944,
        -0.5725228529048907,
        -1.2105189785882382,
        1.1432287825175338,
        0.5396092676926176,
        0.7145120785753613,
        -0.029934171917277024,
        0.44905289932552994,
        -0.4581815329829869,
        0.6277900718530225,
        0.3902506284728785,
        0.6895395411250032,
        0.0806382322162784,
        -0.750848875809362,
        -0.35031038492228606,
        -1.7432432765736254,
        -2.393438669856247,
        -0.4144897028265024,
        -1.7277487816604196,
        -3.4109894805561938,
        1.5722729551731525,
        -3.1247809650761873,
        -1.578259904039467,
        -1.8456643288859036,
        0.22368915096941,
        -0.62760991327343,
        -2.3165674326626857,
        -0.0014385756865051475,
        1.8071246105082905,
        -0.12453643776680827,
        -1.3152509540685728,
        0.1850128987709974,
        -1.3760404055054039,
        -1.30302379072084,
        -0.17614025686435403,
        2.302440061854873,
        -1.1433203694047045,
        2.4453262545510297,
        -1.9120195014715506,
        1.011281303804196,
        -0.03480588840117128,
        0.03243080448208355,
        0.6666986076475416,
        1.4695082753977218,
        -1.3872842397400706,
        -2.3094765538267534,
        0.22818113732048714,
        0.1329243482009263,
        -2.044797620502631,
        -0.29686015894671686,
        -1.6725776611734506,
        -0.8353978078357732,
        -0.3903602536165071,
        -0.1720904238879896,
        -2.6353740196229083,
        -0.7547291180451535,
        -2.0450347378084603,
        -0.3619757692478897,
        3.080776259325076,
        1.2715732685601493,
        0.8171747388557079,
        0.13270869271877916,
        0.491827336321696,
        -1.3227258899775953,
        -0.6510655257935382,
        -0.9710719411109116,
        -0.7636243193732167,
        -1.1661135903325206,
        -1.188146239467817,
        -0.898898268914313,
        -1.2950306324235037,
        -0.7256922060528957,
        -0.10580013747241929,
        0.40002102358920033,
        -0.011988806988526005,
        -0.4645590594064953,
        -1.0693210321712363,
        -2.8040005765514717,
        -0.8868026961828733,
        1.1998337293878658,
        -0.7742460112321441,
        -3.7189843008045096,
        -1.9126478852522977,
        -1.377685346392897,
        0.2471516135566167,
        -2.7653727120759792,
        -1.2905657365058283,
        -0.7635546670545871,
        0.4217221055887387,
        0.7743577234802824,
        0.7203696871668405,
        -0.8645696702629562,
        -1.4614685911437653,
        -2.777759791085868,
        -1.6218652203750414,
        -1.4329529994758534,
        -2.6888789065703382,
        -0.9326638287887197,
        -1.014513731722498,
        1.2582654072020096,
        -0.07871244796262891,
        0.5695402623992177,
        0.04979189339303753,
        -0.7965914202789153,
        0.09763722106605967,
        0.5061279036401038,
        0.4931331714953776,
        -0.2522884838198325,
        -1.8614272653096136,
        -0.2844135704188792,
        0.5889973941985995,
        0.395813766540379,
        -0.7587544352310103,
        -0.04717176126832166,
        -0.953948810694119,
        0.7241166993247415,
        -0.288827729353994,
        -1.7873300963595624,
        -0.0814724847828339,
        -0.6824524674730876,
        -2.361337404164571,
        -0.8444145960068206,
        0.5620886149213193,
        -1.103216343444766,
        -0.2707957034489995,
        0.5779406948748578,
        -0.6334635885237175,
        -1.3263610503252001,
        1.9152353806158324,
        1.84589317496485,
        1.3449014025858201,
        1.5649239557672259,
        0.9144841523512689,
        2.298942609982589,
        -0.18666511072296632,
        -0.7728894318285222,
        -0.33441782715373264,
        0.544906345455992,
        1.4161078382169197,
        0.3467868345853328,
        0.2643291723192245,
        -0.41019382369386936,
        1.430798200275287,
        -0.22399903031743426,
        -0.38258406075829937,
        -0.4905084699229767,
        0.349817181986399,
        0.4677421582701315,
        -0.9711041763822573,
        -1.4198647438122622,
        -0.3008948062300223,
        -0.3347506157968469,
        0.36821786527043143,
        1.164315405904757,
        0.7238031809800938,
        -0.6212437419153715,
        -0.004683183492755607,
        1.8900605669255452,
        1.5669084611306048,
        0.13022711218825658,
        -0.9967960825874734,
        -1.1689018535845095,
        -0.3834432406063453,
        -0.9751150408656314,
        -0.43921350064530257,
        -0.03192218603161357,
        1.4931318291820093,
        1.6173613069274742,
        1.8893010998724482,
        -0.07956346024428734,
        1.074426818253149,
        -1.7785637385064454,
        0.3347167288582925,
        -0.9878322394736195,
        1.156167457949046,
        -0.5012658399019009,
        0.07754231906218441,
        0.2637539578195288,
        -1.8759208985839848,
        0.07792614519140849,
        0.008610337616069705,
        -0.4832182948916282,
        -0.6957329988024935,
        -1.0082538154338796,
        0.7400653480630855,
        1.1170840692845463,
        -0.0668817235901472,
        1.2973370165719504,
        -1.0630436121511908,
        0.2846154110113275,
        0.13368909694138645,
        -1.0126422547085552,
        0.6354307055540405,
        -0.14636856192339226,
        1.2934433189635772,
        1.148935127719849,
        0.0641749019587718,
        1.1962964505363518,
        1.0542495057365249,
        1.9263961032611672,
        -0.7429936939600216,
        -0.3327825816210735,
        -0.683483526706836,
        -0.17299529502178948,
        1.3346391961504058,
        1.4926335388873937,
        1.1424285601027095,
        -1.09767878566867,
        -0.1998462531061968,
        -2.5631908332845126,
        -0.2801165438956637,
        0.8168602628897762,
        2.252331336289057,
        2.62286163208622,
        1.776323080177997,
        0.7867901013739841,
        -0.37335436117471754,
        0.006963298943568749,
        -0.36037279122987065,
        0.09618915215324167,
        -0.004069042608386684,
        0.547448563442689,
        1.1906819429104352,
        -0.8234672278830626,
        -0.396589441320544,
        -0.06152703816321642,
        0.4471401715320145,
        -0.7292871299016874,
        0.6324343283337687,
        -1.1941054906225956,
        1.3562090266962545,
        1.2392813747999418,
        2.3459370113659537,
        -1.5871280660284586,
        -1.8571183412554744,
        -1.173030981959278,
        -0.5206671391082619,
        -0.928557266064663,
        -1.3333753021877885,
        1.0630463684769778,
        0.6220769534912284,
        0.840645470495531,
        -0.699708100292996,
        -0.7122131749028968,
        -1.6908588439556531,
        -0.45900361907553905,
        2.5338446293348555,
        1.2471391418343882,
        -0.162035508629105,
        -0.978163675040943,
        -1.435599046100063,
        -0.8326061981858365,
        -0.6359796059803762,
        -0.7754639807441386,
        0.70060814060505,
        0.23843446708399926,
        2.6106910291587186,
        0.11968625517190529,
        0.02263957458926714,
        -1.0794660901099258,
        0.23099595425316677,
        0.6507692198949774,
        -1.1808697789434097,
        -0.7153276484312773,
        -3.4278709704866293,
        0.2583920509397991,
        -0.5452195869296219,
        -1.0290324253845393,
        -0.6270227722741424,
        0.9807134245452758,
        -0.4888236413448373,
        0.2685911169981118,
        0.5122663601990992,
        0.7989655231928767,
        0.10121618563404652,
        -0.7894304301555747,
        0.9484058978187933,
        2.0240659953226587,
        0.7899015530562432,
        -0.7366760529032711,
        1.420737551671146,
        0.8412277661950627,
        0.3522529443801539,
        -1.948571081526067,
        -1.506583877894339,
        1.3585887726167196,
        1.0540549811563467,
        -0.6665901157163959,
        -0.036730946269649095,
        -0.5637793444279298,
        -0.09322791214101472,
        -0.11240970861956094,
        -1.294961424952131,
        1.0708666260505055,
        0.20452268968348977,
        0.763199059374274,
        -0.8319570890230036,
        1.3884649293198885,
        2.4495965067158996,
        2.802706421446332,
        1.2757006894207423,
        2.0009663950006105,
        0.9398252344118462,
        2.7553463782369843,
        1.1533278724483667,
        1.4588079559686484,
        1.1679114217156932,
        0.25193663404439776,
        0.9968150868230765,
        0.36311418029560105,
        -0.11777155981051517,
        -0.44368765086106104,
        1.551904494513818,
        0.5764324992714168,
        2.3997457941305655,
        -0.6703697911756185,
        0.8990220106980651,
        0.905746498533345,
        0.17472280768261578,
        -1.2487355021546147,
        2.8672508368803125,
        2.3146017873730513,
        1.8509740717908376,
        -0.12080836168987763,
        -0.9423534661185328,
        -0.0818748564369908,
        1.1162887747486137,
        -0.4653200890188735,
        2.269619844995897,
        -0.594447060724475,
        0.12269834852064701,
        0.7100536564088106,
        0.21588978147325302,
        0.4127611358395197,
        1.0147342813573514,
        0.799286614414815,
        -0.4498018890050339,
        0.6765286577381578,
        -0.5859262211598195,
        -0.6918902349866088,
        -0.5790024241692677,
        0.26312626782030013,
        -0.2536519105838446,
        -0.43457717635569426,
        -0.14592226655161064,
        0.07517779884674788,
        0.32551584854122095,
        0.45403489911661893,
        1.0797442983409014,
        0.2901818561153013,
        0.2820571131197767,
        0.8195287168305593,
        0.16661070936235628,
        0.9450024571017229,
        -0.7188486499870688,
        1.579243801159199,
        0.3718525401124994,
        1.0639259965671455,
        0.04417471990286406,
        1.428422839481723,
        -0.15975479378173799,
        2.57744724335052,
        1.3493283024042777,
        -1.262611154386993,
        -0.13167808605402215,
        0.2496594807219328,
        1.5560172959347176,
        -0.2681093103948124,
        -0.4434518471610391,
        1.024200199405851,
        1.5727622800259762,
        -0.48564706544459507,
        0.6466177119288773,
        -1.1375245699717975,
        0.12286097442713538,
        1.68882677995353,
        0.7141845011217843,
        1.5049719007365965,
        0.6434687551632614,
        0.48837352623646096,
        0.9960319722532985,
        0.719846914165875,
        1.2836057221796406,
        1.1169150058928825,
        1.1505161558145292,
        1.2834765888702113,
        1.220372887228779,
        2.202505236189093,
        -1.3682929277036744,
        -2.5899242584628577,
        -1.8395093895602308,
        -0.49223610960517716,
        -0.6285297731792413,
        -0.882819097404909,
        -0.1223335602024144,
        -0.34221194363927165,
        -1.674773192787068,
        -0.04002079659521759,
        1.2338293214748672,
        1.924803199055055,
        -0.35053495165215315,
        0.8874872859537508,
        0.3790350492873446,
        1.263046475506014,
        0.48298250088163963,
        0.9405682369274645,
        -1.0753475105435975,
        -0.4917475019482843,
        1.4111205650250151,
        -0.4283180270994841,
        0.8346017224117213,
        -0.9186128261374699,
        1.904791253586083,
        -0.4337873648334422,
        0.7195403564062566,
        1.8635394761320063,
        -0.8746486877720315,
        -0.6645845551987049,
        -1.004897981468049,
        -1.200294693397546,
        -0.9055845306153675,
        0.3489084841099563,
        0.4309498880921485,
        0.08669252406883106,
        1.009352407567196,
        -0.29024040867189305,
        2.2609371236599958,
        2.5195297142414734,
        2.739307023219379,
        1.3784947044129925,
        -0.06424332456686103,
        -0.3178048388259142,
        -0.0628553043034663,
        0.5987702290677717,
        0.5324157656518381,
        -1.0422257353001307,
        0.011523217535889991,
        -1.2594193220833048,
        0.9089680621878526,
        0.6815675393170476,
        0.49181515649354973,
        1.3202285820300468,
        2.1460929435365586,
        1.345342636441611,
        -0.6869391480610836,
        -0.46355290901707863,
        0.45517924371468804,
        0.003333556904379917,
        0.4279306208145494,
        -0.66970192115563,
        -0.07512020508325133,
        0.613005982436371,
        2.1093860550416506,
        -0.7319048422590277,
        -0.4326747936462891,
        0.14255505479692304,
        2.1543158091319343,
        0.38534225682708567,
        1.6299352052479399,
        1.5018813729784195,
        3.607511802045404,
        1.0718583301276652,
        -0.003906422550360784,
        1.595880030995542,
        1.2226384382463662,
        0.3365858527126578,
        -0.7511625844388435,
        -0.9459867316481693,
        -0.7902898354311599,
        -1.8135021228491668,
        -1.8877661494777684,
        -0.6265287541766648,
        -0.5997925156547486,
        0.44490528755474623,
        2.1571153673492462,
        -1.60676519169806,
        -1.4736382777348176,
        -1.2052449334430844,
        1.2775252311185799,
        1.0660495745984708,
        0.07800719250641074,
        -0.31797641822323786,
        1.1050035697768437,
        1.4503061598112086,
        -0.5625590515946428,
        0.7327636098186526,
        1.0554638676682675,
        1.4579393587243292,
        0.03499624824148718,
        1.9636485457376984,
        1.9652468438253652,
        1.0694400199208203,
        -0.06054808874645535,
        -0.4081595826556242,
        -1.1309572958106362,
        -0.6168245851427189,
        -0.9073458041264882,
        -1.1339930760507686,
        -2.051602979053321,
        0.7831270088079623,
        -0.028368278828028247,
        0.3049011678470601,
        -1.0738494091921533,
        1.1106895749477945,
        -0.9470215874568465,
        0.20850530878051043,
        -1.0850280144848012,
        -1.191990013524451,
        -1.1183664063177037,
        0.8850348571429489,
        1.3308146811379944,
        0.30753906256658914,
        0.009230406632210775,
        -0.9818177513764064,
        0.8089325970443499,
        0.9384278858789004,
        -0.08645017471974897,
        -1.3003971338572655,
        0.37051563556746897,
        -0.45153089526293255,
        -0.8791961992289015,
        -1.3279413745886146,
        -0.13068019856544988,
        -0.8607630221016342,
        -0.6075172712076373,
        -0.40787735220009413,
        -0.2189460030621494,
        -0.3373319154896222,
        0.009856737811809908,
        0.23608280352477024,
        -0.6707878667236289,
        -0.41766595825891156,
        0.3577116696327563,
        0.14816242214469677,
        0.35413454213364015,
        -0.4681439599088038,
        0.07274211517556185,
        0.18973709967787797,
        -0.2642469283380559,
        -1.6203592190490712,
        0.38350112519344914,
        1.3350269619629458,
        -0.08299601851354754,
        0.635559179307054,
        -0.10923869657139133,
        -0.6782017480683611,
        1.254434263090662,
        1.87349104833998,
        0.9630823056656793,
        0.7151133854015932,
        0.1733777530681148,
        0.5543109883685157,
        1.787662133603005,
        1.458717521194896,
        -0.2299915524975534,
        -0.09425104462184049,
        0.8134433310901662,
        -0.30382251454096887,
        -0.7961554847651402,
        -0.3525747145527429,
        -1.3977206815745684,
        1.4878236920305412,
        -1.6733695641861377
      ],
      [
        -0.932876556155738,
        0.03428604748059425,
        -0.17607065962744112,
        0.6843028182700023,
        1.4411758317646772,
        -0.3363116316774035,
        0.11272322136929648,
        0.32358965186806804,
        -1.5004512081876158,
        -1.572490026422294,
        -0.31916296142248024,
        1.4593377224922932,
        -0.06524420309838591,
        0.3768032007081865,
        0.2837364963794503,
        1.6877771502369099,
        -2.5433586126008576,
        -0.5066123047128124,
        1.5550392640969706,
        -0.16525485332844955,
        0.3929625181962781,
        -2.023958818741416,
        -1.3590591490584203,
        0.21737129772984962,
        -0.7542178185383956,
        0.8906080314238214,
        0.8479009424777488,
        0.6226175332871398,
        0.4665222590273618,
        -0.05960399189280753,
        0.8178036500728002,
        0.8240202560296881,
        1.3787389072388303,
        -1.052220795115927,
        0.3910378092544011,
        1.0738901529189782,
        0.5299386018444247,
        -1.095330818149179,
        -1.8158483598579436,
        0.337265467544594,
        -1.6478751833479024,
        -0.5844531499974734,
        0.9112095136108938,
        0.6695009687905056,
        1.782773781011637,
        -0.5420234841480709,
        0.029913073408076175,
        -1.283502848404399,
        -0.868523276121826,
        -0.7617883317685645,
        -1.8004236179341733,
        -0.9462072709242171,
        -0.21507778460262295,
        1.0977900037076362,
        -0.0431128182914139,
        0.47872580845629115,
        0.8144681221934759,
        -1.242878980815599,
        -0.5496313935490788,
        1.8481221264765775,
        1.5578423897681362,
        0.7316999847737323,
        1.3800100767610541,
        -0.4662266638035154,
        -0.3174853253727766,
        -0.3195041035352211,
        -0.6482938202754218,
        0.47639173117910455,
        1.5540446199828708,
        -0.9159267593936558,
        -0.2827680520657857,
        1.3739675773610365,
        0.07990304718577877,
        -0.8128961192184896,
        1.427882789303348,
        0.7451960574355714,
        1.568779773022476,
        2.5295752344835294,
        0.8185618592288453,
        2.12999883691939,
        0.6865866934037419,
        -2.141621076816339,
        0.6777347036854694,
        0.06743950660621209,
        -3.217967848487427,
        1.0542662648296037,
        -0.07703014640032137,
        -0.7836387797695229,
        0.09325249901993078,
        0.755077470492659,
        0.14776654658154628,
        0.2383935668873959,
        -0.21848450103023517,
        -1.022489662747187,
        -0.40836481770355915,
        -2.780461048450093,
        -1.222284281634212,
        0.40643149658997957,
        -1.3865813124617299,
        -0.2176922159904624,
        -0.5173275434082799,
        -0.0725565521053768,
        -0.45501769523357116,
        -0.05237130075015375,
        2.2877292643355864,
        0.9789670721444894,
        -0.44928671535119313,
        -1.39255845468617,
        -0.7711032613213756,
        0.027952224085454263,
        0.8454862015695906,
        -1.4552963037802384,
        -2.547229539000256,
        -0.07184370003514,
        1.2786156198683254,
        0.14709796705875608,
        0.8719873440099949,
        0.4971157217933482,
        -2.8820301258962764,
        1.186899377090726,
        0.4853370916764408,
        0.657783671405609,
        0.20404485714895934,
        0.7129307740983991,
        -0.8113717532114046,
        -0.7987117918447498,
        -0.5112147384377863,
        0.06970576248222939,
        0.24260442176004648,
        -0.4391567723472824,
        -0.5987045331943868,
        0.13188809825625317,
        -0.40502281959464664,
        -0.30987684938972726,
        -0.465607571842316,
        1.0341648622021498,
        0.06197870048785506,
        0.18053830591812398,
        0.3106219411349124,
        -0.1610482588041565,
        0.4305162750016278,
        -1.6986369303183393,
        3.804203278274508,
        0.8996207289908321,
        0.3062561053860858,
        -0.5890638987174611,
        -1.3105730107888367,
        -0.31744189786659843,
        -0.7076694502394231,
        -2.0804731296034364,
        0.2737287324375015,
        -1.1139914416254648,
        1.3669084693467315,
        0.79436563173591,
        1.8546481919395716,
        -0.4484990186715248,
        -0.45099055252448805,
        -1.0515715593801995,
        -0.7543469515011543,
        -0.4286574073295248,
        1.5345085751312377,
        -1.1108119824740108,
        -0.7196327577669722,
        2.266723764286683,
        0.8504324599708737,
        2.0660638512196776,
        -0.5751551737958635,
        0.8046595039363181,
        -0.8215345506270143,
        -0.37091471257636605,
        0.4019078148650664,
        -1.1274424155168878,
        -0.24941138669465981,
        -1.0451538351531369,
        1.2472969872669124,
        -0.8086771313556136,
        -0.6645410591120827,
        -2.8426406686414167,
        1.6306646938779765,
        -0.9399200464818956,
        -0.4122376940486972,
        -0.3396173872808672,
        -1.5637376971032206,
        -1.8876952594451901,
        -2.40252162657313,
        -0.1840452856377682,
        0.9018769181681485,
        -0.97640139393235,
        -0.796138120168871,
        -0.06674988607642582,
        1.6216615725655434,
        -0.588330258374502,
        0.7298390189710352,
        -0.6829637962354078,
        -0.17338226330358364,
        0.561503151724099,
        1.0243163211923028,
        -2.2584230786740926,
        1.8617830330448213,
        0.6184122696793943,
        0.9601805767533867,
        -0.07178656721293254,
        -0.4104150309162896,
        0.8830620979268052,
        -0.37602832549225607,
        0.07710256267977451,
        0.22916124727393622,
        -0.6022107173601889,
        0.636852288728835,
        -0.0853258846032983,
        0.13481558755709502,
        -1.2595015057414713,
        -0.6065133341172089,
        -1.559484481971729,
        0.7626042054307757,
        -0.9317423548986988,
        0.01927794539277699,
        -2.985090855105803,
        -0.22385312087538642,
        0.36705351239204365,
        -0.1811707599715932,
        0.5031257664604317,
        1.491557820925649,
        -1.5689975307156032,
        -0.1991567745327959,
        1.4388623481435805,
        1.5985376716875803,
        -0.40200281662664933,
        -0.49205451823881596,
        -0.2767830045032811,
        2.220903313956346,
        0.36070194889108653,
        0.9140720853961878,
        1.0350750823060737,
        0.5062856398237344,
        0.1353416246746477,
        1.684614016979599,
        -0.917562712143658,
        0.36197593118132454,
        0.4070147391176456,
        -1.2743414387307261,
        -0.16627298070151925,
        0.6136291758185013,
        0.11497811758745799,
        1.5499128809065525,
        0.45000520795400367,
        -1.2379007016233643,
        2.496489783466186,
        0.013460855002381117,
        -0.25458676291036664,
        -1.0536402704178565,
        -1.0760151266723694,
        0.5866242896772457,
        0.013789894107276709,
        0.6803282629448045,
        1.1710910532642307,
        1.4028304378458798,
        0.6085279762421526,
        2.5354841274504385,
        0.721944354137954,
        -0.700344104172378,
        1.307007411769587,
        1.0716152211587973,
        1.631509994817465,
        0.9063524197253803,
        -0.8289338620052262,
        2.349458814972508,
        -0.49216216319640244,
        2.1821836528004503,
        0.08525993644346914,
        0.760641517194905,
        0.9568056723720834,
        -0.04812321680687106,
        2.1336416194124608,
        0.8294928621644507,
        0.8240551976092032,
        1.662756889892254,
        -0.9587190691333133,
        -0.5173285683097132,
        -1.0626218026138434,
        -0.40282395816679295,
        -0.3628418425359563,
        -1.137605759958225,
        0.8760984810802053,
        -0.4911683733694494,
        3.725208889423093,
        0.37938566546765345,
        -0.1796299931389593,
        0.3271170382469603,
        1.3185492649234973,
        1.9955941163440796,
        1.466119398175245,
        2.512747210694287,
        2.915776551395133,
        2.281772322424381,
        -0.6332370463853932,
        1.0521635057054035,
        1.7320204780045954,
        0.6922971829088299,
        -0.9663345273504115,
        2.296971903775507,
        1.5672960194163357,
        1.2555902839999291,
        1.2283592681040023,
        0.02308060039666934,
        0.47816568702586354,
        0.23420807790078016,
        -0.013494596671465443,
        -1.627054249358614,
        0.9905443819858376,
        1.5739808073156605,
        0.8490103240105157,
        1.0733125558497347,
        2.7850336294669433,
        1.2631059611986668,
        -0.01841894434527425,
        -0.7164715135540379,
        0.4190149181660317,
        2.2633240560586456,
        1.8746300172165602,
        1.6487037893158827,
        1.5054902934972498,
        -3.507050074330184,
        -1.4000578848927716,
        -1.5406309329091823,
        1.2247728290410478,
        3.7720997742301283,
        2.357099080837166,
        -0.2478051869397575,
        0.5990223139710266,
        -0.015763358372601434,
        -0.7163542730379625,
        1.5782506170448005,
        1.0774895751034848,
        -1.49261859201588,
        -0.5258594670844964,
        0.7894858690729519,
        -0.7656906286044595,
        1.6869375291214543,
        1.8092090422098588,
        -1.818356872798734,
        0.23057150927374326,
        -0.22961477250096873,
        -0.5371529235290528,
        -0.08950702029809494,
        0.432136214384028,
        -1.764846271664009,
        -0.01752489308259956,
        1.1839758194478778,
        -2.8586984777589652,
        -3.8865573434833887,
        -1.502580342958255,
        -0.8827613114421001,
        -0.4393642257571595,
        0.189834901332244,
        -1.4595295973828786,
        -2.8897774933392726,
        -0.26697303164708674,
        0.3632850636969711,
        0.29966633762191386,
        -0.2560475934874639,
        1.8202790635889134,
        -1.982665562737616,
        -2.2692486271737144,
        2.2857659676955393,
        -0.1408373294436469,
        0.18764528620568402,
        0.05242647028504143,
        -0.2853980946311874,
        0.18279557238093497,
        -1.3161771075220365,
        0.6990386781005041,
        -0.36921236496323356,
        -0.12193170112906274,
        1.7855335528291996,
        1.3639909933230348,
        -1.296601599729772,
        -5.935295887255164,
        -1.9944901563047652,
        -3.279928095720508,
        -0.13736411163704126,
        -0.7490383873607046,
        -0.9128755823491934,
        -1.908079518249463,
        0.6155969077224799,
        0.7078742426635688,
        0.5769409609368106,
        -0.6501292963604437,
        -0.0076783188594669064,
        -0.7485348513396549,
        -0.28731470901140643,
        -0.01201946418293157,
        -1.0529046407741436,
        -0.2792125251436106,
        1.1585636058817999,
        -1.3264873941653665,
        -1.4940956140360313,
        2.785781837377751,
        0.1081784668080251,
        -0.6829808591698782,
        0.5804686464961585,
        -0.6340823775399573,
        -0.1991443245929767,
        -1.365642733939824,
        -2.8919317050342936,
        -4.341311778687321,
        -0.9624880397159631,
        -1.5003269502844678,
        -2.6178929394659276,
        -3.1812581091899927,
        -2.061373305009828,
        0.2125087536115869,
        -1.5396585230807955,
        -1.2470348651233436,
        -0.11654343721123311,
        1.437548017937708,
        0.25871316389152893,
        1.404915870671606,
        -0.2815253400178009,
        0.024651134030728123,
        -1.632113550519549,
        2.7382634142187796,
        0.06126988067198155,
        -1.5372610425081628,
        -0.17157968089145625,
        -1.70823750611953,
        -0.9533541486164164,
        1.7335212978305152,
        0.03545607000188506,
        0.14842583275797036,
        -0.13171577710511362,
        -2.9393810916513465,
        -3.0296522346128762,
        -4.419182240236217,
        -1.44204676900638,
        -0.5146687197936926,
        -2.5953905936187405,
        -1.5669338538556177,
        -2.4772721258719725,
        -0.553827680131062,
        -1.6704947337568785,
        -1.2126694664684137,
        -0.6021853293302994,
        0.7541054323267777,
        -1.8542388130122283,
        0.32615967650766353,
        -0.4008443192092126,
        -0.5015763453102093,
        -0.22971316901520733,
        0.15384741158535525,
        -0.9340746266250078,
        0.4335222141183063,
        0.9878890841636305,
        1.150583283576184,
        0.739789941886308,
        -1.0045008525476247,
        -1.2276907237175012,
        -0.6775454694558168,
        0.019245582606779145,
        -4.42725400104317,
        -1.7007708497412757,
        -1.9207064272633418,
        -1.1846147336183461,
        -0.10787291196729712,
        -1.636927462551689,
        0.4259849905338943,
        -0.4757773844100914,
        0.763696698094043,
        0.08509793775160962,
        1.2788922554034203,
        2.166066140971899,
        -1.6979566398114014,
        0.5216311964085258,
        0.3331615347749511,
        -1.23648965615164,
        -0.5996984714680833,
        1.276504844540804,
        0.3880685324490275,
        2.396773335515608,
        -0.4271092497622927,
        -0.2491643523513099,
        -0.4699111908002509,
        1.0825539089733223,
        -0.6847664120349813,
        -0.05868208595012164,
        -1.5512429661450347,
        0.2159308088317534,
        -1.441528917896319,
        -2.4957652362829488,
        -2.853293588003609,
        1.537535332538486,
        0.6968915969319324,
        -1.508682142538078,
        1.6355753596771485,
        -1.575772719760301,
        0.9474976748213259,
        -1.8298385240563313,
        1.258153346309799,
        -2.4052162482527817,
        0.6254197734245368,
        0.7254868617655451,
        0.6815897460890883,
        -0.030474758831198493,
        0.40312497142251913,
        0.6220132132926944,
        -1.0583895719348324,
        -1.2115396361113793,
        -0.1543189244582526,
        -0.589807066692861,
        -0.4282607093705425,
        -1.0850403326393585,
        -0.5043060467955692,
        -2.9333276285225116,
        -0.4764810199184584,
        -1.9270862276274712,
        -1.3002825106950249,
        -2.3331962340739816,
        -2.0626867241408178,
        -2.272049934926521,
        -1.460987263266132,
        -1.2087065257912701,
        0.466089184754495,
        0.6762370923222021,
        0.4402286803193531,
        -0.060653305007725845,
        1.8727609800041003,
        0.13047248380984253,
        1.6670241078610524,
        -0.05259182719455705,
        0.459973636797898,
        -0.6192713095242428,
        0.7834766835589453,
        -1.7530366420791041,
        -0.8704550874644472,
        -0.3811332941276602,
        -0.9470678001210812,
        -0.12048959664160921,
        -0.44927497412595463,
        0.27448147504406195,
        -0.6937388327967474,
        -0.7992991491811543,
        -0.027944569815675793,
        -0.5629086477126144,
        -1.0103079197792193,
        -0.8051504836409936,
        -0.3831005029647673,
        -0.6483792255972463,
        0.3317949395468993,
        -0.08808513641361998,
        -0.43215594620701986,
        0.947567015781187,
        0.5789256670979772,
        1.6595188647321681,
        0.7243317397419001,
        0.48030557350881087,
        1.5769834734869266,
        1.3278063320012712,
        0.8057961407216783,
        -1.705202770798964,
        -0.848818432078129,
        -1.0006344543785504,
        0.6851284769574859,
        -1.1353551141567226,
        -1.051366677649525,
        1.8717583590703342,
        -0.7999016996926239,
        0.6904512420723053,
        0.8726540908064656,
        0.65248716512369,
        0.19523485064496687,
        -0.2984768821380369,
        0.7551366032775724,
        1.630066705221089,
        2.0455011072572074,
        -0.27863385114551203,
        0.8774784192833055,
        -0.39570072621713215,
        0.021567030977253765,
        -0.4000115803134235,
        1.154261159410075,
        -2.7743182758841978,
        -0.018205964676257173,
        -1.4095690260237599,
        -0.8283765645405318,
        2.1878903332713007,
        -0.3505115514855191,
        0.36609203224704484,
        0.5440497439544305,
        -1.4386612125026634,
        2.076946861547769,
        2.8211582839122067,
        -0.23455022626420374,
        -0.22689716732282844,
        2.1731614411676787,
        0.6857361863925304,
        -0.1487363233237344,
        2.126589685607216,
        1.4788070798186397,
        0.786472325551446,
        1.8519417548694705,
        0.20963709532212688,
        2.6228822153101254,
        0.287367169427093,
        3.0616234914235014,
        -0.5837887337821277,
        1.3997738956578263,
        -0.5745860701119979,
        0.42356388836872266,
        -0.759717128994903,
        -0.08333333064283245,
        0.951055005973233,
        -0.27995018718459247,
        0.4536922870974335,
        -0.8358541207782128,
        1.5423265872076475,
        2.106555941198515,
        -0.5992202787531209,
        1.3212604824534324,
        -0.9850110060649712,
        -2.4214421049831305,
        0.6687945648555715,
        1.2298116785997528,
        0.019404818711652092,
        -0.35505441500293705,
        1.7597590719958771,
        2.7503497138971515,
        -0.04113722403598847,
        -0.42640866910775244,
        1.6706837573846693,
        2.082501595220995,
        -0.0789538041912832,
        2.2484704340383237,
        1.2718716299536175,
        0.7977670795396892,
        1.4393159350068194,
        0.2856695624093136,
        -1.4919384547052112,
        1.1249630131350097,
        -0.6482063201600967,
        -0.20650304711233664,
        -0.30552612213484337,
        0.46961836488350145,
        0.38056557643971506,
        -0.5467885492739557,
        -0.9198621848905167,
        1.6018649471013,
        -0.8708640133266417,
        -0.2623460610253807,
        0.46857438483299774,
        2.5129804369494497,
        -1.669619963886329,
        0.13500024157762452,
        1.4889809436767132,
        1.171772610482465,
        1.5402308500994915,
        1.3942565102197186,
        0.9972140186844659,
        -1.0992599141895587,
        0.7974993751867,
        0.7274617434755389,
        0.648236233546952,
        0.24054633225406616,
        0.9525061357576987,
        0.1794694836182496,
        -2.517608712401302,
        -0.6886502503673997,
        0.48673741210289323,
        0.8590034854373684,
        -0.05288898367604594,
        1.337669250608193,
        -0.4952645722993969,
        -0.6203723844760504,
        -2.419283071117277,
        -1.2800436842716303,
        -1.8469263650043715,
        0.425678871825593,
        -0.7640298413516642,
        1.165006557094694,
        2.8687465112350865,
        2.5776923931366267,
        1.6043170944880059,
        -0.37400977001676355,
        0.46007960935445263,
        -0.6299303190864292,
        1.0988532704902694,
        0.08661031252268502,
        1.8121984346754674,
        0.3333568946923708,
        -0.3517746655905873,
        2.3538865300279945,
        -1.3016784634777077,
        1.7312037324367582,
        1.1900979836547365,
        0.03740497910984723,
        -1.9179869286849738,
        -1.3335515060746441,
        0.13712485830763435,
        -0.5922209800339177,
        0.5852158321833926,
        0.02450948616060972,
        0.4196035345179513,
        2.126075846118301,
        0.6550575839818716,
        -0.9126680108628752,
        -0.6860502180159007,
        1.466240527434296,
        0.17543265059424434,
        -0.6443406025032056,
        0.6283623834484495,
        0.8907597329806654,
        -0.0509621744785567,
        -0.5909334175139529,
        0.16331576045280471,
        0.8688416056214227,
        -0.45983372637901293,
        2.522640685678934,
        0.07990405030142318,
        0.0027919496071123905,
        1.1052394024967802,
        1.1350834216856325,
        -1.6285754371934802,
        -1.2847490210912211,
        -1.4526880303064302,
        -2.705717238134714,
        -0.3263143064953706,
        -0.2908561633803726,
        0.9471288608965464,
        0.9982350261090527,
        0.1152096632030055,
        -1.1816068019237667,
        1.6763631680073983,
        0.671685370030662,
        1.7917052983362756,
        1.009454154674273,
        -1.0672152466561253,
        0.38607312681378353,
        1.5248613201173826,
        -1.5824719364190438,
        1.2668993736754355,
        0.10134039671141876,
        1.7447947286402787,
        -0.4466001996121574,
        -0.612515111826508,
        -1.004767592912745,
        0.7896227145907857,
        -0.5322023318752033,
        0.2186639706163961,
        -0.11447352578845871,
        0.577950918602119,
        0.826486393268664,
        -0.09474404440414538,
        -0.4817377607057681,
        -1.0464148786141574,
        2.25942846439767,
        -1.2615728461389126,
        0.3445436114341115,
        1.0147393656281594,
        -2.2570802211036436,
        -1.2494455921156185,
        0.510160564967866,
        -1.6633657224827694,
        -0.02263050385969152,
        0.005150385269866015,
        -0.3358136805595251,
        -0.2623328295937945,
        -0.5150549734434997,
        1.0557097961842468,
        1.8054994099388415,
        -1.0799858848691304,
        1.0373759498262265,
        -0.511305476362507,
        -0.8007633231138609,
        0.2960962104569405,
        1.195752960976913,
        -1.3574958621461481,
        1.6427699410497478,
        -0.9356077768521093,
        0.0983633729706904,
        1.4174423495270099,
        0.8283460029702868,
        0.4021572760919213,
        0.4621364975272243,
        0.4849179285862139,
        1.0200007968405513
      ],
      [
        -1.5458346797823515,
        -0.5162926481268582,
        -0.6047121830520645,
        -0.34821196079618716,
        -0.9724941262720188,
        -0.930238911847625,
        -0.24918228980308366,
        -1.8815828351559705,
        -0.9095041403742791,
        1.049474474648666,
        0.7937453660562761,
        -1.531564227183888,
        0.19276503377024307,
        1.5151356562392504,
        -1.7642365433874305,
        -0.1511642291530479,
        -0.47181264987675253,
        0.45488310151086353,
        -0.23538545493943225,
        0.11653080650782588,
        -0.09432922660260173,
        1.36814921189153,
        -1.6345086678698657,
        -1.4118629828446936,
        -0.1851613810552712,
        0.726743324070648,
        0.9354189975911338,
        1.2220122569121434,
        0.9355624571953702,
        0.20914806843935094,
        -0.28633763084217684,
        0.8516191467878679,
        0.45171546813378505,
        0.30126723536096245,
        1.4661178977149203,
        0.4945142341459876,
        1.4836203589120787,
        1.0714806254181006,
        -0.5410515697190938,
        -1.4395267305306099,
        0.7974583005014295,
        0.7371874489602864,
        -0.9078467590944821,
        -1.1900939957517733,
        -0.4321552562187873,
        0.24439296479992967,
        -0.5985891884639599,
        1.6036168332208809,
        2.245052236520788,
        -0.2768930568492488,
        0.026768665394893056,
        -0.07330024088552065,
        0.34975305165956744,
        -0.08896131875676092,
        1.5328267166155616,
        -1.025038732812539,
        0.5277431642356539,
        0.017752055842994045,
        0.4336077666022238,
        1.0929880161057821,
        -0.4707744935873766,
        -0.30174492996368363,
        1.8368705979278308,
        1.4630089474761014,
        -0.36585371874562633,
        -0.6372893418951273,
        1.434521104824157,
        1.0677545203512717,
        0.22249342110734566,
        -0.46274274251810005,
        -0.07357468757198746,
        0.3524452463942799,
        0.6085832379642463,
        -1.1092431782891672,
        -0.7335233156790619,
        -1.0094210960687822,
        -1.7764516537201873,
        1.3340783711873831,
        -1.1251546881220476,
        0.005269681947137915,
        -1.0491496397711115,
        0.996925418086873,
        -0.42270928655497136,
        -0.23433414447655654,
        -0.0825389662304218,
        -0.9738346743248583,
        1.5605013634455562,
        0.10117062578268284,
        1.8018003603292134,
        0.735666242313826,
        0.14966939306062002,
        0.2169477390108538,
        1.715403110899733,
        -0.4565624879980996,
        -1.19224704022542,
        0.9450148512191356,
        -0.3908490067327255,
        1.7143041019041216,
        1.932283683289191,
        -2.62688508573906,
        1.8354427267131148,
        1.376742116494279,
        2.9477238474688776,
        0.07757899716978843,
        -1.1997794820558239,
        -0.9548842865150778,
        -0.24657267145150805,
        0.08188293339666843,
        -0.12581389530470977,
        0.6229799700272819,
        0.7880136367420691,
        2.488237621871581,
        1.4902143328570125,
        -1.4339842697320468,
        0.564988784475988,
        -1.3021819070939449,
        -0.5111780184848391,
        0.6947611843527419,
        -1.1023981607690991,
        -0.5051515960366076,
        1.1171724743624207,
        -0.16274939182011375,
        0.07099410573641078,
        -0.4827848026770482,
        -1.0892973713752596,
        1.1628775200172148,
        0.688143525921666,
        -0.6849743779089038,
        0.189078548657418,
        -0.11533432911273084,
        -0.7792616176124656,
        -0.5639211632703695,
        -1.8928508245173084,
        -0.41836032845946197,
        -1.0499675924519034,
        -1.2671072130052528,
        1.0587879678681769,
        -1.1198046579870276,
        -0.7383613596743781,
        1.3817089732385543,
        0.05207570532337549,
        -1.807576124175777,
        0.47046417089081544,
        -0.9885961595704837,
        -0.9658384477170944,
        0.3663376966739006,
        0.6983436377432294,
        -0.5098602570014243,
        0.7113250230885746,
        -0.4066813628446036,
        0.5409082153204464,
        -0.4292103652978622,
        0.25660189405511885,
        -1.2480491415204953,
        -1.7076474194004332,
        0.8079394477987376,
        -0.984395460186905,
        -0.5344129536024291,
        -0.6688606522798578,
        -2.6116517798379055,
        -0.6764453095579147,
        -1.1276388357315072,
        -0.8496396148652269,
        1.4124073103491959,
        -1.8632832327840088,
        0.7430238326794232,
        -0.207750675522871,
        -0.7326359348392361,
        -0.13203758980620509,
        0.21265262424054734,
        0.9616577747192068,
        0.2440155472122373,
        0.7613813116387351,
        -2.2633337670466402,
        1.6270995776617343,
        -0.6627269250486354,
        0.844831809586712,
        0.36242418301714957,
        -1.990942054428148,
        -2.532562776069318,
        -1.416338434694724,
        -0.6019184350488207,
        -0.9753175713121883,
        -1.8187459703691171,
        -0.6782608633967662,
        -1.899024257564633,
        -3.512113139757473,
        0.10317261012534308,
        -3.52431968482456,
        -0.945664161292181,
        1.463307161920261,
        -0.9911666735087928,
        -0.8509613583550348,
        0.12002898013275158,
        -0.2416125304188861,
        -0.31833461942132196,
        -0.5195557194645656,
        -1.1324008250560265,
        -0.6149851223573403,
        -0.4319657615474663,
        -0.5670191657074787,
        0.32002265972244254,
        -0.29131876739608864,
        0.47059280096703204,
        -0.14669395387000012,
        -1.2947338634869017,
        -0.5771290556718371,
        -2.680222532677457,
        -1.3161977254353396,
        -1.8240993302580153,
        -3.261073073295205,
        -0.5661406528985505,
        -2.9229300047037134,
        -1.9240114525088825,
        -0.45155159148139457,
        -1.894258473867488,
        -2.8450853154641584,
        -2.155587919760498,
        -0.883907982442858,
        0.585039777773454,
        0.16976328752633563,
        -0.7481240799538031,
        -1.7593032879881108,
        -0.873777668394324,
        0.47888246686825753,
        1.0392744475130569,
        1.0781247800676625,
        0.7157896819651202,
        -0.0837410191731451,
        1.9654724789149614,
        -0.23492662537403905,
        -1.3855792287927484,
        0.35008572192051174,
        -0.11917164122447915,
        -0.8470810953924953,
        -0.7591496783275266,
        -1.6304546038991579,
        -2.3093435213175932,
        -2.8170756060485616,
        -0.8177935206771185,
        -2.7595924631456996,
        -1.7733411101963419,
        -2.7662807267840344,
        -0.1916584379426608,
        -0.41752515830147535,
        -1.8450429998701112,
        0.0452250893187298,
        -1.3576925905930288,
        -0.9987588555735454,
        0.8585589990625544,
        -0.8359340865439466,
        -0.8161105982782504,
        -0.5136057144703373,
        1.2634086019631603,
        -1.2752398988802665,
        1.9609355399507384,
        -1.0681079029711198,
        0.1802923746692112,
        -2.1757250049898285,
        -1.8637210489698735,
        -0.2953162499524473,
        -2.022046036699633,
        -1.6182779527118454,
        -1.9691010641313174,
        -1.009710488055056,
        -1.3995227206349277,
        -2.6596808333470503,
        -1.5665808427412333,
        -1.4905385632400254,
        0.1904443588187698,
        -0.6180149563912107,
        0.9717921555748914,
        0.12736048756128737,
        2.4164789968356994,
        -2.09238405024888,
        -0.0053836794009629926,
        0.11167751752484119,
        -0.181525759947738,
        -2.1103794010439163,
        -0.6289336795802378,
        -0.27555566718579927,
        -1.1102437279437098,
        -0.9537142410345436,
        -0.3219712698137837,
        1.227758116025195,
        -0.6109119849096325,
        -0.7439274227690837,
        -1.5021225675122092,
        -2.3110385337089245,
        -0.5860771981043704,
        -1.2287378614013034,
        -0.6069462745546577,
        0.17638455263431085,
        -1.539869280032473,
        -0.6438396639835133,
        1.3750922164211403,
        1.3903254378726433,
        0.6624891083982338,
        1.1049660737206606,
        -0.33219633614244665,
        -0.09591713200814053,
        -0.22446798887849448,
        0.22151215665625798,
        1.16210404790026,
        0.26833517552659875,
        -0.5544751456427154,
        -2.076754478120346,
        -0.2340545896196382,
        -0.7111545748379614,
        -0.8296069379266952,
        -0.5183313405725521,
        0.9804538361736218,
        1.285343901094309,
        -0.834579817639245,
        -1.5392786422310774,
        -1.8771064536178461,
        0.2599955445571079,
        -0.32170234928996155,
        -1.5825404850735785,
        -0.7267119202659583,
        -1.4249613640996335,
        -2.5353012341232266,
        -0.2662178539230412,
        0.916914461954077,
        -0.032228220046250186,
        -1.5219731491909683,
        -1.90316024432764,
        -0.32430580044072516,
        -0.598078998697229,
        -1.232368187404671,
        -0.9049083106863283,
        -0.47452005684298554,
        -0.9284392542942971,
        -2.070615811039024,
        0.14142602876765956,
        -0.6850327981335268,
        -0.01823904734596995,
        -0.11387393124295296,
        -0.4862693863428147,
        -1.3839216985732645,
        -0.8858845617788669,
        -0.8027977510919379,
        -1.1339812040294281,
        0.6104504058412644,
        0.5384384388669817,
        0.12931662461551663,
        0.03297177717320561,
        2.4282286398787742,
        1.9792160076721788,
        0.6665364431424964,
        -1.9110760511123197,
        -0.2696929041901543,
        0.7196573086012965,
        -0.9304071720147736,
        0.31105891989982626,
        -0.014372364740684943,
        -0.5235807827846451,
        -0.1457090634404892,
        -0.47765888836952175,
        -0.8630438211457202,
        0.19199801967820304,
        0.3212909381309374,
        -1.5451072524765042,
        0.6266239604917371,
        1.6977023094674015,
        -1.587736339809336,
        0.06204890063352213,
        -1.342721967476172,
        -1.664548903980958,
        1.1322511180940442,
        0.9607823018745765,
        0.8939108167192771,
        2.125458182202804,
        1.853611101980576,
        3.160290013618166,
        2.4835017207866885,
        4.48067154962378,
        0.5673875729399086,
        -2.2211893736062644,
        1.242380811438806,
        -1.0569764469450278,
        0.3911797513386211,
        -0.13172100777646076,
        1.2176360270773139,
        -0.3081713876458551,
        0.6211426639915314,
        0.03050161490446452,
        3.1402450996977356,
        0.15817301574039033,
        0.808687783340877,
        0.6680918916373776,
        -0.38903191281133653,
        0.5402646922537337,
        -0.9177644722938035,
        1.0328634560126417,
        0.30884269008420806,
        0.19568295090545434,
        1.0263317549165072,
        1.5297339960599305,
        2.167060419644889,
        1.0130721623190113,
        2.722980815196891,
        1.1147878250906231,
        2.3308722701842446,
        3.9886662351348305,
        0.7125298518482327,
        -0.7946318228628038,
        1.1306935398934472,
        0.97381749292177,
        0.7520871085220107,
        0.9342167816222577,
        2.1390213391311788,
        0.9627839163594767,
        0.7736639293960976,
        2.912190866952775,
        1.0057761222259134,
        1.3464582488301642,
        -1.7279488842085775,
        0.12400913407706649,
        -0.45556488220836067,
        -0.7303775365520562,
        0.6802942544620356,
        0.005735773732444302,
        -0.8619624330307186,
        -0.8595298444479224,
        1.3576480570331102,
        2.015564964623226,
        1.1124425853559645,
        1.9737027344119271,
        1.6015320394036083,
        0.6877511109982818,
        -0.3184905410038139,
        1.6311083790892478,
        1.9056145799275708,
        -0.2030024172880606,
        0.23463191262004365,
        0.8601557560877872,
        -0.9497683128493288,
        -0.23097677780579062,
        0.5577470973434401,
        0.8789563910556355,
        1.1444163951496005,
        1.7888657780297985,
        -0.26775562280987664,
        0.2040545142301351,
        0.5322939828299581,
        -0.0005839195899592103,
        2.027250998775853,
        -0.13144783253458747,
        -0.7801273225014099,
        -1.8700541119592524,
        -0.4370136418924443,
        0.5710741675230936,
        1.264489047835937,
        1.75914968196531,
        0.11277024859453462,
        1.4029848672868692,
        -0.5590641431430199,
        -0.08648793261459956,
        -0.24518211873518214,
        1.724991731417271,
        1.4899355914190742,
        0.8835957543652141,
        3.6686878671397527,
        0.6844280832548472,
        3.4104431626697926,
        1.207733317444813,
        1.0641277980915647,
        1.5933420396911375,
        0.32049857656246,
        0.126710608866097,
        2.482353381567959,
        1.3623804501994783,
        2.1917828623697755,
        0.8177476886768392,
        -1.155525068742768,
        0.2643170580087302,
        0.5922943012872023,
        -0.9878055215041737,
        2.4505962233529486,
        -0.09466638065375109,
        2.2066582368621974,
        1.3681025280477424,
        0.8961690147601191,
        1.9297097963473164,
        0.3346839999191934,
        0.9340891530942812,
        0.4104372195986804,
        -1.0590093821097661,
        0.24236878235573345,
        0.5307212950440447,
        1.297286885894491,
        0.8862243648239806,
        -0.16839514377350354,
        1.9529410494169135,
        1.0898595929740058,
        1.9850509523469955,
        3.4232805993193716,
        -0.007035072631734145,
        -0.013117086278868883,
        -0.22646022642125627,
        -1.041560707697706,
        1.0503579793645916,
        -1.6998084873018569,
        0.8231416904926343,
        -0.5838511240569484,
        -0.12019687838428543,
        -2.2156774920280236,
        0.45578238885772304,
        -0.4028750718658691,
        1.1709383779542393,
        0.7037647489358081,
        1.1375056503056409,
        -0.3856321283249938,
        -0.7979442133097587,
        0.36433011245501556,
        2.2314616100182834,
        -0.1829268364651799,
        0.38773484774345635,
        0.47883358622955685,
        1.1275905071838621,
        1.4427000696287793,
        0.13882803081250103,
        0.4167877088541759,
        -0.3474701349148424,
        0.14242602876101598,
        -0.6988959347461446,
        -0.308960637871202,
        2.771896333568206,
        0.4083613990698461,
        -1.6864555972686919,
        -1.179553014518361,
        -0.18961994380840344,
        -0.18726896914808228,
        -0.5605084658747276,
        -0.9975204348355181,
        0.3774033192660026,
        -0.5261249721830322,
        0.42129242310881576,
        0.37491893875600024,
        0.9018271439458964,
        -1.1917823491306503,
        0.19010930751303814,
        0.22232356599121963,
        -0.9872244325549162,
        -0.07749514178301976,
        1.0339482631400974,
        0.8734996534038008,
        0.4544507569741498,
        -0.07114277820600211,
        1.156048506922094,
        -2.103579809597372,
        1.3408549166101666,
        0.47182273655537993,
        0.6842164028038129,
        -0.9718156656181695,
        -2.8172965894929503,
        1.1851572665216312,
        0.5637155376045357,
        0.4895502504151449,
        -0.08550480476675743,
        0.7367060566103093,
        1.1168798837689213,
        1.4344318890742165,
        0.43071144646273174,
        0.1402414789084984,
        -0.030417658569974467,
        -1.6337092517569116,
        0.39979081037207614,
        -1.0268901524541207,
        -0.6140788625830955,
        0.8182894860195462,
        1.5924941059310906,
        1.0389011699412853,
        -0.33951129814962827,
        -0.5586424538907935,
        0.563955306612669,
        0.22063996678949524,
        0.5690193019515868,
        -3.0562141324833547,
        -1.0126618702573942,
        -1.4887175146547018,
        -0.7627041188078452,
        -1.219021810610468,
        -0.5878331143041741,
        -0.1678469324115858,
        0.893369348607837,
        -2.1565329569505485,
        0.4723696286014717,
        -0.053982624053952384,
        0.5134272853070506,
        1.740686380372732,
        -1.187732639058171,
        0.4858750376005391,
        -0.9153579216041371,
        -2.5350082070826137,
        -1.6414087634374728,
        -0.6623472930967956,
        0.7688634727856135,
        1.3143870220933613,
        0.4654140206786043,
        1.1717895792767243,
        0.01480082903248603,
        -1.2089074116346599,
        -0.5138582651234769,
        -1.682060267441411,
        -0.08860621078337286,
        -0.5320142733271143,
        0.564727452016678,
        -0.5905376194660887,
        -1.0440456256241546,
        0.2594427847329681,
        0.08216310214995722,
        -1.1859949889834802,
        0.28844360391423246,
        -1.7016339692352709,
        0.3109931313132208,
        -1.026639928320765,
        0.311278286434237,
        -1.3757547053701593,
        -0.6608241364648381,
        -0.3844040042593503,
        -0.455101900649494,
        -1.2356697717978777,
        -0.49319436256334837,
        -0.28368233940950444,
        -1.5622497929122074,
        -1.72757960829059,
        -1.076019347582064,
        -2.1250659211783733,
        -2.3951419098697113,
        0.7997389607660224,
        -1.342975734219462,
        -2.0144239163226225,
        -0.7231323038172066,
        -0.8007077442984291,
        -1.073211827080392,
        -1.6946649034429035,
        -1.0777023578566876,
        -0.7951678809304003,
        2.218846692810696,
        -0.5007544832625774,
        -0.18912500312771627,
        0.613923608851007,
        -2.3847845037574795,
        1.2623941310192643,
        0.9592983829756183,
        0.44747109104409527,
        -0.041479122072696654,
        -1.734162020233723,
        -2.351884909518198,
        -1.4513608321017017,
        -0.8987645522863852,
        -1.472056844644848,
        0.7104834875289265,
        -1.3878230252088823,
        -2.028500978527867,
        -2.190431279123333,
        -0.7651428065138741,
        -2.1064830401754944,
        -0.8596996989178288,
        -1.3389761131256697,
        -0.31062007495341964,
        -1.2467041666797825,
        -2.240398848016602,
        -0.47375397330382557,
        -1.065781979769704,
        -1.3272478031202717,
        -1.2296464128683235,
        -0.014861455072644005,
        -0.24747692231690308,
        1.3086046287001352,
        0.6283078923691731,
        0.3812842292350889,
        0.8415521465430357,
        -0.8191247203519066,
        1.990891292968012,
        -0.049966559444280675,
        -0.6435248547252231,
        0.013838425371969386,
        -3.2532152152190363,
        -0.25187961278749577,
        -1.9681505834703845,
        -0.3224398029827907,
        -0.594351792076937,
        -0.16871535972664328,
        -0.4850288670640542,
        0.242520591898248,
        -0.713612499662498,
        0.7093166972347404,
        -1.293704953453258,
        -1.2844699874919512,
        -0.9433001828382804,
        -1.2587059414655493,
        -0.23965285881041024,
        0.3157894965462279,
        -1.7614757118257929,
        -1.4368110125597917,
        0.6200378982667669,
        -1.6267493081768456,
        -2.698364080265518,
        0.023792120473145578,
        -0.4981712999850314,
        -1.487131300558496,
        1.374258604491717,
        -0.11701048331757545,
        0.5211939148490355,
        -0.9051752918746656,
        -2.640946546499748,
        -1.8434295669357774,
        -1.9715532981020385,
        -2.141255776917688,
        -0.7245320790203932,
        -2.345837895688635,
        -1.7340389279359802,
        -1.8929381804410006,
        -0.6985990746460488,
        -0.29315484466652686,
        -1.9460315961318442,
        -0.7942693180581115,
        -0.7206841550893709,
        0.1270266315338977,
        -1.165339576920358,
        0.33636393368433654,
        -0.5906454870460989,
        -2.1777118141553027,
        -0.8252420871359435,
        -0.2776298703766925,
        -1.3828938583519308,
        -0.8838881969785495,
        -0.2593844469413602,
        1.1850498285353934,
        -2.926684683527365,
        0.16043013450059979,
        -1.3396541087112803,
        -0.9968582584775559,
        -0.7055656994898303,
        -2.1205858640232758,
        -0.5652561603997912,
        -0.5819066176973926,
        -2.7581870391149157,
        -1.938203127214081,
        -2.5058292341677646,
        -2.3648817833648117,
        -0.15502493969992248,
        -2.6176274972732148,
        -0.6513317807411955,
        -0.9461363259413591,
        -1.8890634787613565,
        0.7148135873435724,
        -1.0874099475768724,
        0.24076388121597386,
        0.3426186707835943,
        -0.21097859005663883,
        -0.6224482841927217,
        0.6014742346987663,
        -0.032322595799887825,
        -0.7792047852661692,
        -0.2733157469050158,
        -1.0424082844511056,
        -1.3318539249796881,
        1.1941530974180299,
        -0.9017540892332492,
        -0.8578038853030081,
        -0.8395233090121894,
        -0.1701686499431067,
        0.7416940071662796,
        -0.15851568899625715,
        -0.6082779788828838,
        -0.32985420190920206,
        -1.080127136542752,
        -0.46687748721648675,
        -2.3663452931783007,
        -0.8106528150675394,
        1.473383609807981,
        -0.6986209874272039,
        0.1042038089362633,
        0.6218511792249503,
        0.7219967980248917,
        -1.1058165699372846,
        -0.09191573302075187,
        -1.607620413447501,
        1.0047693148362404,
        -0.6966804547741877
      ],
      [
        -0.8549728779198503,
        -0.01273118937562465,
        0.897395798290544,
        0.8599070738500565,
        -0.5801899457031864,
        0.9986570723698289,
        0.334907929472659,
        0.07972898141602948,
        -0.5238976651129289,
        0.5491986563076622,
        1.210803598031964,
        1.5806864563073584,
        -0.8086254437672084,
        -0.12131980378945884,
        -0.8051431398152898,
        1.0963783571319548,
        0.3001492049791126,
        0.29391461919820716,
        -0.1496889294251826,
        0.3139339929802426,
        0.6980870330226132,
        -0.49622226928655055,
        -0.05301352864340738,
        -0.9652503513794991,
        -1.3105452754180384,
        -1.289784046015766,
        0.021840163432545533,
        -0.3754263692361456,
        -0.11169393534271517,
        -0.8225422482663836,
        -0.10192467654246364,
        -0.9730394956643731,
        0.46417490153821633,
        0.0177957587374912,
        -0.35285070542778063,
        0.4003003623393352,
        0.39051811212525617,
        0.9852467619803733,
        -0.9685823352320265,
        1.029734497703611,
        -0.9090159888862516,
        -1.8563117241479814,
        1.039194665623006,
        -0.45091301273511564,
        0.4587526525979973,
        -0.3252341413717351,
        0.6216322883184827,
        0.8124927462270748,
        -0.3969676266761049,
        -0.7805760769368351,
        -0.15947434757841614,
        -0.3031354248139249,
        0.15554888156867056,
        -1.1470501201489465,
        0.5805153170693241,
        -0.4447448534299578,
        0.1259003868617775,
        -0.46240747418418326,
        -1.8230309492548447,
        0.07090110546717798,
        -0.02818359681177086,
        1.253951704815293,
        0.856855880090313,
        -1.5107934658142537,
        -0.8485192412801194,
        0.7536983506878231,
        0.6121047326792011,
        2.135588271215287,
        -0.17370459330222757,
        -0.548318603260573,
        1.9955461997845754,
        0.7150416104417916,
        2.3966053852900857,
        -0.06704025467738738,
        0.22666859193466854,
        0.30659967151830664,
        0.7482035206256143,
        1.0054746418954588,
        -0.8199291207020614,
        1.431205916160141,
        0.09169862409568937,
        1.1100770078703508,
        0.38201112066964854,
        -0.9136234172019649,
        0.35959187073781795,
        0.019826651840803323,
        -0.21752718649595523,
        -0.1890057939452931,
        0.7936658146302424,
        -0.09682935740183887,
        0.011212047283792773,
        2.7787529768964196,
        -0.5662479594331885,
        -0.41044893682890704,
        0.15924027856584386,
        -1.6118900628913324,
        -0.4109360269656487,
        1.080549806461806,
        0.6583044788441246,
        1.6304005717559544,
        2.052275987519728,
        -0.15924522034061983,
        1.1196641199837187,
        1.5895202080435553,
        0.4244892181012201,
        1.1199570826783698,
        -1.328334858172207,
        0.34500304696933304,
        -0.4799766315744935,
        0.6786596309173987,
        2.1684369704731585,
        1.0522586562776581,
        0.6886232862201164,
        -1.514803367242001,
        0.833106793794799,
        1.5728284427683366,
        -0.7675935644525769,
        -0.588907480069902,
        0.6264075574210847,
        0.027248206102142698,
        -2.0677414084394523,
        -1.4927152125063163,
        -1.1164467239763471,
        -1.4574152653605792,
        -1.7603991024103596,
        0.6078685361396525,
        1.0767916932507464,
        0.4545643238156874,
        0.22647448811673448,
        1.6828110738944244,
        1.9658986693798552,
        -2.1888616819699798,
        -0.5873288725879036,
        0.24595896278933507,
        0.5964356438795217,
        0.7346030971489481,
        -1.634321197850336,
        1.7145101562333824,
        0.5791788847309384,
        0.37028831606610363,
        0.5088256917223551,
        -0.45231698295842354,
        -0.3130293991989402,
        -0.8241691739951246,
        -0.1916744152120404,
        1.220657521988397,
        -0.948977979209116,
        0.2692211651275164,
        -0.4546970109136312,
        0.5468349110035606,
        -2.1120314110151917,
        1.1647980930244926,
        0.32665993680691796,
        -1.0203983263753935,
        -0.1820974918532488,
        0.7149294518867183,
        0.1890929944386074,
        1.366310080701052,
        -1.4755628424711524,
        -0.9723113997870155,
        0.22390373948151687,
        1.2772799179012098,
        0.512037664630485,
        3.50233979318703,
        0.39979711826858694,
        1.5742069930879334,
        0.52390757721464,
        -0.5122948850119118,
        -0.0468787520160223,
        0.35880903057426966,
        -0.06633651772955645,
        -0.09649645041561782,
        0.35207363062094826,
        0.796442295792167,
        -0.8611167897257811,
        -0.16953104996291465,
        -2.5746895420742772,
        0.13782065614494862,
        -1.5550344777811422,
        -1.3734176715816009,
        -2.0174102084085335,
        0.7063293174679083,
        -0.16176886023424852,
        2.500179023461157,
        2.131788381111484,
        1.0210046990488153,
        0.9205874124310378,
        -1.9547781887351607,
        -0.834857098049373,
        -1.1884647382505178,
        1.481090500823256,
        0.314786946624562,
        0.15367284082258625,
        0.7388878464568025,
        -0.8949246870065813,
        -1.0136692454051959,
        1.5810665138976727,
        1.8253657232760734,
        1.1836708579196813,
        -0.7042894094228247,
        0.5169009563134954,
        -0.9742422789232672,
        -0.26949674617268254,
        -0.7724206246592503,
        0.03464162556919692,
        -2.817271635163007,
        -1.649738167090954,
        -0.8669741765776912,
        0.2652743919373647,
        -1.1972962244408083,
        -0.1393076544606215,
        2.7166118566208213,
        0.9928641655272458,
        -1.683073339650187,
        -1.0784797569092273,
        -0.21023470181308368,
        -1.1809129546495676,
        -0.5805907954796844,
        -0.18851441421464077,
        -0.5146564148156928,
        -0.8662227286534638,
        -0.9253284952578026,
        -1.5500542073714738,
        0.32276546697257286,
        -0.8423326190300607,
        0.6885224304546638,
        0.03932046194715468,
        0.7463033706700062,
        -0.6825276963173703,
        0.7198227245892344,
        -0.1321445546288215,
        -2.587363665736917,
        -0.6692392880203274,
        0.5555419263266089,
        -2.044593421002315,
        -1.9684425114319293,
        0.5028672431556296,
        -0.9373914501091724,
        -0.5564374173853588,
        3.5200448465207756,
        0.6436597114362018,
        -0.3506299866494343,
        -0.2839090034355934,
        -1.8885953982010448,
        -0.13955915054108103,
        2.450225466524492,
        -0.7655755195265097,
        -0.6202583306322379,
        -0.46636882348463243,
        -1.9038463530606806,
        -0.2322878913174479,
        -0.40656728183708146,
        1.5670530454720837,
        0.12524177623771046,
        -2.2146542915009535,
        1.2024960118140704,
        0.7209901675317628,
        -1.99165438855582,
        0.49856874733062057,
        -0.47855854899701955,
        -0.459225947345447,
        0.5987476367318533,
        1.4232828470989491,
        -1.5457358849386396,
        -1.1338256688007238,
        -0.7734147529723586,
        -0.7286877742281449,
        -1.098240817235293,
        -0.5805150074291157,
        -1.2470122341583105,
        -1.3251439869313484,
        -0.4250453030864121,
        0.20731360134515095,
        -0.3159991850568688,
        -0.1987569572670815,
        0.11927579550795614,
        1.276767419896367,
        0.8309270242973288,
        0.6680906411283221,
        -0.09240502105998813,
        0.7404887439620452,
        1.888562596071905,
        0.3641713443955457,
        -0.06452348028726723,
        -0.1776490895629702,
        0.20023573235559583,
        0.8754821415913964,
        -1.102311699854943,
        -0.3353366339664149,
        -0.5626925911339646,
        -0.4022794670524419,
        -0.14516421441437813,
        0.6616521376403893,
        -0.811894864842497,
        0.9606096512506287,
        -0.1785738975910509,
        -1.3328190381576197,
        -0.7129047326966055,
        0.2504769825743623,
        1.1424939037669946,
        -0.7334257335046619,
        0.265984775501506,
        1.569084716494853,
        0.01303867731323967,
        2.4772999787203225,
        -1.7746499885660711,
        -0.6441354287700743,
        1.4231978742667846,
        -1.1354807747333895,
        -0.20701283548816493,
        1.6021815121724166,
        0.7658812001140499,
        -0.46144908235428633,
        0.20051172105726503,
        0.09878902036506788,
        0.3070639874748569,
        0.7813625223252912,
        -1.6085997681000395,
        0.7181747783545532,
        0.8629720095231374,
        -0.05186785227843851,
        0.7221537200476977,
        2.7390364667848695,
        -0.7807204299314294,
        0.18661950536434135,
        -1.063155229664372,
        1.5365625175674176,
        0.5970701963389308,
        -0.37765506480436367,
        0.8783506656481946,
        -1.8804193529762867,
        1.9355866998247742,
        -1.3596568983045052,
        2.019078113692506,
        1.2704697443286002,
        0.27710486713956445,
        1.4060193463317563,
        -0.03304083143030182,
        -1.3559474676552319,
        0.1572751525482639,
        0.44327039242982724,
        0.7413747302951684,
        1.4890242011897772,
        -1.5798650445444242,
        -0.7593386444573729,
        1.562509284066425,
        0.5587686294620692,
        0.47246918497737583,
        1.855275139141807,
        2.9228654779394527,
        2.2402126645079,
        1.9416855725797735,
        -0.23603804873264067,
        0.8682369010259883,
        1.0814293391364964,
        0.872133310557033,
        1.1617599886424057,
        1.350411526364367,
        0.3903416823935978,
        0.40588143245521713,
        0.7505208623024376,
        -1.04824778569626,
        0.9143024065259864,
        0.9960194716808229,
        -0.18871232537318497,
        -0.03713934398283977,
        -0.9000991507372145,
        1.0155038796176736,
        -0.4552923286109318,
        1.924909303848065,
        2.2012280442541177,
        1.3194623105741454,
        2.507296903044437,
        1.5814580736876775,
        1.6259792277273608,
        0.9928972129484975,
        3.6686048285676014,
        2.5349470758603827,
        1.1193058356224657,
        0.012018594021597053,
        0.9392199938102335,
        -1.276606851398073,
        0.9133816088187664,
        1.6800418661852747,
        -0.6067078537822947,
        0.3965521562181363,
        0.44108827652148214,
        0.3853613877765254,
        0.18315369346365631,
        -0.6777913214696802,
        -0.4346994957443866,
        1.8242984100934885,
        0.7340731918785456,
        -0.4820528054139511,
        1.1897634180844379,
        0.8301726116991871,
        0.35826959793898483,
        0.907234225500726,
        2.624137874308068,
        1.9730304586316527,
        6.122814923703195,
        2.1354836980906455,
        2.2717702664161417,
        1.4128288279791936,
        1.0507061864169245,
        -0.3896926406581636,
        1.149580734433509,
        0.5164858486623805,
        0.30880927763599825,
        -1.1384279812407698,
        -0.08065570770575838,
        -1.8055031306387501,
        -1.696488803568421,
        -0.7557798704877993,
        1.014493541540356,
        0.1632798418699797,
        -0.6434560028347847,
        -0.8649854522091425,
        -0.7542867568308911,
        -0.7968542247513114,
        -0.30873860208956155,
        0.1279401199044516,
        0.8874234005513832,
        1.4107743376732587,
        1.1331156217752743,
        1.6001748881182276,
        2.4330620590570584,
        4.0603343641027,
        4.145392595967991,
        1.7755718882332958,
        2.0185819421573012,
        1.817708301997909,
        -2.327708919019226,
        -0.11887601237798003,
        -0.251365440110673,
        0.41402494688342745,
        -0.08649359990707152,
        0.44409501388285294,
        -0.8283016541910296,
        -0.2278050341597626,
        -1.27352835298735,
        0.7978890804054473,
        -0.17749345199682875,
        1.2381047226945505,
        -1.0858208011643573,
        1.0777361176161186,
        -1.1479756768891491,
        -0.05273797109148194,
        -0.12680760992972856,
        -0.30502111754069666,
        1.071005156465749,
        1.9293119861503814,
        0.8551343010932551,
        1.4490394934990256,
        2.2117106601550844,
        0.33009257979197454,
        2.1522127222720004,
        -0.09066432164509301,
        1.0021326370564727,
        -0.020843933211848527,
        -0.47083039546230915,
        -1.8576231962490628,
        -0.05541944402142873,
        -0.4923091090189223,
        2.915820526687083,
        -1.2878264967504838,
        -0.5019298057133945,
        0.3474319173081354,
        -1.4005623600947656,
        0.82442067112033,
        1.2148494146705773,
        -0.8048749162556086,
        -0.04241270874616325,
        0.6345444606728741,
        -0.17901932788610123,
        0.3184169141493834,
        2.1494304445958274,
        0.8251453248316403,
        -0.7664292890819905,
        -0.2467145167969362,
        0.8062607194417014,
        0.35282836958540686,
        1.8975666749486768,
        -0.14011417752613747,
        -0.17520264517062234,
        -1.5449089831474092,
        0.7291163957264267,
        -1.862434048269281,
        -1.5278167288986202,
        -0.7068422921663943,
        -1.1454506404587168,
        -0.15081346208258975,
        -0.08067821713043764,
        1.2377499329095136,
        0.18990902410042582,
        1.3248116780719452,
        2.5892366511938585,
        -0.8188135869573042,
        -1.1115774306465416,
        -0.7172698303437777,
        -0.5975125871425702,
        1.6164124615315305,
        1.2041835784809414,
        2.3506333187391033,
        -0.9796900946547723,
        0.11812505053441735,
        -0.24938279768648974,
        0.9792232169202804,
        0.13089298400717314,
        1.4094302723909669,
        -1.3028145188633093,
        -0.40180995973396594,
        1.019771055784937,
        -0.44821733614600284,
        -0.1691508585169391,
        -0.5114856305077641,
        -0.8384779713218733,
        -2.083033291117379,
        -2.227801039334696,
        0.38140001736129864,
        0.45622015000241994,
        -0.5353615229508677,
        0.7600052346370644,
        1.9762113067829659,
        -0.5251979681622677,
        1.6457659671597349,
        1.41472809904001,
        -1.6492458928827305,
        -1.5814260445293231,
        -0.8553407043418532,
        1.3239541451143182,
        -0.5837976441984282,
        0.2949636809450645,
        -1.7118972100022163,
        0.3567306393270962,
        -0.19844256234265678,
        0.9577630558861276,
        -0.416621582935149,
        0.35509833647925115,
        -1.3533956617320304,
        0.7596578866312342,
        -1.2025014665110594,
        -2.415300160524913,
        -1.2953839102335252,
        -0.7738713227096664,
        -0.4350896694609481,
        -2.787545157035533,
        -0.8554154804045913,
        0.9752279235319293,
        1.279253369171206,
        0.7502869075900872,
        2.5353219420641446,
        1.3962769328847529,
        2.298724020671682,
        0.4684632435252733,
        -2.464861277048801,
        -1.6537217246605629,
        -1.329271099685149,
        -1.8914991781427584,
        -0.12617061796175888,
        1.059202633574703,
        0.7110961185714394,
        -0.5597902707710687,
        0.18334439991032428,
        -0.466664914954708,
        0.8217698043449992,
        -0.17888724149324228,
        1.5151939450114542,
        -1.4348942769455006,
        -0.9134514697220621,
        -1.0988754432488006,
        -0.19573782841104595,
        0.25216827574728545,
        0.5708109469504444,
        0.4301822562767113,
        0.10629625257057913,
        -1.0289507293794622,
        -0.4625165201711584,
        2.1151967717822697,
        2.325903927535662,
        -0.35171271315118713,
        1.6149246637944594,
        -0.7465875572196523,
        -0.803372378094823,
        0.46045862515793007,
        0.37494884600703693,
        1.1214720027808804,
        -0.06903700013207653,
        -0.3500571400187867,
        -0.5395697356604585,
        -0.14828165336780602,
        0.45252240539093636,
        -0.3715603169953585,
        0.5911275387025952,
        -0.3051630152264319,
        0.9130243495024584,
        0.5563342350999367,
        -0.8829737926059215,
        0.20492543510295586,
        -1.0804935206145814,
        0.45138690107665314,
        0.7696433873882508,
        -1.1459550794077495,
        0.050304903385801465,
        -0.44196580276622455,
        0.5357491335744781,
        1.8813273184868085,
        1.566071901710818,
        0.8375257289383131,
        -1.035055007278862,
        0.008812928737838613,
        -1.948518738937154,
        0.024181958736438008,
        -0.5322662255357018,
        0.5512610545472593,
        0.15740012054742333,
        0.42312229271705537,
        0.9209331652889862,
        -1.0509375955387228,
        1.0311353536933836,
        -0.3299559036343556,
        -1.8417087364200173,
        -0.2019890854068538,
        -1.1831718334327828,
        -1.5339456085837917,
        1.5056195758221076,
        -0.4962299785736332,
        0.735108650493772,
        -0.5479687294667023,
        0.5193298891670732,
        0.025743282734154892,
        -1.6832366182225056,
        -0.24641565749484276,
        -0.7049539148500579,
        -0.6509359714791104,
        0.627669255407501,
        1.0182021384622466,
        0.7531475049850923,
        0.04069304143459173,
        -0.6394549008212308,
        0.5358142341721395,
        -0.414949712111282,
        -0.1410624311478756,
        -0.24057893040562292,
        -0.9929397667907559,
        0.19859746655297114,
        0.6929858813780909,
        -1.6458940510977778,
        0.5120122440903458,
        1.1731833060619625,
        2.7137805748400705,
        -0.27429139973107436,
        0.6035137438791693,
        -1.3981574145607019,
        -0.40322636811877544,
        0.10591198754530919,
        -0.5049500584328185,
        2.0389164452647806,
        -2.2672631833630676,
        1.8189993061509129,
        -0.03878105058254962,
        0.49570545154443957,
        0.3456175833341979,
        1.768053828318473,
        0.11064718352687375,
        1.5602278365065072,
        -0.22911548864711206,
        -0.8830652692995722,
        -0.475636951718286,
        0.25827475321001936,
        0.17411145685873414,
        0.6948159414028013,
        0.21954093313163017,
        0.9515763208188602,
        0.030434921559667396,
        1.3330375544660509,
        -0.0608390128757309,
        -1.2430570824483844,
        -0.38705635556978074,
        0.3508236443966102,
        1.112637074757166,
        1.1269530956331373,
        -0.43990139503206294,
        -1.7452806864157868,
        1.0647282129380131,
        -2.088706321327355,
        -0.4240250488676467,
        1.134040935613218,
        -0.9929873516050257,
        -0.41709035871155525,
        -0.4612354418509109,
        0.39668220947720606,
        -0.5090147851578607,
        -0.2557636386790112,
        0.26595454339864966,
        0.06020918327625891,
        0.6040032846803483,
        0.8163725352319006,
        0.14369989427122237,
        -0.7122504603733808,
        -0.9531420963368866,
        -1.0691452389344718,
        1.6689419921129762,
        -0.2984952877667826,
        0.027335727811270878,
        2.0079882572588357,
        0.2368009025914566,
        -1.0449140062743296,
        -0.05257030135105148,
        -0.23915259591896004,
        -0.5555957353390275,
        -1.0536517293891718,
        -1.361911942158818,
        1.518079917898927,
        0.9584854901771723,
        -1.414186965198685,
        -1.2365107597084808,
        -0.9280596976119619,
        0.37405140910034196,
        1.1443222108227225,
        2.1116125367114296,
        -0.24504584505051252,
        0.7758863182915965,
        -1.2125187186550423,
        0.2265377070773761,
        0.9288789426056342,
        0.904295308966673,
        0.8678959916082172,
        0.2737668892049051,
        1.176723790846587,
        -0.3209880353008876,
        0.8274545273001872,
        -1.408897266803991,
        1.2781633197372038,
        -0.3143961241446961,
        -0.6536553637532715,
        0.6224112458726516,
        -1.4623277661078085,
        1.8336432857058573,
        -0.6060423614671316,
        -0.1633132893673426,
        1.1645888218211635,
        -0.8246188681427356,
        -1.565600674833169,
        0.43184546720197853,
        0.8936695392646677,
        1.6491935495581822,
        -0.7520195922527598,
        -1.4489809189450231,
        -1.7770302684573573,
        0.4902562423127325,
        0.5797224779386502,
        1.237192592130608,
        -0.009577769576904534,
        -0.8911656319777391,
        0.6543927145488936,
        -0.24223292063918317,
        -0.0716500629142491,
        0.15438584821182452,
        0.18797257270509132,
        -1.874558872543922,
        1.293994173521326,
        0.2387566615908707,
        0.3869905524477225,
        -0.2769874305561099,
        -1.895462650086453,
        -1.7295225739250284,
        -2.146282774783522,
        0.06513062280851792,
        0.31054344944405304,
        1.3035588981493458,
        -0.8593195360669478,
        1.1131660247359452,
        0.8388146953069194,
        -0.7323955023534724,
        -0.08132646482848453,
        0.7841866272044636,
        0.6278710400597044,
        0.9984911218238478,
        0.06506777925046395,
        0.44586331019844544,
        -0.999318365399066,
        0.21387602818144832,
        -0.16829445055093098
      ],
      [
        0.4931444614514827,
        0.11227261093927901,
        1.7130211924688836,
        -0.08799634421900752,
        -0.8450907422003965,
        0.39618040779693103,
        -1.0595135588882878,
        0.3260595617321534,
        -0.16932927448789312,
        0.9503645025809878,
        1.3446168691388674,
        0.4870136494508462,
        1.1531065253385149,
        1.2852697452507966,
        -0.06043936876961344,
        -0.2392446609717795,
        0.03009211103909019,
        -2.2616316317429406,
        0.6421788273561123,
        0.31214098575171223,
        -1.0994377532024862,
        1.4427884692139816,
        -2.5752904769271914,
        -0.6224203775751028,
        1.9961057804161026,
        -0.17703628102433533,
        0.09294352451279952,
        1.646536348157484,
        -1.1476093723354401,
        -0.36616571942686754,
        1.1720790041927747,
        1.5053541871788163,
        0.26241441842661295,
        -1.011909305852347,
        0.7216994235767576,
        0.6019535718081911,
        -0.7740589950317975,
        -0.5129455293877975,
        -0.16796064966171548,
        0.3485853958756904,
        0.8798509244096017,
        -0.3732693437108863,
        -1.177538047829222,
        0.3296034555004129,
        -1.4542614935253095,
        -0.5517120052404632,
        -0.3968513614368143,
        1.1707987208648285,
        0.5179871705825216,
        1.2314288698826488,
        0.648681607293574,
        -0.8333073237881812,
        0.7992197459207263,
        -1.0630996016047476,
        -2.014934086257791,
        -1.1245185091452745,
        -1.4664637065841502,
        -0.12833890773590384,
        1.0465768478240844,
        0.25781298192110497,
        0.41239092623533313,
        0.8838311078424573,
        -1.208006121887601,
        -1.872140797908195,
        -1.898402521135008,
        -0.4163395209934057,
        -1.744031645780329,
        -0.925110963762485,
        0.9852166315866862,
        0.3509653124448197,
        -0.16289603597099583,
        -1.4091378641114756,
        -0.283783430456956,
        0.8418045057208299,
        1.399849430628219,
        -0.2633590653500847,
        0.07544889853624906,
        -1.5612197829979644,
        -1.1619475609223342,
        0.19093736929034275,
        0.12192410640291042,
        0.11325671477521522,
        -0.04533766655382362,
        0.13252028229946744,
        0.8833653090447706,
        0.3352768993423007,
        0.7033768035091941,
        -0.7127581049982991,
        -0.20698468594850214,
        -0.5856899586055275,
        -0.22589891056057718,
        -1.763061658439587,
        0.7955103966571637,
        -1.6351105125715455,
        0.5429953261504282,
        -1.4271527407490956,
        -0.7976826435118854,
        0.149658394974283,
        -0.9620826317733304,
        0.21956353485050875,
        0.3630684269339728,
        -0.8563236638175281,
        -0.7968040543926811,
        -1.039763706213811,
        -0.9904321564136479,
        0.2719778194933602,
        0.22294686626013377,
        -1.1117023985508845,
        1.3065884553624845,
        -0.22576611417309442,
        -1.2608252033467344,
        0.6346677606170644,
        0.006158910391580968,
        -0.4094972872675962,
        -0.9635174355465247,
        0.2033897496183788,
        -0.7153932141674438,
        -1.2282546812349664,
        -0.012067649381018768,
        1.5096933226599734,
        2.335900790194554,
        0.43284600627412206,
        0.005104522663143487,
        2.133308113743102,
        0.2741692987236887,
        0.9295695032394599,
        -0.02716921509954474,
        -1.605265588582634,
        -0.10506921736702088,
        0.8547433388242589,
        -0.2334465659059709,
        -0.5229937346747701,
        -2.154532591751869,
        -1.0017755686081256,
        -0.7673770965936795,
        1.2497586761870454,
        -2.702917927297271,
        0.011662525790164167,
        0.885876291779535,
        0.6108339557863552,
        -0.18301204502460433,
        0.8386661061021667,
        -0.3450893054107777,
        -0.2884700987112056,
        0.8945315740467101,
        -1.5717707020023153,
        2.139979787343564,
        1.4370503315648473,
        -1.8563946712692914,
        0.532979891087196,
        0.028378713751859932,
        1.3803337361401713,
        0.0008739749554493487,
        0.26161173250915765,
        1.7915438991395176,
        0.09038288201845687,
        -0.7966294384860492,
        1.518136207416711,
        0.6542808263097007,
        -0.2677470352726124,
        -1.537989747146702,
        2.126338020004155,
        -0.34637238260403164,
        -0.1250223860492741,
        1.4002281151501295,
        0.12099022558405821,
        0.5796627854400869,
        -0.14720122232000357,
        -0.9404041320452513,
        0.5904236210037185,
        0.2380588381781064,
        -0.1355507972213978,
        1.1523515015533623,
        -1.38633285249901,
        0.8078026957712778,
        1.2555718028120004,
        0.8007266015923264,
        -0.5149185633342576,
        0.7766494383733221,
        0.9178425098838218,
        -0.01067861657586758,
        1.6255186626017217,
        1.516836673880619,
        -1.6078034318157048,
        0.27651873504549707,
        -0.15359490027651704,
        0.4107473862925223,
        -0.08033053225087193,
        1.5908077247415913,
        0.7674096802044718,
        0.4291603650079876,
        -0.10696818029828004,
        0.6078408764496234,
        2.377469727520256,
        2.129605464991225,
        1.2767101491355706,
        0.3704834239602818,
        -0.527232746992725,
        -1.6132536752870403,
        -0.3997954422793166,
        -0.8240797454879527,
        -0.11776301811551412,
        -1.3253899542769685,
        -0.4241417033634062,
        0.05069594785539247,
        -0.9138877034783198,
        -0.4895078870662286,
        -0.12382077460533314,
        0.24454743579247734,
        1.3041208024229352,
        0.8438630790133521,
        0.33729119612968567,
        0.7000308384485376,
        -0.5437998392816178,
        0.19667008302641328,
        -1.3653416015923727,
        0.3051955139730785,
        -0.06036284667482106,
        -0.560498131968254,
        1.7396598504678573,
        1.0340314924733132,
        0.8082184830151757,
        -0.8028699143254738,
        0.9338729778286865,
        1.6226194369747504,
        1.204236967576547,
        -0.5507253778701637,
        -1.8826456647111058,
        -0.5984801147624639,
        -1.557638465320534,
        0.6242517000122701,
        -1.5353679054200988,
        1.150185407036361,
        -0.9875340317103164,
        1.0929406065766603,
        -0.9104424578861392,
        0.17383304913003525,
        -0.9171775218550045,
        0.24981265957621682,
        -0.13418990328497507,
        1.6074480316142468,
        2.2559991323738067,
        1.9437287946726556,
        -0.5975006511629626,
        0.8383876573522135,
        -0.09420062899204934,
        0.6394793852941988,
        1.172675164486953,
        0.7155172937342424,
        2.045192265982,
        -0.522969216461486,
        -1.0580466729049374,
        -0.4070396403792138,
        -1.0278106378397978,
        0.4819329425882656,
        -0.14918579303537377,
        -2.350456208294021,
        0.6677458540924327,
        0.3287146862818452,
        -0.6871939620808261,
        0.19313494081809526,
        -1.3838854036651564,
        0.7991634701050141,
        -0.18335698413056042,
        0.34220613110217574,
        -1.333466091543759,
        0.7311950330070083,
        1.3634793077282736,
        -0.3509171935213202,
        -1.9174264798631613,
        0.43317541139272847,
        0.7369261930668912,
        1.4020186382438233,
        -0.314888083108284,
        -0.4776859422973284,
        1.442380687441056,
        0.5521104724124387,
        2.272779427649117,
        1.2119608493775866,
        -0.5447152221473389,
        -0.3843735748144162,
        -1.9040444271653476,
        -0.6094698704055995,
        1.2569263258535486,
        -0.400724158943951,
        -0.33626847149474337,
        1.508387306563332,
        -0.9342346226137855,
        -0.5748313805448553,
        -0.517964039660385,
        -0.5939114813578331,
        1.18581267101905,
        0.2733412814486445,
        3.1642408330288614,
        -0.9091018229132866,
        -1.2527019888543818,
