(()=>{"use strict";(()=>{const t=function(t,e){let n=[];for(let o=0;o<t.length;o++){n[o]=[];for(let i=0;i<e[0].length;i++){let s=0;for(let n=0;n<t[0].length;n++)s+=t[o][n]*e[n][i];n[o][i]=s}}return n},e=function(t,e){let n=[];for(let o=0;o<t.length;o++){n[o]=[];for(let i=0;i<e[0].length;i++)n[o][i]=t[o][i]+e[o][i]}return n};class n{constructor(t){this.sizes=t.sizes,this.num_layers=t.num_layers,this.biases=t.biases,this.weights=t.weights}feedforward(o){let i=o;for(let o=0;o<this.biases.length;o++){const s=this.weights[o],h=this.biases[o];i=n.sigmoid(e(t(s,i),h))}return i}static sigmoid(t){return"object"==typeof t?t.map((t=>n.sigmoid(t))):1/(1+Math.exp(-t))}}const o=JSON.parse('{"num_layers":3,"sizes":[784,50,10],"biases":[[[-1.6929062098936603],[-2.250366442974732],[0.40003628799374963],[-2.690383684839661],[-0.607900495171452],[1.1794301178344222],[1.387276589707095],[2.38271002143585],[-2.7177714029123012],[-1.592705629712498],[1.0546328077993696],[0.3765214034326275],[0.3436262860678842],[0.42768672900697163],[-1.155947754567229],[1.9784034503345937],[2.3322957538409455],[-4.023997943354114],[-1.2460250858235673],[0.506809589572706],[0.8040170957303793],[2.1438362342633868],[3.406291704739376],[-0.5291015511472481],[2.2261101484631265],[1.4192727569990111],[0.9130267118470624],[2.03864992639325],[2.756017848697169],[2.8799017637472044],[1.3738391793797065],[-2.8627864404334153],[-0.33928946078386996],[-0.4468826054686562],[2.265164953540488],[-1.4483965747753045],[-0.6446618958761591],[-1.375758600388802],[-0.2774428163998942],[1.6230218526946734],[-2.467256914141207],[0.5135513028111898],[1.5279852570124155],[-1.628329383277756],[-3.875693690302487],[-3.257037850937683],[-0.37802802846944006],[0.9613850302872384],[-1.2414130764956672],[0.49425221141888753]],[[-2.9290171620588974],[-2.3916730429350723],[-0.9562387149967876],[-0.6378153884533576],[-2.6519160148719987],[-0.02133587282868092],[-2.917523578311481],[-2.143887261995459],[-6.05129815130647],[-2.229214937544964]]],"weights":[[[-0.4005747627635239,0.13261627392716616,-1.3262006384541862,0.5376602023070056,1.0664272904607397,-0.636516714883787,0.011822615636284997,-2.385152614506652,1.0531168729019222,-0.13371030225491415,1.1344221485697932,0.011742150646778074,2.5020547426522333,0.8419743237516208,1.3068430435319804,1.2413966187692047,-0.08263841012487994,-0.48540114139892737,1.7975462763408827,-0.8805401569623655,-1.8492825647887072,0.42010422177301243,0.015210354059550017,-0.5090641135760648,-0.19372145677255187,-0.08078796075338389,0.38514362424917964,-1.0533301165002464,-1.0523951914849077,-0.012095092503165204,-0.7129721388257942,-2.293351869674281,1.6290163395873674,1.8999021475637665,-0.47928186734247524,-0.8055453518111692,-0.6994468775969094,-0.9426385928113992,0.4453744501989834,1.621565845097118,-0.7762689894876242,0.672366550520411,0.9039576828715589,-0.1993394788632776,0.807714365524679,-0.5112410011949319,1.4660926494763167,0.6845872904333821,-0.0722295655177639,-1.9280590774317314,0.14898157255006086,-0.31026765910653376,-0.1837231407803776,2.460760602733963,0.1638675622099828,0.6498990438968102,-2.558463790360713,-0.054757729126647385,-0.6272106244333654,0.17201249603513527,-1.1828950585147997,0.37658474145622517,0.8593440258838477,-0.45079995712176,-0.25060699412852144,-0.09606990105837213,-0.7002340018326275,-0.16645909668899161,-0.1169798335849229,1.114847063541973,-1.1624626999546928,-1.0390160307684742,0.7293238818592983,-1.2141122348481734,0.65281745403238,-0.3525961428956393,-0.8108240904758105,-2.3710494496914483,-0.9915918318731105,0.4607302041224343,0.8894570743782501,0.88466386521244,0.2773335980745326,-0.3988223429819183,1.2235340507554104,0.9005221700804577,-1.3563664007701206,0.13027972009173075,0.49001970418189655,2.152192251719631,0.5457354828575375,0.18002698783020415,0.742617150641157,-1.2228850667691968,0.33441626107834854,0.7277523359488125,0.18367736017102684,0.44363049070187277,0.21629353387558836,0.37764385631886466,0.6449523658643316,-0.5818369048804325,1.2855554984681181,1.5054000672333545,-0.10308233390721985,-2.3109789337122826,0.9824319716356106,0.3016454333343342,-0.43651074724523636,-0.48602854202525075,0.6812319595330295,-0.5518883520280033,1.9165858307246257,1.7683397814306026,0.14450293400893618,1.1843379460535834,-1.6062026648829308,0.8595714551008581,-0.2644524157582639,0.2810969419785673,-0.7785081076937798,-1.4240570826897598,-1.2312630955586492,1.2862838951707258,0.23956176157660156,0.6748895953312152,-1.2824822319984883,0.05538231188097988,-0.7033282681216564,0.03611756744441319,-0.95282551741853,-0.9112146962385986,-0.8336744330820491,-0.07689786326255114,1.9442031853911421,-0.16293573266270808,-0.6440669913804705,0.16533159052454377,-0.58014783222912,-0.2299578993628714,0.5808385259283506,0.8545681140617575,-1.5926892769340562,0.7788648523908425,0.09605396327634307,-0.8064976815622904,0.035952251688255006,-2.3952746231238367,0.40743409129482056,-1.3059084527146894,-0.9061764962269174,-0.5458454029932884,-0.7674514777651305,-1.3684381100674008,0.7893199083843546,-0.5018612762252853,-0.019655881461753497,-1.2233921141712818,-0.8034255701243128,-0.9048891732601796,0.5525524112967218,0.4704174870149427,-0.5188862150260648,-0.40464583633631773,0.40484715428499535,0.4028082631119594,-2.6698481717383395,0.7726627685162303,-1.4964050635566681,-0.5033889054558047,0.3138797188008626,0.6424206039322112,0.7107931292802597,-0.533575401120939,0.2632102116794227,-0.47948610380335044,-0.4322824561937319,-0.8219458555896274,-0.9986164669202964,0.356392213000022,-1.9663018070599576,-1.642018035501776,-0.37858539956932863,-1.1186245538930046,-0.22738303812033092,-0.1887219440817763,1.1082110197205135,-0.9333500666892875,1.1163471150195654,0.9268976252418716,-0.636661254477173,0.1505439813319598,-1.1249868482369898,0.33548272989332467,0.9288608505121518,0.7043014609128693,-1.7378694951584164,-0.4331749487124838,1.8658122209347328,1.108931512291915,0.118609815569832,-0.9852998416980981,-2.4493704810919117,-0.9773065670650359,0.3972747771387859,-1.1013985236319006,-1.2737134771597776,-0.6955446339096215,-2.6130261839526683,-0.6118900128964855,-0.638702143913223,-0.5385440813008167,-2.265978308271916,-0.6844200324008611,0.5238652273585105,-0.8333162899510851,-2.3403460542855345,-1.3905862817839207,0.5340795499823286,0.2534050508787932,-0.47392954124968223,-0.9377512197945943,0.22532540071233717,0.7099553284810608,-0.7981281453070453,-0.6273193872357014,-0.639370642836985,-0.6227309941153337,0.8187013360455714,-0.9812239247137327,-0.9319146040306626,-0.055056317610645146,-0.4061083069732689,0.3669423931185382,0.32625408159377023,-2.2173475209270883,-0.16374017524009887,0.49463758602310454,0.04921200519597704,-0.4192919187710976,1.2340668032181286,-0.7601549240833566,-0.9733991088817313,0.45326228360331244,0.737289912483959,-0.21652240881648524,-1.96904139870602,-1.123231526078159,-0.7496444996084474,1.6552515147996847,0.45929994656721446,-1.342107662023183,1.9038053819207335,0.4470785363364556,0.23644654651526084,-1.4182585246207218,-0.13962143851202985,0.4910049898122457,0.6770751483873925,-0.7388741371187296,-1.3629858214026318,0.5754870221583239,0.6102836386961004,-0.408212725437529,-0.6227648937531384,-0.07857006566911708,-1.0264060152550976,-1.8524455694735997,0.42166631362077517,1.2389832328831674,-0.0658807603910261,0.26458275795678854,-1.2925796951015471,1.1953244484629202,-2.5882964050996207,0.556238691375719,0.138636560589396,0.37428522698499367,0.12033689455683251,0.3727597130555081,1.1789237063465143,2.116918442429478,0.2688025873423253,-1.9914954381521164,-0.4558959971130401,-0.14024400553856406,0.8853677207329446,-0.37850947651471095,0.6979113407430111,-0.2572747512261828,-0.6148142277796504,0.6632342009438553,-0.6272304862202107,1.8009485679887915,0.29024362947380544,-0.07102147220498009,2.0822182089037327,-1.180741618631911,-0.01689320301326793,1.5250347102786217,-0.6547244459041812,-0.31592892183282006,-0.49603158343889076,-0.14664437562022092,0.3092860520574657,-0.756962979271618,0.7055974777469193,0.7236030814921185,-1.3579048867248888,-0.002048810379329695,-1.0894576221498913,-0.43711918227197244,0.8451421485918077,0.19836358070851018,1.2369898996445308,-0.706327833051853,-1.3899169849713382,0.0630246279947811,-2.2129648248300717,-0.7521307596056439,0.6390338870968438,-0.022705069521718475,-1.2024340504281978,-0.7581945400586462,-0.18962115064928217,0.5334908256826867,-0.5799392236036077,-1.1547204457080267,-0.27939392436281174,-0.2818510978180355,0.5877863592349162,0.8096714267708247,-0.1341003149819575,-1.9761721691895286,-0.5767024779303751,-0.40507847292183075,-1.104033186623742,0.505117002157675,2.2908779471653093,0.6427225932890973,0.1446807238190322,0.26009556014510476,-0.4599389372891566,0.19903472025918803,1.0156495934560328,1.1703651808929734,0.5587305191765571,2.124186618026709,-0.9855479468126116,-1.2827567215159175,-0.4426284380700749,-0.5432804842557794,-0.4739004859310668,-1.0630545930574566,-0.7270828697341417,0.029446738584357642,0.20464407020753878,0.13927421370070675,0.4454662589724709,0.19802811423994562,-1.5029115119878815,0.15835541656218857,-0.7617466478011782,0.5219016993056054,0.6077004040180294,-0.0994318089286733,0.22244524706936994,0.635425577599156,0.6658292630322722,0.6931054403104793,1.6286542759216316,0.03396612646470427,0.11511956979800404,0.26352533214274604,2.079018543598638,-1.4351021999298967,-0.10936295811392657,0.4015606163900049,2.2339645290241776,-0.07190607074671725,0.4025045617995671,0.27836321893060395,1.2980841373077565,0.3344866932107796,0.8187992383116807,1.3938266742632475,-1.5290699428393502,0.5071279380992344,-0.5092445887246537,-0.39574397103886133,-0.27971528548625835,0.5951348441586612,0.6306126990444013,1.1888333468480206,-0.6378054120215411,1.5360362859737926,0.40151992734540015,0.9806507334023897,-0.21148670844025216,-2.246231422672492,0.7127604993740387,-1.5277357899390556,-0.0007063493412317,-0.3769110462080714,-0.9459318294040922,0.0025478826259264556,-0.875768791740417,-1.9576067900621152,0.3347612505208856,-0.7628997682179902,-0.3153303282687545,0.6332501397679425,-0.4048683778010331,0.3018713949686907,-0.45161141869381066,0.45249886406416817,0.6097749617559655,0.0657204506108398,-0.5937382941825532,-0.18736855527410645,2.264878480819345,-1.21414154407768,0.33420449181607,0.516384515941406,-1.0749390026167895,1.1713453268473597,-0.15205387203841364,-0.620218767014007,0.3512478983079553,0.37743506793227316,-1.261840720356565,-0.47401797353209796,-1.2063863264602357,-0.7563382246076358,-0.06800992102148097,-1.3979959039733252,-1.246479102595881,-1.359358037168782,-0.8050243733887833,0.06094045789536578,1.5316869436943228,0.4603043513675874,0.49583387895429215,0.06096063533590188,0.648210194806918,-0.5107813374318831,0.5253785418292265,-0.5188392571277671,-0.1354754886707678,0.9930007528547763,2.229922118302174,-0.8664537374932936,0.42359323114033254,1.4961135644467827,0.8501666364364983,-0.47651758652181075,1.3261676122877386,-1.5383601586313709,0.8594068366399752,-1.186139038200128,-0.17028295241804436,-1.0405951827235511,0.7504905550147312,0.1273954274199257,0.7574268427302322,-0.5008971930531235,0.6791012652123585,-0.3981715003372351,0.8506074380326292,1.1185994333753106,-1.545121393262386,-0.45289809635410766,-1.0227781847705548,1.1321742119765035,0.2686274640391988,-0.9342594681028084,-0.08318717093137301,-1.609789252201635,0.8225499927187678,0.4174875075829508,0.14528522329998017,0.9414973694256578,0.7700953543332694,-1.873821423201623,0.8528339612463317,0.5243191085795006,1.5256352088057326,0.37207435982976955,-3.045921064437949,-0.8947693193909368,-1.0991555699216882,-0.7714900968235708,-0.16920671185463343,0.8129866554278492,1.50628601491867,-1.7922579430283727,1.051179390376582,0.49134553767314265,-0.15483726625284483,1.8488528215074194,0.5074859113817265,-0.5361193497686972,-1.3576779732269073,0.5420468971793876,-1.099082822402993,1.0504590061931212,-0.07124707832546559,-0.299732780392331,-1.0620489873142347,-0.1138280340667586,-1.324648547133154,-0.30989054725810206,1.8270910555674962,-0.7417901130194479,-0.9818038908601721,0.24079674801463152,2.5315336169525287,-0.38973595083521934,-0.3182162118842489,-0.859266654258301,1.485056152797331,0.9614631253229127,0.13283321085427208,0.3799867567057659,1.605000612931757,-0.14966934066826781,-0.24408784607172992,0.6251356546351378,-0.8252025129537192,-0.28808893050580275,1.2986514496113777,-0.6505952545344169,-0.394358814461329,0.08877719445681499,-0.4563503590049704,-0.3565324450063838,2.2643323030242932,-1.9226584379054745,-0.3698304303540799,0.3044013186157977,-0.16773238881734884,-1.2404270949837992,0.8163703251727169,0.1972487356217476,-0.5647720047851927,-1.1199801709765653,-0.16243112772412047,1.3853776184687183,1.152095564841311,-0.3182122871489346,0.48502765440260764,-0.2845726152266525,0.4112003792522762,-0.569559841877052,-1.6929685136330135,-0.21922924731918642,0.15834661732454064,1.0400757159623308,0.7982101964168278,0.183040843395806,1.3737103318547566,0.12545232294421996,-0.18444664815821987,0.5537208946467816,0.4129545391448042,0.39466102011610604,-0.5407471774474657,0.8043204271038524,-2.0802756737673787,0.02944625964637423,-0.013586888865387508,0.007485455783820837,0.01473294229438611,-0.6848733372765933,-0.3876144484552333,1.3765564884109907,-0.9087741561523353,-0.9997078708284489,0.1058470354183691,-0.9648671701354905,1.3575747639385765,0.4076297541165294,-1.4219876416335973,-0.5460024559200379,-0.07322680139896806,1.0875728230957211,-0.4027977744287882,0.7559541458823833,1.1027785679647726,0.14254322464260327,2.1273397727250516,-0.8911309714296556,-0.35328467708986394,-0.18714100401578876,0.945866569363253,-0.5835085101163661,-1.2967864067126311,1.3572876299573506,0.3186423013053024,1.0151451433465026,-0.8708983353422305,1.755247680639283,-1.162405995267239,0.5956733285880658,-0.5105258364511022,1.0464173538065478,0.1869037748920714,-1.4332433084968461,-1.6412386868325195,0.5490407354695077,0.5876463281789829,-0.7316323736609014,-0.7294921261685993,1.1149364919663747,0.7482188781061001,0.7061776699977507,2.8843649765897927,0.10093162302028598,-0.06835711864085148,0.4349719300634862,-0.40056208524541226,-1.3689057093838057,-0.44882523546481995,0.35984829220422154,1.6850052600608556,-0.318687062985147,-0.7393392045157946,-0.3428366956456248,-0.37689747627628734,0.7530533437316009,0.056381683978545885,0.06703763606073382,-1.5161429082743711,0.9452924721495864,-0.9544530554541144,-1.133793893819879,-0.35946757856524375,-1.8973538080346648,-0.1540855744220785,0.40101668390989786,0.06198472702440484,0.6804553717184896,0.17208667293375193,-1.1552071957937828,-2.0255008514748343,0.5581197384341656,-0.2926125711100335,-0.7298087977925755,-1.1138372882468202,0.4246253130696923,0.4556667555644308,0.9283638162326429,-0.6662087680177159,-0.7113421681307812,-0.3827464014413932,-0.8917695911372132,-0.7674468099202189,-0.7298498217165167,-0.6643647114505756,1.145514000153421,-1.3635070763435493,-0.045498985069207076,-1.2528603778265637,1.1967234200329588,0.32725852444160225,1.159633890677659,-0.5812364839410513,1.005056167275158,1.5092364110114151,0.06307639289287187,-1.6561456913551675,0.9543409303394725,-0.07787688931528827,-0.4446348324879227,-2.095552974185194,0.06591998333836113,-0.4234189270320718,1.5565883770907065,-0.2817329635941913,1.9171254084284173,-1.4574249281663874,0.9068831534379007,-0.5520447811319587,-2.1382873151425676,-0.7570904620632202,0.5645670956522953,-0.2095938229326012,-0.42598019093630873,0.024548423243574834,0.5458516452930863,1.388548531958033,-1.336000048821009,0.8892831463136359,0.807556272595466,-0.2969139076079384,0.34895919187395535,-0.4120998492112003,-0.10404760961438665,0.7554789564968082,1.261475971985523,-0.061054266367587734,-0.3340368131805625,0.49123473551312596,-0.37954869966808935,-1.5419239670843272,1.226381240814861,0.5124502818427167,-0.43760550186542563,-2.1585775665452025,-1.0275087667545213,-0.11540934194741849,-0.9706266368314949,-1.4956849931057852,-0.0005626123629373018,-0.5695406289328627,0.005453982528294474,1.9567546762005275,-0.4618737991790917,1.1774645227887286,-0.39191521761795417,-1.4190419610963165,0.0816281436861774,1.6188929715922087,-0.7604739621491395,-1.210973368766439,-0.5039647164219708,-0.3318210496828705,-0.9205793087349234,-0.08661928946093371,-0.91909769223103,1.6030315219480007,0.26857829690485735,1.0118104065643998,-0.12205954218353025,-0.047233196417469196,0.02560631393312139,-0.3696106288444992,0.6518473302743449,0.41415748707982736,-1.8794138100717392,0.6556920695189813,1.0929062705813601,2.3805230700773876,-0.3449317863016614,-0.47128298606682545,0.088754941671878,0.5510610354393797,-0.968874284382018,-0.6530949186056055,-0.34436996361337074,0.8971140311555744,-2.1873282357447104,-0.5522092339739003,-0.07111923833416771,-0.196491138377768,0.7870836715613427,-0.28548823392173733,0.2843340237079075,1.4709134952684368,-2.5577866660272663,-0.06165515397611876,-2.124165727455642,0.8770609351830968,-0.7405380373690401,0.2836781985080512,-1.745080819951007,-2.144664062796604,1.1335724879314635,-0.4234565916338529,-0.31424182466993655,1.220662759460758,-0.3844171214573342,-1.388959552602033,0.20946604150616113,0.22262087700876246,0.15967909636108382,-0.8014269276095155,0.25599543120297824,1.7303175204958952,0.6708488007642749,-0.24383434116347055,1.8284405573064544,-0.07679323201644037,1.117887590373086],[0.19154721829892382,2.269980001743128,-0.385352230855072,-0.9403175029908079,-0.4512411919897727,-0.45670585145944226,-0.9128395503540355,-0.18106934415434728,-0.7686963295457563,-2.1528447765583443,1.1405375491813998,1.227216260161419,0.3114896859706016,-1.2358752470041092,0.8784625926315497,1.39765723043541,2.1513146341025675,-0.09713431501120486,-1.689847310502981,-1.1606858188021834,-0.5534351144013642,0.46608219512319105,0.42194036722834954,-1.394464954608221,-1.4723678006848309,-0.285885190911462,-0.4354245657982529,0.4387285675658088,0.782551461782416,1.4274431235681562,-1.1988632428316746,-3.3489172723413327,0.7204201708850588,-0.8000038184741929,0.18825045856344,-1.616741297475693,0.16713353509356058,0.6267751232998577,1.1682670517485962,-0.005342782110001855,-1.417309611703307,0.10600908510261307,0.9254851301061606,-1.987052241322195,1.2184018826222422,-0.8380089811179832,-0.6237021014816745,-0.6163962253892653,-0.714130321033002,-1.3927607994471776,-1.1642319408025057,-0.603944037780863,1.4907003127823495,-0.6589175199340416,1.4172320242534897,0.5408245155375516,-0.3815541308561888,-0.3116426598649925,0.6528229421059374,-0.7221368768198767,-1.532344970855531,-0.41645217680536667,0.7263101981746876,0.8990629995644768,-0.9583188208486348,-1.0386184237144098,0.6991317449087459,0.647774885079953,0.17597888445969184,-0.4255549817099405,0.9519765543990242,1.7281092158386437,-1.463168563346406,-0.9977218305994153,0.055877487293677086,-0.0029063376773991005,0.114285736817191,-0.07348130585100326,0.023045665965864534,0.7339808057976588,-0.2145150161176264,-1.0368044127892633,-1.2255706000560773,0.7438271410779362,0.37372189272508277,-0.48672326336233646,-0.538069829685378,2.155411266649358,-1.0731077656064731,-0.41497226143987426,-0.1664149161232735,0.9222264396307649,0.555179420703508,0.25322301744342524,-0.8039880588694271,-0.566649751032672,-0.6506952046184796,-1.554278630487706,-1.2362187121987345,-1.7396990755211785,-0.9095139151082166,-0.3017028883745026,-2.0793307690179805,1.1696588470630944,-1.6022935580827204,1.1073842185833265,-0.5466450759928172,-1.3018846073808892,-0.17294135200899713,-1.8349442372897542,-0.5993156700897024,0.23763625967801152,2.27107640613529,0.7767818284055725,1.5507745732929525,-1.4818724989012972,-2.478144466952253,-1.596945431297934,-0.47353397726216284,1.9701351719990914,0.06332714562949619,1.9685302229652661,-1.1065808247851923,-1.2620799127503746,-2.058632511568096,-0.34586882854576984,0.20768439889288087,-1.2777306340060186,-1.2259923294968815,0.5638118776263185,1.8787190693517233,-0.008519400087445332,-0.2626413669457371,-0.5733867685688047,-0.7907226900369367,1.4835526169255946,0.3517621790716298,0.3943427787934422,-0.28592917100831217,0.7252681824563841,-0.015060789503318064,-0.6792539067685511,1.509886774947645,-0.7449932191839589,-0.326076805861852,-1.1519727983102408,1.5136915493600591,-0.27277656313787835,-0.9887977294057411,0.5152635434138122,-0.1771972425481724,2.5227948901004624,1.0196498550915964,-0.815004272517499,-0.739489925417468,-1.9358107850834354,-2.6951291276479723,0.05275909080586912,0.41715220847915235,-0.3988600788949836,-1.151857895191909,1.5467688236119497,-0.4084280903311409,1.2632214208315036,-0.5159273281019461,0.025200572773593253,-0.25345275508381737,-1.2647011370490628,0.9895403138818987,0.7122743034288921,0.4680871278970554,-0.5045469930223435,-0.2372326299741308,1.232442467906099,1.5963678298077166,1.6701344941547915,0.7656483861516166,0.46634519268385627,0.1311545844716444,-1.5655535383676533,0.9524591184937852,0.5156677669988428,-0.3579313164178574,-2.4474008826485405,-0.31662083255942236,1.9244052982344995,1.5925675283684122,-2.38782475996827,0.07699834502179496,1.1035035679839988,-0.5148205874204388,-1.7441465052683014,0.3222283239377126,1.5769411131773263,-0.3053999475517485,0.5630221633595779,-1.9856525305902524,1.3438506408896542,-0.5914495174591301,-0.5514441935230547,0.45265925399020235,-0.28377644612199104,1.922445271090387,0.8185112523706116,-1.1990990977403095,-0.5606424818258613,1.015081984225196,-0.13311580649926832,-1.0568195537812897,-1.0914239922338684,-0.3150915612336904,-1.5133487330931312,-0.8890808792415487,-0.6720865612753623,1.1469330836402751,0.9612510190260684,1.4961868215138654,0.34320431219953207,0.6374375748971851,1.9251470039977254,0.061494043553735236,-1.2977602460492346,0.13977254564142785,1.9191566666037776,0.22350654265623102,1.6351145232034505,0.6130800215490048,1.1088372170612768,1.126302427184654,-0.21563111641373106,0.5856367482753103,1.363464952884727,1.3851550933376875,1.354684801234423,3.233623273527397,-0.25147698999065843,-0.005719343724084615,-0.6235221980540595,0.43395291669008934,0.5561791287006402,-1.1687405974615588,-0.1410655184965976,1.317273243857217,0.3897822278675539,-0.141498435145362,1.1375687367839828,1.3408743082637236,-0.08054688330588078,1.373642635888468,-0.5872978419138603,-0.27409882030979354,0.6061478350167137,-0.6052919156834867,-0.44065302087783387,1.3563330963295213,0.4766248470388336,0.681380737916347,0.038181136437742555,1.4395127608350262,2.025728495591678,1.5389791185385855,-0.9919077381085691,2.105864221073469,-2.3082062364675564,0.10921780466082674,0.11385810457124479,1.1903957813798416,0.7738190155468607,0.5249457305935502,1.7128765743562686,0.36895125958431974,-0.2735062118788802,0.35878225120888446,-0.6669270270136948,0.014414736501890993,0.524968054028261,1.6464514843139413,0.8404132971609406,0.657914277471071,0.5689748822285433,0.9017188096172373,-0.9385973951657504,-0.05719844075757186,-0.8429790275474502,1.2371654189132544,0.869909182011003,1.0220970564117113,0.3415889418123633,-1.1247349826498723,-0.42021499141616897,1.489122740821878,0.5881124037635604,1.7598368521530536,1.5618646976406234,1.2835398294701805,-0.22490062582791395,1.5890543733009492,1.3893356386732423,0.1743043913040504,1.362260820806289,1.302534533467797,-0.08469466583036024,-0.07306162666330013,0.8031727773320182,0.727590162871261,0.10172906357011159,-0.09679708376374686,2.203165597704787,-1.074722976550885,0.21402715635404726,0.0805035296123274,0.6658100688450431,-2.1201214942690654,0.8440351993642495,1.1959744470742772,0.6476659984101522,-1.0041087056832274,1.884794284656968,0.35192478509175307,-0.49153821765200384,-1.808799383917727,0.5198382291171675,-3.29719084345293,-2.136598638940358,-0.2012832976536002,-0.6663850150550217,0.49436666840821863,0.9418239356504751,1.2077392618866367,0.31415031820622324,-0.8587856260363259,0.30862879023403267,-0.005136148381701593,-1.7281592008685176,0.7253281124961187,0.4330922904946937,1.1890735197148883,0.9602212932718366,-1.065422258310616,-0.4281185698235036,0.5282019025153464,-0.27745774391598776,-1.701139153204083,-0.0978743778918151,0.6908342103023397,0.6283816067753568,-1.7820582140668406,-0.2225443696273662,-0.45521339954406165,-2.713496850675444,-3.0108382741407413,-0.25203468488660286,-0.7916391181994765,0.42759206730097093,-1.814063415192923,-2.3166441761125607,-0.8906923012620029,0.46396948847011515,0.33381259823693743,-1.852420149136222,-0.2589802713687491,0.7901270730952031,-1.2773477765405687,-2.1693347578494557,0.17181531539724,0.6696235831009083,-0.4924370944939405,0.09428255009279952,1.028661638959349,0.8914963293552076,1.3333014315122445,-1.3170657557737406,0.43500395603598935,0.11737501599195632,-0.25486701768541953,-0.5278961235673827,-2.4783945436568295,-2.723261818825065,-1.8752547554557362,-2.2189967998083224,0.20421655287455504,-0.025827896093396165,-2.683800213307379,0.6593820939792877,-1.454297488746811,-0.8190286810782805,0.7359500335553907,-1.3554895008170555,-0.07092874791786855,-0.44959742799878516,-1.570132659267835,-1.6515405418444244,1.0345163271415434,0.3448582101299818,-0.20324706697086994,0.6072264274384946,-1.2129639587217682,-1.5841670719753624,-1.481509402709682,1.0192917464142612,-0.7347225056056088,0.14932484075992078,0.518070604387549,-2.351300218149124,-2.021542506351337,-3.398045147900551,-1.7527811903437003,-1.563078438499539,-0.9821525086660302,1.332025881276701,0.3239084383520791,-0.6893495420591939,0.52828339892504,-0.4586150088949095,-0.4498915737040605,1.4867528614000927,-1.598326734004412,-1.6203278775763132,-1.533334448083965,-1.2098195369385656,-0.08677472381968179,1.0376622009335015,-0.6978436556476172,-1.3194439117932253,0.33794523616972566,-0.9697511479025388,-1.0191195240349171,-0.004449027400318148,-3.0771674255729544,-1.3742760415178386,-1.1540896510148377,-3.8487405229790923,-3.9247156965313796,-1.2296767434447509,-0.09107268887480859,0.3799208129141462,-1.6436425569639832,-1.5138184147861666,0.28212038320585936,-0.7438854844811359,-0.6208664810669517,-0.9358020316467933,-0.7370480569208717,-0.6531663334063775,-1.4792935025819627,-0.7800744870838077,0.539435771136574,-0.4183239240610885,0.822954673860259,0.5668417880609093,1.2447879217053055,-0.012860234150955533,-1.5873412761611112,0.4725903439373816,-1.0987497151304157,-0.9677868701178844,-0.20308838749603564,-2.3829523030388575,-2.6983977663032745,-4.267271652956747,-0.09905572368013517,1.836579404932227,-0.13150177997070966,-0.0743971204257548,0.07466913099573827,-0.6699825887106533,-2.617701238934667,0.9662484037086986,-1.0247151064342404,-0.8977801213577604,-1.8291447072648521,0.7953452118989487,-0.14641436527751567,1.2750640307674146,-0.8846865799233974,-0.8813942458822329,0.907733164717522,-0.3236683848127139,-1.8236336744685557,-0.2449215523350849,-0.8731285257722048,-1.489119138910675,-2.888494194260403,-2.8145414241926825,-3.8561649375656764,-2.6650480754664034,-3.3590906722681995,-0.9074151265027073,-0.6102516375643295,1.8797629371328302,1.7459294057984902,2.280416305644804,1.5507043169250594,0.11677774707763384,-0.39298711102690165,-0.35929806102362255,-1.042410134646072,-1.4770059171608196,-0.8602485774854355,1.471396242785311,-0.3592629520311954,-0.9723749546967664,-1.710504448114168,0.9466762239740137,0.9561167000752916,-0.22666420861724884,-1.0388117281951172,-1.4352891559847714,1.026147153564189,-1.024337937655774,0.39033267683513,-2.3453570524193803,-1.647623423643922,-1.856471147598692,-1.3875116666434884,0.04251941330576096,2.427909109243033,0.7323095482108991,1.2637774281400376,-1.0333862528456979,0.8649752844351059,-0.2429188874616097,0.9417339527214966,0.0393876642982662,1.3406584708441192,1.3162065744810278,-1.5635747572209433,0.7347062458891978,0.4214006566688522,-2.476070063257474,0.016571046370766587,1.4755029282675982,-0.3829347110861341,0.9280580522483449,0.7884207771390543,-0.12104080299761934,0.18022833162991383,-4.590581931911087,-0.5311467119123251,-1.6075275269867795,-1.3941785262951591,0.6951922160481043,-0.25572804513780795,-1.6511107455454908,2.4928416607355395,2.3110711865831446,1.1082975661328458,1.2828065127917723,-1.7327996442171025,0.493699319128556,0.4797387272939952,0.24815797394756633,-2.430559158808263,0.022418290061983946,-0.7878229874561882,-1.1294759537960217,1.0997820388335255,1.4753305294182817,0.6527896378551079,0.04120218007154569,0.7209720722438148,1.5688642818256064,-0.6106861795300846,0.6591799976968022,1.4053182273687854,-1.128992543901609,-0.555542123425847,0.41297962152062956,-1.2835960897600434,-0.4417800041415741,-0.2104195609987472,1.0696504928945845,1.5790162828720868,0.7727295054700404,1.1072081229421835,-0.522565856945522,-2.0083019593936107,-1.440016808751314,0.28389695918886454,0.05095500291055831,0.7246046723717936,1.1479254310504066,1.3468724324536754,1.0130894419495993,0.12326015117480055,-0.06849452321066034,1.4505201469894333,0.7440944009656306,1.2326294467182308,1.2614048537944178,-0.7980417017208559,0.8721411637349631,0.6483758048877888,0.1103039184558385,-1.1562520655869204,-2.7189731956259786,0.8956600622680326,0.8632248739913934,0.9649160568767768,1.7289340185650388,1.2863168528620208,1.2075569471045127,0.8718347609116763,1.9346665014425015,-1.4327467679805306,0.7216458363487863,1.0646790174254608,1.1823097581543838,-3.03949942879868,-0.185677491285502,-0.9282554852958225,0.4842327344502152,1.7957114770955593,0.25242363930351386,0.2147616210044186,0.8406981347203654,1.1341065350885273,0.7867782609026645,-0.24008807606704333,0.5016786720662265,0.2667911986299381,0.96716406251656,0.04256172645893371,0.13859584053350374,-1.2132809183480346,-1.1388828176644432,0.025833249734874393,-1.3354152519297626,0.6437857389554543,1.2809246657526734,-0.07591380912970463,2.2145050243307987,0.34336336790449695,-0.5010203087595866,0.7527774042484792,-1.0338654314618758,-1.0706668106702772,0.3416539192636824,-1.1282686844510739,1.7837942497887889,1.615293878886297,0.15310874241023978,-1.0492678468280985,0.732977083684577,-1.9249030425539844,-0.19450704077111305,-1.8061851573718666,-0.6378115199859874,0.492277446238534,1.7671963060477462,-0.5868325927851674,2.472150266454987,1.004888317280166,-1.7005487687668608,-2.073117976888876,-1.2499102398252848,0.24527255271197249,-0.11410757043715827,3.0755755322352236,-0.9084991921074606,0.04061036256454576,-0.3518985562608193,-0.9157194683810782,-0.681679439699735,0.4773482319918126,-1.491578502735674,-0.8597073746360194,-0.5296023372329912,1.0807291365396223,-1.2102610971217107,0.3384902568586615,-0.7014754135206082,0.2483937511472195,0.6264611930425481,0.653419763989425,-0.6234854860964845,0.7601697228489241,0.31331524118199566,-1.7868147536172307,-0.22592713190167715,0.2263673273083809,0.8482589288924399,-0.3158194688670755,-0.7075722354034031,-1.2637516029715303,-0.3239547802460515,0.2845546161639511,1.5206549666915663,2.328996222486816,2.6751218629199243,1.8063509215383633,1.0073019752306174,2.222938854248382,1.5615880929324988,0.5884910166602438,-1.0775142122200188,0.34774407224610365,-0.10012048762906381,0.7736137405284638,0.42833600505326885,0.5389335239059287,0.7813013755043798,-0.04287345819339597,-0.40775497883078454,-1.1740988434722084,0.4655352045244104,-0.7032783536957324,-0.48489539086591715,0.7018779226690709,1.2791395460993908,-0.7088785790791603,-0.28248423803064737,-0.5591960207323134,0.6884956122513821,-0.39142831735558986,-1.228655699930816,0.6465322881161273,2.711221841529163,1.0386700765838304,0.06720479871766462,-0.6304331208458985,0.8332771366272683,1.1670270309514656,-0.04837660764851622,-1.3135158075421218,0.9937630620220143,-0.4432246114826591,1.4185654626465138,-0.9487351859470327,-0.9868398131742965,-0.4180503572821889,-0.19097442928136069,1.8287521530465456,0.7231546268774979,-1.1061342463399675,-1.254860401068609,-0.19818276743619342,0.1045747325134765,-0.9498033046645006,-0.36318905734920204,-1.3087120006929138,-1.2375259639624152,0.8363924647550193,-0.31670021039315943,0.6190535505215135,0.6102533924874387,0.7451751619274024,0.28263244694764283,-0.32402485088025534,1.58577850603436,0.20311859633822368,0.472002782297567,-0.8119232854230088,0.868189597616022,-0.7522825342482007,0.44861907365919484,-0.7745657549905458,-1.5320329902115948,1.3687253890683881,-0.8695428118316043,0.4329784188663511,0.17583083758179618,1.141585332592507,0.1352860076833096,0.4092509157911612,0.7295518755543084,0.0034671841427886285,-0.2904594516525649,-1.4582924723605695,-0.5699531458528339,0.6091556576537566,1.4586177706872887,1.6898144222508291,0.28824655846978353,-1.8464071931041792,0.8366590592520867,1.2448657331125492,0.5699187715159268,-0.02748909487741311,-0.4333816436564432,0.2832592244981824,0.040201486629133976,-0.5058925992962535,0.05170477929342678],[1.3832969775702058,-0.7107430062179195,0.0024724547725635845,0.01535273168261107,-2.116173658689795,-1.0582189920415297,-0.9913206682822914,3.160551293460294,0.019287329415089944,-2.3381847500955426,0.4374158170589508,0.4915112807421087,-1.3703317406952977,0.13255579302149728,-0.531236914017345,0.2355921981038741,0.31862691716235414,0.4092811508158055,1.2412937600689702,1.42665218824696,-0.8481725721210434,-0.08107612081732805,0.4063039426539777,1.9755388265150078,0.14232813985225226,-2.001661452578056,-0.530735839978352,-0.2644095798859988,0.5234107784769254,0.21180446832307384,-0.15046075595854455,0.7752808522853981,1.4174141706267225,-0.37875211666548986,-1.6229946825419757,-0.7143653528537235,-0.5632127076118373,-0.23384245823809147,-1.3218774387778112,1.206426051327273,2.513470459726966,1.3749388544174692,-1.2039053483429933,-0.2723549727025873,0.25111932094123457,-0.4408592160455331,-0.8843937220417967,-0.20296762846507677,-0.9722579059081263,0.24008899171465278,-2.2375559714627964,-1.7163043016507056,1.2531609548156586,-1.2992743793440646,0.5144015260149514,-1.1453214590991934,0.46367303213639116,0.5793091427657053,0.7940963099421887,0.9221222262370473,0.32316679563892037,0.5387046444939911,-0.03829089442058264,0.7897652084271657,0.6169423892221472,0.1436862879942926,1.8333821956092988,-1.538068058909547,1.299251409147521,0.5425566698681321,1.0586786381882458,0.1333634969072073,1.3000122054967467,0.25209678325775,-0.3397948691083633,-0.20240505528714164,1.87648786820349,-0.22413386027295662,0.13149028502949933,-0.6719426763190155,0.8688749481759619,1.2404593665468338,-0.4696540333123983,0.4840362996477065,-0.3735042803882221,1.7241249014686957,-0.6864322128329208,-0.4116728497739415,-0.668880904069178,0.01566173992404134,-1.3713119302548724,2.2719691054748616,-1.3976688323408502,-1.1820871945661249,-0.28014369601258937,1.6143122645341197,0.3739992597412563,0.1508342785621134,0.935538955813632,0.41683515178780217,-0.39776988630976123,-0.6642644956195518,-0.5412475262272797,-0.7119673659077368,-1.1662388102028183,-1.0323709085485022,-1.425626367272305,0.8959826137422838,0.3746977802460562,2.1883160264151664,0.637864318334117,-0.43558554655869225,0.5172433048916224,1.4163842279541394,-0.12215896418142835,0.2868984478062602,-1.356140507323363,-0.3984575742626542,0.12312360772289978,-0.5294770005207223,0.11266904128597145,-0.6510509474071277,0.26008400816472255,-0.16295503457089627,-0.6063725132447512,1.8335078670165352,0.7620804373489153,0.14839349664089735,-0.017618899217610444,-0.6871836068663318,-2.2011170287503115,-0.20210917902363706,-0.7179265145070342,0.5708586655649627,1.5407318831849264,0.03520930207463788,0.20422994672331954,0.5617734363923663,-1.3782938736638064,-0.6119574497331949,-1.4075123106509797,-0.22182387223724762,0.9467291440128321,-0.0516383568206249,-0.4865511952612507,-0.29320539881407076,0.12124873731703423,0.9350088507194025,-0.12711857597707513,-1.9506046938358947,1.9937568522044082,-0.8977860691556464,1.7083938249390056,0.16438606350581714,2.010219271719459,-0.8975635426583339,1.7100521639000033,0.5823608329024696,1.24956485612007,1.6809928940677352,0.36451259439944383,2.0105087346226553,-0.8502150165526468,0.49449711763549553,1.3684653913936962,1.3227247937404372,-2.537665565218148,0.3114824069055723,-0.1263390235796747,-0.15063332413007077,-1.8549221962742135,-0.34536133170364364,1.4993714299004166,-0.8248525279378387,-0.5009673489549302,0.040576684375626206,-0.73723445479788,-0.544117132040265,-1.0123126585249063,-2.523484094878565,-2.7805591093739603,-1.4666255475490393,-0.4846912085722396,-0.8579055283563743,0.1042860333074517,-0.05941987363607648,-1.0527499490827528,-0.3883884186211579,-2.7914912827245937,0.8986096386988099,-0.0770322443886518,-0.7267696275482716,1.2460486024110529,1.8824163583639755,-0.3140118722142535,1.7373240499786866,0.3819155499613477,-0.2052069902611613,-0.42027254128676406,0.9635725542703328,-0.6238511083821927,0.6865864593092746,-0.09385930604958895,-0.5920072529651306,-0.6543808054662299,0.012394433563597108,0.12770059890991653,0.2220440253687991,-0.4296552362952894,-2.041129309732669,-0.19949114971278253,0.5684935974971824,-0.7045942084670117,-0.8850319720172752,0.31876219061114003,0.17746399256451895,0.5107787458024636,-0.11133718615185755,0.5496241149988168,-1.3555427928676809,-0.8999852969831177,-1.293266538112507,-1.3005675712242157,0.28399963202588197,0.6018737739478635,-0.1599710226404124,-0.6682544132649817,-0.41554126067224934,-0.6586214057148733,0.9435542235209268,-0.9118589777367165,-2.0536380060206203,-0.7248955571870301,-1.158236584435493,-1.8837617284632464,-0.4618150167907819,-1.9665752440883246,-1.0058199245183381,-0.31412658125475096,-2.0835924915848465,-0.9437363337201731,1.466181549671513,-3.1347943830976726,1.8503612918183205,-1.5053667851981927,-1.4393455831453394,-3.6234903813082857,-0.6539620658707888,-2.302286453236666,0.0465090697166868,-2.218515723315333,-0.8514105829253464,-0.27274873213573386,-1.5354682232380235,0.0543562925215864,0.10082610317929848,0.37980272443299923,-0.500078203530346,-1.6349359692360883,-1.9029384445220936,-1.8950420385566593,-1.3517483929826497,0.011259003593034304,-1.1346579881376353,-2.1141267268982933,0.34362925609763834,0.685191548846848,-1.693289381630599,-0.9593218476219119,-1.1501593516477093,-0.24264728307119715,-0.8792097626657961,-0.07046679352506156,-1.6540461405623619,-1.037016546916856,-1.8240043427595602,-1.5976707264887078,-0.7388962495238676,-0.5335692295056621,-1.628114475193217,1.6787352359574017,0.5323977598622566,0.7207734405405551,-1.498102377210385,-0.9193547072011393,-0.8476923103159133,0.5176175903769328,-1.4781914970556764,-1.3293562567395898,-1.1556552484764726,-0.7400591189019602,0.8998395985050847,0.07936987930547089,-2.2533861548808076,-0.7706998181873729,-0.09597739555754017,-2.694072971464607,-2.1888381133577544,0.02351586733558988,0.6148625077250259,0.23038740095138788,-0.7109294369897546,-0.46193794094263585,-1.4068754023308492,-3.743946134184953,-1.0147246939182626,1.4343694971153085,-0.885632546250818,-0.6682424048151271,-0.4249894070593348,0.03498881637046716,0.27961943858412974,0.4592076566280947,0.32783822099146764,-1.6470319253982006,-0.5059675910558108,-0.49583672531346445,-0.1967866293858885,-1.207067709103289,-1.5668499570463044,-0.03150421103080378,-1.2046068690323728,-1.9025977798451827,-0.7701791216296914,-0.04457715389532793,-1.208507046283107,-2.1203840952335264,-0.9987334793703835,-0.03302389238573945,0.019091798362899124,-0.381940981387492,-2.3045095126408155,-3.2816278464273485,0.3072908092711556,-0.046203771099887124,0.9595648589900835,-2.3901899911901734,-0.5617183826717302,-2.7202195307775283,0.9267516338859403,0.46922421216426385,-0.6613011855582355,0.3158822949111296,-0.7064146613427895,-0.7246428550950786,0.3911994366397057,1.5623057673513536,-1.7678020582460838,-0.7158281218100347,0.049709939828213034,-1.2411635054804504,0.8174722062386353,0.4550871089016554,-0.35349932202347717,-0.46628810988463526,-1.2161880110789507,1.5000002568794522,1.515901358820495,0.5841234602197428,0.7670844883914446,1.1871286709499833,-0.26163685606612563,0.7537916811052591,0.07738415221323906,0.996560583970541,0.7394548632149102,-1.1914800582626912,0.028993654569310787,1.4053976483606185,0.10816162046228998,0.8340688943043898,1.8217987682308654,2.644553156480895,1.8838466038950041,1.4818503925369828,0.9768831187879009,-1.0565869386297722,-0.09048233658598791,-1.3571468022115831,-2.0526065380533036,-1.2373873369719732,0.19032889338487552,-0.028874008419734754,1.708238005195576,-1.0033715647261967,-0.18952408666399284,0.9499723183044427,1.6951350861973784,-0.26942016620974263,0.36165520795571415,0.18030578311423387,-0.6912000622893794,-0.009160697119105098,0.40143671950834814,-0.09464524683991028,-0.14785435266077473,0.9270745684209009,1.2854674725893673,3.3579862987281737,3.1921464074748087,1.0988014253546583,1.5254556535865151,0.2427746330187701,1.3284145655423805,0.6562031720443326,-0.7262566945343021,-2.0677644907927535,-0.5069778463905419,0.8642690715762521,0.9658321693829166,0.6574960140320629,1.1616876025778795,0.6806173257644288,0.2910081937851623,1.6512227280825427,1.6254306684231667,-0.5865885388999069,-1.073843981496531,0.09216279514066411,0.5216246189290132,0.09347684328542855,0.4773320760458413,0.6098803078361317,-0.04353521680885233,-0.4973065371549476,1.3390090697277606,1.7045756288621972,1.2488143387653108,0.7212491352503564,1.6306887957304232,-0.36562197733565055,1.4692351959743022,2.0544297264855467,-2.01733222898763,-0.7516943406758763,-0.6101457265873619,1.8859538040103492,2.447102797805226,-0.8169299785637186,0.5040846946323547,0.9745273031419984,0.19994756685245463,0.8795186588607675,-0.7319292160254998,-0.16941850105706527,0.06371022413013673,0.16531075069358123,-1.0698463150797983,-0.8678351926077089,0.19067462903536098,0.8414571085867563,0.5667966541608075,0.4299942696033403,-1.0839511318351553,-1.2097011266199726,0.6534594571932215,0.23608136168751429,2.511185575894923,4.108262105193964,1.1981808588194678,1.6994662188573244,2.0018825333327377,1.2437400364270572,-0.48503528614886904,0.8418205896578,0.6694548311995926,-1.9476197579790329,1.9828556263632364,-0.6733250158044565,0.06179830074331466,0.5490060589257033,-2.3906375764318346,-1.9132317359285043,-0.2828402580603727,1.1354796871739845,0.6000012102316965,-0.3597445358891383,0.1031958584550879,-1.5480903651233855,0.6462597776664947,-0.6547849830935356,1.4605532268421153,-2.5361742354690913,-0.6622228261848283,1.449103667606266,0.23406642348976395,2.0273641076661284,0.9845397999131897,1.5479237250649593,0.8018357884072623,0.19429666776202567,0.9222737816010846,-0.22636315145166822,1.7341931182449788,1.2696313886578414,0.10444751306114677,-0.6110802330885876,-0.24940128845199663,-0.6145550859311263,1.553953358485084,0.7005505745998336,1.1199798587799101,-0.6812281460486498,1.0052123352581357,1.0211446095441803,0.43422340986841773,-0.0950468809853231,0.11066228127001579,-2.8000445701811527,0.4889534522378979,2.534832895899215,1.435583541729883,0.8849498684236321,1.946419886988101,0.2706526259604339,0.7250907042024721,0.9790591827683072,-1.3161294537080694,0.9467128389723358,0.06497306019925041,0.5870310653818056,-0.6576202236118893,0.1498465549569711,1.2353916889367516,-0.8119317159381227,0.08354053837882024,1.5813016572244436,0.21327307560066142,-0.8774998693698774,-0.729613663305374,-1.10630075845594,-1.3510835209248262,0.008870247133011155,2.1899793845293867,-0.05359060852847005,-0.2377073819424692,1.2336927759743241,1.1569848054854621,-1.5715879825325814,0.473014384824681,0.6591272517514523,-0.3554005065555513,-0.4615071742181788,1.0022936449727073,1.3134975661333914,0.0014170403413062552,0.9517447832344919,1.9953276371716842,0.6431127701037677,0.35697521691418943,0.5691616970247508,-2.016238974115107,0.858850499304928,0.6823329868224177,-0.6153980819413618,0.3022470794354617,0.2580710121093872,-0.4531723484939472,0.7958760712686846,-1.1579394156305325,0.02267873845884425,-1.6099617628545297,-1.559360321932732,-1.6713874963300261,0.044436719962402185,1.4177720455930127,-0.3391634995056232,-0.28225800808365725,-0.39724099971242843,0.6526522125655603,-0.30777343191005885,1.2348338943471235,-0.183652017288088,-1.0824753004674144,-0.06844649537099624,-0.3625419469026207,0.3438692091684813,-1.0918994085255156,0.7405568543451005,-0.14433615006943604,0.27848839101859385,-0.05234862342680362,0.5639123920780763,-1.5944355349431967,0.6662549306856501,-0.20935973568413643,-0.700027798557498,0.12259948734684327,-2.0689876306112063,1.073632303352195,-1.6083164098630958,-0.24815017852297463,-0.553243150602694,-0.12990339476955556,-1.6212029477600096,-1.0033117129825015,-1.5477823382944662,-1.1825145907392272,-1.2050880990711919,-0.648093520865512,0.8413312678998797,1.242456244781229,-0.6371547640251468,-0.26168515943339343,1.0580795185441874,-0.8056236405156443,-0.02782041728108274,-0.24780281337630294,1.2535331557396525,0.32108862021851703,-0.5463605945208575,-0.04500363626956843,-0.8068781515922762,1.973071136541346,-1.2294268586677852,0.7852810906203647,-1.6651179468779769,-0.7781355853886796,0.35895335151398694,-0.3181293948332756,0.24742393234474272,0.7006973393189567,-3.124706645888684,0.01853714681794394,-0.6501110267576456,-1.0472694024603948,0.26401477234080517,1.7893208781177465,0.8754180899975523,0.08574113387246361,1.277523672831257,-1.9073129420454866,0.024853644343697072,0.20451176854706762,-1.0834394944337638,-1.1759257884488497,0.5010668128614867,-0.5114662454922342,-1.1027831771185967,-0.20653082799254985,1.9601891711736343,-1.3033355780407478,0.018634549740548047,0.15912165185068797,-1.100006620788668,0.30843390366512163,-1.2590380398633374,-1.3546828158285777,0.22463173836009337,0.9359001195750116,0.2891186560082192,-0.989999504982535,0.018611175740471594,-0.3686351480226814,-3.0986975848509046,-1.144989079061829,-2.157774290259677,-1.5152036475740014,0.17090557387657979,0.029809508477491406,-0.7314059059644425,-1.823424253030495,0.8378188389382683,0.6466395253826092,2.2533096608321963,-1.1876666329754197,-1.7973392765198508,-0.665329607705601,-1.432651603149706,1.537018805199138,0.32993896686068985,-0.3369171252298705,-0.10229280104449529,0.10548698563110188,-1.6369844971134582,0.3624687161791481,-0.1326853530997138,-1.3946925087225297,-0.360532027475846,-0.6151158864377233,1.3006882079877295,-0.36454720983811467,-1.3969878619233753,-1.0460514116200703,0.06317031177288876,-1.7108631508635814,-1.5107467476196914,-1.9876266414142707,-1.111828544275238,-0.19326636850074957,-0.017835973302381392,0.2010952337922524,0.7293191691028541,-0.4656172092692406,-0.2846229940503384,-0.7918143980106783,-0.3633813033088797,-1.7894639871322344,-0.19100430924344727,0.07145917829486115,-0.5893236655097362,-1.9645475234383114,0.9038508700543106,-1.1923730629425169,0.6374297518751264,-0.49392857375718807,-0.5687846354505149,0.8653822561869754,0.3310645927638251,0.10859011561274755,1.54772923667171,-0.3010744308464151,-0.05490771792494636,-0.22830270544936526,0.37320722573621457,0.7520885875200735,0.48805140413722436,1.1743516392216709,1.6628675688454984,1.675728825478581,1.753139607650709,2.388370069269412,0.3454572420576977,0.548006273292463,-0.5110539018410529,-1.1812103121411521,-0.8081838891443279,1.4635619873655312,0.9403979470251252,-1.2366561914481131,-1.1974404380374188,0.07633572588908334,0.7268200349505299,2.0092008797622087,-0.2509700429459224,0.6960635811551459,-0.5649068393903457,0.51098520305025,0.6692309008075457,0.18416302951312233,1.9952629308136518,0.6848267354239899,-0.20823194703101122,-0.06675689299306295,-0.9615048407265239,0.2502959770174808,1.2041927849129235,-0.6574596637576702,1.643597478116375,1.989472396022354,0.7402776359204075,1.531971750217625,-1.0031468638601253,-0.9376338400860639,1.8232027710756187,0.33451141348417285,-1.5472502173356726,-0.5780919603927213,-1.9764687657063555,-0.24481651339853114,-2.7738286007732045,-0.9219562088143801,0.8797558245595466,1.3990619480889364,-0.21821929433030957,-0.6182495662940587,0.6448866690642437,0.5943489129757751,0.3983727144442114,-0.3430316773373539,0.1061253757714501,0.9997528691539304,-0.12951281527259145,-1.3795422682318548,1.244493229260611,0.03007975092868229,-1.019529593161933,-0.5073646542324164,-0.951582313833434,-2.178755486722984,1.2961381236215122,-1.6030577694024586,2.022969497767852,0.6136228330251812],[0.09559194392733845,0.11143960718515794,-0.7692499653950584,-0.5989411328720792,0.10368619927584533,-1.1539726705399167,-0.18018107276569015,1.015401069942202,-0.40705151091466785,0.008939180532356338,0.4492228607874004,-0.3549218270174158,1.1011665611091623,-0.7767777764664848,-0.23442036113231707,0.16847533738351275,-0.9722018936181939,-1.390772039008945,-0.3696862615956478,-2.078217346215516,-0.038710296510594405,0.6093824463192156,0.7061642437633939,-0.7234497181418744,-0.3949976146250564,-0.5774028258011914,0.5917267767811579,0.7318215043685078,0.6708221301498457,0.17746072602843668,-1.012404697240233,0.8474335400561789,-1.3821535196233852,-0.5500600954102005,2.6586708658136877,0.9265437699944349,-0.9295445684038308,-0.33272136835390775,-2.1295306828292637,-0.9176957091794006,-1.4059334224473987,-0.09455531104878956,-1.0277407020960243,0.5135777685605489,-2.0258583710359206,0.49083826955304916,-1.0639291168547813,-0.44793321087902366,0.6100387771907654,0.5424946959945766,-0.17670011307607905,-0.01965114529862844,1.637505370477968,-0.9842436894083099,-0.2816873719217893,2.622948082912683,-0.3500590827435527,-0.26330509358027654,-0.8597595221543615,0.8633196249726508,-0.2613514771159015,-0.19400254086269467,0.2791915683497753,-0.8998042484486546,1.2536105025175273,-0.6916728798228101,-1.7837687910292095,-0.7521677306979762,-0.7706738675591617,2.193305818669374,-1.946592232305834,1.6684508472372648,-0.4888157283584308,0.22824986088084245,-0.6987516354682004,-1.7946827161769863,-1.2597987483219306,-0.03184370017990087,-0.870253991027068,1.2725596065530542,0.5580986564106234,0.6083020312911994,-0.26021435929584963,-0.33187345962502424,1.2776867858305372,0.29829870741539943,0.5127608625020422,-0.6079426345732308,0.43675885800920816,-0.02731054609762078,0.3378690641015159,-0.3646399165548211,-0.10201907395916937,0.009055448543505366,0.04886925406827626,-0.5556234739799794,1.6291127547476631,1.9964646882374317,0.12171929295324724,1.9481189849473517,2.4406477566666136,0.5724236665498629,0.11487749544055788,0.26613845892414395,-0.9836651458092939,-0.9014248226519841,-0.8742065387870599,-1.2133838467074076,-0.325444441995505,-0.151185349598508,2.1482504757651912,-1.6305747694074428,0.6381398428027906,-0.3441998016982913,-0.3809134027837627,0.876575471295086,-0.7222866670067731,-0.09774094234440087,-0.8923337907352688,1.7263551832699067,1.021120646397204,0.607583090659646,1.0970728503167044,0.30558225621426405,-0.6026538676732996,2.1958299510451837,-0.40311518619844866,1.6149369474025426,2.516607342250959,-0.0030940829834357818,-0.15946030248166562,0.8328094965870855,1.156110176526536,-0.7026684334779394,-2.0748884614758913,-1.2425735387754895,-0.5996415290548677,-0.729146008813355,-0.31319840367355595,-1.50628041517175,0.6516309555587005,0.8484903977373184,0.5265084116475272,1.770455469585817,-0.2838940013168218,-0.2994063670693306,-0.14550710561312502,-1.9903917992017042,-0.2595481963915237,-1.1274561355284938,0.6501344407794815,-0.4328509141346672,0.29426852525138847,-0.08470331248279747,0.1903132686222229,-1.0846316677031818,-0.2588254588950606,-1.7014932690141151,0.3707116934114459,0.43216759986716724,-1.087214026671107,-0.46949288462912897,-0.7880614973485222,-0.21072704674469264,-0.39642696455379883,0.8120601692779311,-1.0164995791367002,-0.0021125761139215373,0.3922518688187374,-1.084516036306007,-0.9736201913812361,1.7594438604751017,2.4101179583471852,-0.4507176659019059,0.21753464415241885,2.92922034843483,0.7375368544569911,-0.07575080976789192,0.7553820568458476,-0.1828449603695769,-0.845989160747709,-0.8680792969044324,0.4357188479860393,0.521253711899977,2.8714049634402516,-0.4499616432992833,0.3831822965566027,0.1285750650106549,0.6559085014504732,-0.28656950407527354,0.6917230178830129,-0.47616449674082256,-0.7209211502790858,-0.10357291455996744,0.2331219996804453,1.2951241713312465,0.6060375810279958,-1.5791605142219163,1.1476963842216499,2.3340014191927896,0.3892077160442613,0.1666142689436726,1.2988388028543085,0.9319852585533817,0.9251598983276396,0.6663524818758869,-0.3813189852081789,0.48237520967159836,0.26499493424774273,1.9004352935708906,1.2808915123549391,1.5820923633093915,-0.9866626942190755,0.6178682240550263,1.2756393193844195,0.3124231848370177,0.17331866056499368,2.2202293377798488,-0.11228647382469223,-2.1312550133936266,-0.4393921456163453,-0.6136594438259446,0.01553708153132433,0.907965264852798,-0.13218268967831875,3.455355054278618,0.18098457638702714,0.3582838325562153,-0.5600319828864418,-0.8026107861415134,-0.2789943556947641,-1.547106875479865,-0.5776885795633863,-0.406829413651054,0.29420533523494635,0.9567506904700335,0.06032870312654906,-0.10267575962788912,-0.6729803450127312,0.15685830358053815,2.6663860265785657,0.22936123590657853,0.08959067132482668,-0.4774101874910893,1.1687771110017187,-1.1632551573854828,1.072451235482202,-1.6744555904784058,-1.2660167916892784,-0.9082192823973146,0.20787065788352171,-0.3425106764907821,0.35788304907916957,-1.8752176986161473,-0.06444731827215826,0.36942193701237863,1.2677529019344684,0.8943668810118137,0.1206396966007972,0.2048088163506895,-1.3937265550267801,-0.6256376652228164,-0.7798606247412633,-0.20899937474018324,0.21589136820774163,-3.3681326880854394,-4.19554824088401,-0.9175591476161481,1.0983506426256682,0.7243500541483214,1.7472194997158876,0.594980899489907,-0.5327074541982282,0.0725548870525997,0.48134097422494393,-1.9116492630281379,0.8507362597498064,-0.8589889956896088,-0.048080677050432646,1.6405808716029604,-0.29778325030237507,-1.5471218436761716,0.7391817537958523,1.0322223971925277,-0.3034890200035438,-0.3213636138198319,1.1783068418044107,-1.7331953014021582,-0.6974911945957294,-1.8877879409722882,-4.544654287789713,-5.147143007161651,-5.960260089275217,-5.254020895249673,-4.111078972040411,-0.052136468477969565,1.2431150567942748,0.32585432534973363,0.16536098897490728,1.0594395756484747,-1.2876673951068454,-0.06680414061339411,-1.0199389417756952,0.31485517148190106,1.4653668642950368,0.16297407221321403,-0.41234169125292697,-0.7226616442672826,-0.7697059353975252,0.8574228584614931,0.8593750321195894,0.12600428490146995,0.3227300799286503,-3.0230748431633616,-2.757434237018489,-3.126016787165756,-2.005894162517018,-4.93724367416,-4.116796456346194,-3.7683635543029728,-0.5527233126817451,0.8011757752917468,-0.5159340002335002,0.8363240170349295,-0.6644903073321774,-0.010191674629362681,1.4463735314231039,0.299642032229554,-0.20490491500242067,-0.2060170087780961,-2.1947489399548195,-0.3260048820724047,-1.1020565867884675,-0.29333921861174744,0.21114260209508637,0.7574229394297741,0.22186552491549708,-0.6729852831629058,0.5654465325717624,0.18936006377290027,-1.5666762885909151,-2.601505273051732,-2.9003019224254394,-2.842570503144603,-3.644464112753595,-3.613196285499996,0.485083568221045,-0.49213617257986514,0.6373621175897511,0.20786819396779269,-1.2138792753785919,-0.6646223771910966,1.295457661653488,0.23698734173090313,0.18013212230995138,-0.07464740514894379,1.2431808228102572,-0.012745891696045416,-0.15851342640038307,0.1641534035097123,-0.10036824394274696,-0.38416727905787623,-0.48827894811241523,-0.5755103061902643,0.12010866285989713,0.4161262987606613,-2.144408282522672,-1.418431763095519,-2.02749220909344,-2.6735574516615865,-1.8156211702702427,-1.2859505718167439,-0.1261842730763118,0.7800705349939707,-0.9349095871715031,-0.3518652801269012,0.970473585362229,0.03965260363656314,0.18868144433917214,0.4459174885346175,-0.08319410298840621,-1.1357285350213262,-0.8031683227575699,0.21585411167637214,-1.5390898323354498,0.0959808504662548,-2.4762797634087095,1.2412322983842377,-1.9899968292396224,0.8657592317400452,1.75245669549016,0.5040108636472661,0.5730958741024075,0.7604734489273491,1.199034461372673,0.6973582396372024,0.4404615224053626,0.202474194090676,-0.3091101766195041,0.04540153124288088,0.9592976999583201,0.13279601812203057,-0.3738499950439732,1.203180308380232,-0.17101589732747113,-1.3508741796644161,0.971583912408957,0.05102453431834295,0.04413260061529308,1.6140325873876582,0.11273677196145289,0.79061504741092,1.2191655969657493,1.3764431270219795,0.7444501729091392,-0.9136371346575501,1.1973538864959732,0.44256060817326043,0.34233960036604577,0.90138702092366,1.285783151049162,0.43612966140339565,0.36028491736391877,0.46040525750813555,1.024829144469809,0.7920880080284781,0.2741954529969011,-1.669844623212987,-0.5943434060688887,-0.1449181530262129,-1.0544626973734996,0.7338766170546879,-0.9469459713590416,-0.6471535878965974,0.6722393424130009,0.2500742090099222,0.43496114291897037,-1.1291376755835865,-1.3882024957132548,0.9694246360503465,-1.27257157587808,-0.5917645771563542,1.1144817316128597,0.05656935603830909,1.6753968515397977,1.5494844922042381,-0.003516830730844021,1.4199803138966889,-1.7571723643748498,0.5114084188992943,0.5134938625405613,-0.7903097827770651,1.9683429338116958,-0.3567246511392893,1.9338882761168878,0.2398103182940657,2.388991353246746,1.2719588295642947,-0.7459753320816005,-0.2534808178672365,1.5566206630959831,0.024360974232735977,0.25973550403310214,0.29483865565020184,1.5438094473776798,0.6308827478857237,2.102207204882585,0.6591939437485073,0.4442101226665388,-1.019234701165024,-1.3007054698626341,-0.8370613182562446,1.0204721548856892,-2.3630246086349986,-0.22782195134839667,0.37411135855693944,0.6388274676784553,-0.0746169624975346,0.6463974510285186,0.08565224920426216,0.9231955750515901,0.2739527428334786,-0.946461114519504,-1.4067968206889787,-1.000704657734689,-2.007108833613602,-2.415060228100458,-0.2178115592551845,0.03785818265690937,-0.32739897500105986,0.5567651894834891,0.34619177394696204,0.801663583071827,0.2404584596468246,0.21428686526340157,1.3596273430744217,-0.05667170060332489,0.20514590859081178,0.4723500073750087,1.019605751416053,-0.4401162245813712,0.7648524391760704,0.9739938717813776,0.7786870982708647,-0.007277890190481512,-0.12440488140746353,0.04536198005508032,2.8973926338314224,1.2686986669405418,-0.07380340195808151,0.9044660495266704,-0.20049139298957427,1.455466882131259,0.044172198857280576,-2.153588906623589,-0.8314492930077628,0.48696856736138494,-1.4926647284632728,-0.26799615751087885,-1.329334671575944,-0.5513438065540195,1.1639938702140398,-1.8692720365558932,0.10227044590142116,0.11501221861320288,-1.2710043521251524,-1.3987404834926114,-0.9549443872825709,-1.1429385577357156,-0.4182408946341041,0.2604720750315059,2.6703659037218967,-1.416802825045222,1.4563218358318013,0.8744118497966782,2.6912250713496726,2.6564758552428454,1.0330461064068202,-0.6172334309983403,-0.7113800887628697,-1.54554738061057,0.3594978499462904,1.0764555061707317,-0.7035949292811329,-2.1747902494809415,1.0180058706852237,0.4069555635651571,1.3469451660206901,1.4962021608618996,0.3415736200365617,1.1681806014989065,-0.2820088745078335,0.7586571463922066,-0.4231967233508728,-0.307884161261244,-0.27526490890641014,0.01711017676906178,-0.8001515316089393,0.9164035885405525,0.5584173593876338,-0.6229273466777216,1.2852895294034508,-0.8074318573077262,1.1263643317884982,1.5408054980217494,-1.0096016596284487,1.4219847762791358,0.20643931542010818,1.4906493141704258,-0.4308039941238117,-0.5295960429802997,0.08928548836512816,-0.18592616606907947,-1.3011580960500178,-1.0173332553999639,0.047190266966527165,0.9338598684985882,0.012487328491543147,0.7767403208683866,1.036114184698658,2.6755206061273813,-0.40832068631154594,-1.5960999949209944,0.10654559941456641,-1.1769683677811298,1.3193007513860764,1.2687127115225745,-0.45860536711303923,-1.754685801331197,-0.3508874508154369,-0.09890412998342149,1.5357780958869114,0.8747922699653321,1.4539397323174332,-0.48687082438077095,0.6562056421959185,1.8000362630151714,-1.18446326000543,2.107245395045894,-0.7307390341195533,-0.34890166391418354,-0.4180041213251213,-0.019539341150151008,-0.2904191127439877,-1.9505185294972518,0.22539665737127518,1.1175358330614962,1.3539503106771031,0.7265832528088323,1.7003424925682267,1.7545422309963905,2.0556639851061593,0.9403955683616997,0.6976912526540497,-0.29336801670795465,0.03615579784152565,1.4230173018933945,0.21318278960517803,1.27989523726139,0.0520749343247323,0.7988525755099839,1.2583205739933845,0.5621677156971998,1.6454219847208345,0.3240713693933407,-0.4371360436103012,0.18438940599184936,-1.3851335268494533,-1.6138579055076596,-0.9485517476691421,0.33268978813126393,0.9940397724943363,1.0652005920132421,0.9024344921271765,-0.7128486838600727,1.3369916249874578,-0.45286341158735255,-0.2651012858995947,2.0211430801694705,1.2319157410658341,0.053119360385158666,0.3810128240008837,-0.5915415650172512,-0.15249879858735957,1.2159067397182004,-0.9253214796308803,-0.4484897522527688,0.754513423638196,0.6170535051725429,2.6842775237455507,0.9840211644719316,0.6885650397297786,-0.6767654566840114,-0.48311373067194163,-1.3652131228975661,0.8920883262292046,-0.1442913258280593,0.05734599671838416,-0.3835144344306651,-0.3551133974820192,-1.2771969209051826,-0.23638870035681017,0.4572497531776429,-1.331003884583677,-1.1741300423886392,0.9095480990838413,-0.26768512369930386,-1.0817884462331293,-0.15333549036467015,-0.10478305113155094,-0.25755645805464705,-1.7235876087234405,-2.996449452064829,1.808418329414501,0.0031885843788397547,0.397492603399512,1.7999178259127806,1.2701526071616343,-0.031636032348398034,0.8876593211309272,1.0479835268923166,0.9648712597222269,-0.31659703754482854,0.123230204293553,-1.5755604607776639,0.640986862761453,0.8589830919019265,0.7465452284531148,-0.013857803036300456,-0.5745242890316703,-0.4193404410264437,0.03932124309687558,0.4038958154352917,1.6976591996187562,-0.9243256923891341,-0.10026663632798208,0.6630921266022335,-0.29895316432076113,-0.04088420042820305,-1.972141409996558,-0.3360738757664011,-0.8258993045909478,-0.9250119004908519,-0.1694897386368773,-0.47692673385590134,-0.5885295760395679,-0.9005267769853209,-0.8209238060345282,1.4395089404992594,1.0928324595284677,0.7312867804004033,1.9937308027795118,-0.030048244632172254,0.6725881276926703,-0.29877406828946157,-1.4813861293444734,-0.43595942298471024,-0.2291803972634001,-0.2567047567504837,0.13449023222896306,-0.41898533971900404,-0.6416779454464722,0.32825015011917985,-0.49769641357314404,1.4342527115285437,-2.583858589768875,0.16670614041596815,-1.8233558912495402,-0.43128818019348863,-1.457731730122956,-1.287908259053422,0.717302439684424,0.019787240563735566,0.9305135738948056,0.5108875411007593,0.26182196305554667,-0.0175604695168701,0.5623597252079814,-0.5564516239186351,0.8198107942696549,-1.2772567746058852,-0.48208125066068047,-0.2680172500004351,-0.5289834340946106,-0.15717332751945526,-0.4556714273450299,0.10436316313412983,-1.105123186913051,0.9997457734819082,0.6257402989871184,-1.08746980116718,-0.3488301718013417,-1.0941273268573328,0.9965648863595308,-0.33455328163750836,-0.7659556263296398,-0.017534499757182805,1.45811788020141,1.4353157801943635,-0.38326821789235865,-0.6175683577479361,-0.9164097199088671,0.35587384937994704,1.501725760113414,-0.3671727886088651,0.2680857524977168,-1.4703813282980087,0.553495885165314,0.6095308857728942,1.0418003879896949,-0.8280977235788253,-0.5968438721848789,1.6339751376927565,0.7413783285837177,-1.2016399008301297,-0.2567862620032813,-0.48873574011644194,0.6826018667939465,-0.8193506445137286,-0.19480666393286625,0.5174822985734108,1.4005546846011714,1.6733979100631613,-0.3094941723742589],[0.7434574277977385,0.3210579073959831,2.1536992988109023,-0.49991384143972206,-0.03421178122924502,1.0470397273329077,-1.6585315779811152,-0.8597551061380668,-0.3667057729995958,-2.478651767408519,-0.020728814953829448,0.8978333583195962,-0.2994751954901883,-1.0520276219118292,-0.7410643901131294,-0.21745923832153372,0.3432171969881643,0.1834970954851234,-0.6556277941063294,-1.9846966767026624,-0.03702620751365871,-0.8986731788313714,1.0355512335690655,0.8113277536479971,0.3531770703839301,-0.8007492814913689,0.7061865219249687,-1.1189380295131672,1.9292660120186336,-0.44750868077883743,0.6946983765808005,0.31751447521512227,0.28403567466589874,-0.08038525180263381,-0.6372824007731867,-0.08583690347734516,0.6019415152463978,-0.11645590608291118,0.18271827182651118,1.1223213979341902,2.4839018498717027,-0.6445247651792145,0.6799017933109581,-0.3967276491447072,0.2447814040541075,-0.8569941968698107,-0.5612773017081633,-0.05631744075382176,0.8389111856347162,1.3149827995449352,0.03623954207686811,-1.050729834919057,-0.49629081517539636,1.605727693457753,2.1970659365778595,-2.3855452570752416,1.109682107187959,0.9049565588170821,-0.37919780376884227,1.9436996336942212,0.5480542516826216,-0.26121392076031996,-1.5627761906781032,-1.2321839303826552,-1.5783360943759848,-1.0614388511296864,0.37553867099634536,-0.10859697761360529,-0.21839759271795994,0.862154359662228,-1.4144665839602788,-0.8289908346264189,0.22808437606703702,-0.7134267170541648,1.6960765848341972,-0.15201835495808608,-0.99952036817953,0.44936411700454243,0.8245400690750943,0.45534816284782037,1.2429598109390931,0.11745406011720302,0.791519451929551,-1.4347747498784604,0.26854567472785795,1.218946104187448,0.12098546198580917,1.5644004851576896,-1.1895871079476115,-0.44926623155218753,0.8550706342619935,-0.16246003735485223,1.9410868161934551,-1.4300266732475366,-1.3408545743167994,0.6040273421115274,1.4272945235750707,-0.5026378152818232,1.1973013860372415,-0.6494599036838021,-0.6100454379739019,-0.3375242554203493,-1.7312147123886685,0.6973099801875823,0.4744832870225849,0.456223146535485,0.44150848438894597,0.3035447069162517,-0.910151203725519,1.4768028654460916,-0.1814062514903478,0.1464323946559025,-0.9167406096560867,-1.6057968073649613,-1.279107323947671,-0.6837338556915872,-0.7093378915776077,0.32381947329970756,1.0317619715290292,0.8566247329658772,-1.98809041244557,-1.4166991132064648,-0.43444763085204585,-0.170695031756878,1.0477370380201319,1.4309816910198334,0.440420956613222,-0.6397646346550128,-0.8634649664286302,0.26547487480030424,-0.6984844348380858,-0.9850268682418906,0.8802892048185919,1.5827864155158888,0.31903420244459263,0.7889987011539469,-0.46183879642793024,-0.23551937363775738,-0.07799807322868552,1.9687410009778605,0.24835776682635993,-1.4523562495979714,-0.20146949510243176,0.5145465431087538,0.9618640940613877,-0.9454615037663334,-0.6519016888988456,0.33057368660398867,-1.5279226209012513,0.07008174640445942,1.3438069943398452,0.18266825624553723,1.0206181565527808,-0.29896519197453814,-0.15880628449258805,0.6643154031977831,-3.1059453627931015,-1.3850953754038415,-2.5678299998103697,-0.5718745684260376,1.083542321105957,1.8566210521698838,1.2831489848627717,-0.2318883615239344,0.3745042317678116,0.7590464583132465,0.5416614696953315,0.8332355429982953,0.16838660946725753,1.0008515714444857,0.13939679159118482,1.632529950848239,0.5141423016615498,-0.9488283260092361,-1.213893446076305,-0.6973400807198088,-0.6634767233597133,0.905428291939776,1.3201237912886985,-0.08812124145782098,0.5614526803562715,-0.17932249243244705,0.35570417289811357,-1.8331393705525232,-4.217329663455543,-5.367673934022245,-2.495573568808764,-0.06648980014921804,0.6466977896118978,0.5711983713818024,2.525312136672304,2.058396681815674,1.5267986717154103,0.7106431570296172,0.7161063614836394,0.18808034465802506,-0.009544550432141322,0.31111389336425566,0.23118608379723768,-0.7492462266496026,-1.2191817608791542,-1.1292997565534715,0.720966565409939,-3.039404427593326,-1.1467889895309484,-0.4316951358382027,0.8634011522327424,0.6802712256998563,-1.0158611352584288,0.20750509281232005,-1.7417422615303524,-1.7277532681830612,-4.506328399081216,-2.299547280367021,-1.105687762250583,2.6715988026266957,0.45004329498956647,-1.0004522448936664,1.8371529945270073,1.6890128183251267,0.6843956125958499,-0.530184782330337,-0.42414612954309844,-0.886455670534136,0.18256869037383755,-1.9333499045444393,2.3063556482617855,3.493276637899998,0.49424551279544876,0.9056114528825312,0.43091976260337445,1.5004861491841215,-0.16782194007609696,-0.6783956891894662,0.3809537568187764,-0.11825547230687887,1.2565029884655554,1.772169303126484,-0.6355646260558817,-1.6296979837249106,-5.980442803193272,1.41095336297979,-0.6330037201697037,0.03684049095438874,0.8392447790314636,-0.813740731410602,-0.4059096091722089,1.1635927331295497,-0.13494961458796373,-0.9437820259089474,-0.24712082559049367,1.016473884260369,0.7980510193495259,2.6486210763273017,0.27731981874732053,-0.35928587659628075,1.8631729553702745,-0.1383188227449688,0.7453164405325585,0.4931054777340129,0.6996412767339681,0.05590812370931381,0.17555075570883713,2.462446810119333,1.326507972753783,2.1346860337844578,0.10425708600073566,-3.2299094371151944,-2.7801275814018145,-0.09089093527935183,1.3693104162281056,0.9354886700798779,1.3534738058914875,1.7040156257253984,-0.6792056990808831,1.2948359875350548,-0.5334719395244548,-1.4334106793006938,0.2174794146780741,0.3045278299679605,-0.5853792738793904,-1.291740465785668,-1.5531944992701996,0.959207081326182,1.1144063210638526,1.242038256868404,-0.5626434462721117,0.2923400737385157,0.38910565798246316,0.8593078239664033,0.5537241709888775,0.3657476042023291,1.6969769562980719,-1.0773257127021871,-1.462648684780203,-2.800672221486912,-0.8786568088622807,1.2931038516222153,0.9692473316144409,1.1453290306947383,1.3886866438534426,0.42828254002009675,-0.02538029396569984,-0.3798076405212596,-2.3563431863383424,-0.21807978717995175,0.8046030292128673,0.6420444530905038,0.14644985094025592,1.0041453784398071,0.30182795438040694,-1.3083420549203268,-0.515380865084708,-0.7684681143256766,-0.7313849540315084,0.15606633060220368,-1.3424463015881098,-0.5674827797912324,-0.16219165010977765,2.1443298711596452,2.9319253168385653,1.3426731515572516,-2.808006877979594,-2.012460488795989,0.4722823984869946,-0.22218211481616731,0.8809567812431972,-0.5902327088809156,-0.6099115504356177,2.580955948325355,1.2396234568804239,-0.790147383764552,-2.192128103877111,-1.8182030068992165,-1.2500859799571342,0.725843625866957,0.45499902287528204,-1.2902308711356212,-0.6794927250274857,0.7530679378717658,-0.16578390263126963,0.672110410995905,-1.1477230704420236,-0.12176512479535802,0.026485437071586564,0.833677325777217,0.28999127580647505,2.9964711334214726,2.7749889460146986,-0.9500182457682594,-4.273036443666101,0.0021045785241594153,0.04695711377302177,1.9880954080624735,2.3752340268239345,1.636931939265934,-0.039684088891250476,0.2887250916975486,0.4874286289144453,-0.09192079327567262,-0.49035925416661175,-0.5795910284555043,-0.19714727715878713,-0.9140932186147792,0.6131655852163396,-1.6106177788836082,0.6035280962205949,1.0987095597936598,1.0984913862632903,-1.2408900637409015,0.7152746195831163,0.575149797307505,2.207763812775158,1.4086706069382842,0.15593598791638547,1.0301681892139853,-1.730333859947733,-3.3260328820492977,-2.3453231989679098,-0.3958964331420139,0.12127929652604966,-0.30548983741873864,0.933714516792819,-0.953263944497527,0.9125397338566167,1.806871674066803,-1.2380425832082869,-0.888748298372636,0.18475774775940756,1.4845757542032096,-0.8755428560581576,-1.13737907643045,1.4941750938920009,0.6459281449260414,0.3405235597643221,-1.1565087314163096,-0.6240844054669258,0.30796224271107697,-0.6561783410220503,-1.7937469102640469,-0.22283700736592593,-0.08337830389293935,-0.8606324643707155,2.168991876310407,-3.7242744535862644,-1.9650664993960805,-1.6493990984233728,-0.869436026790821,-0.12500076545320013,0.5801174276391581,-1.8829436572399016,0.7177704274402045,-1.1305002071978714,0.3762919502455566,1.0718346054002026,0.49958380440377137,-0.9989895130343661,-0.6276245165258636,-0.7731211213420909,-0.056488391756022195,0.06991101055238357,-0.40427939946914,0.6293185833379483,-1.1193390551213283,-1.9689367161173068,-1.3976612193817846,0.19622573693836828,1.513274542131823,-0.011649443569701809,-0.4197425069672895,1.2292878506006841,-0.634656471127437,-1.9173937287230352,-2.6828604504554736,1.2152593177890398,0.4478955454371877,-0.4684775171574194,1.4404351802664106,1.8040060324585778,0.5001147660125917,0.13749800439949705,-0.07937532659954767,-0.474134160426027,0.3562081459543764,-3.1602269665306073,-0.8120973778403484,1.154162190440074,-1.2326702768699267,-1.367374887560784,1.535409760963089,0.821153947434493,-0.2584938811626515,0.24325368392425772,0.04510897017657628,0.5949552328886936,0.2831096744019778,-0.5549176983450436,0.00612652068273432,-1.6677721550105227,-1.8051529922059921,-2.6335290186769047,0.19062519239936646,-1.0267443369366418,-0.07611260356543562,0.5326602145108231,0.07309863199268396,0.31920966116916094,1.3132502514334472,-0.517875848478987,0.9608099042530972,-1.579378192487039,-0.04975079432418261,-1.164614569433659,-1.5020239279135017,-1.7939178199981234,-1.3733727249398855,-0.4001202744314083,-1.0150768728418844,-0.4808491366964548,1.5776874206044544,1.52860448936682,-1.1268234031788493,-1.3803280863717267,-1.1443094514037806,0.6500147169006435,-1.1888599139932587,-1.211486246282199,-2.51922415880477,-0.45765094058836925,-0.1358428205859022,2.0859332483937036,-1.6473813999981015,-1.1348269171232164,0.6890887299724735,0.15729004421996043,-0.15416080086756725,0.7337245046278313,0.5209135493746231,1.448749105500721,0.33634698378683126,-0.06837974623183928,-0.46763702784633165,-0.23813160117594295,-1.0616280745813647,1.0091604602575435,1.1438576906120985,0.539538642621813,-0.5294560094937399,0.7745519331545982,0.295269770860287,0.3924960384269138,-0.48023353623072407,0.6917440545872707,-0.26280515838685586,-3.4368982220332134,-1.8310151845565745,1.902848712821971,-0.8178237921210889,1.1970121927465776,-1.8080686671054857,0.29040164505743443,1.1060975757787332,0.5488704257472405,-0.046135094973583674,1.224480612658732,1.6341009984761876,-2.392929273676993,0.630456862894962,-2.178858471320074,-0.29287597244018804,-0.38639469883252314,-0.9096686540206412,-2.0023823280412167,0.485516505702034,-1.0077272344085542,-1.2631682175711123,-1.074862910719975,0.017791304624471378,-0.10223757392489911,-1.4669829948805468,0.3007791899151273,0.6734903384044257,-1.5964259099474984,-1.1350339414082713,-0.32702374353933106,-1.4183968019074418,-0.17111164886899216,0.4562961081323994,0.29995083347685725,0.06140805059768821,-0.7052241621592839,0.9057462244282346,-0.3680944018386111,-2.039732424390714,0.20142640389062402,-1.7620272203921434,-1.7164563259177354,-0.3187347641995056,0.11251969849890865,-0.1643391561194021,0.6622959851418234,0.10936792576711159,0.3290719637841904,1.273832528989134,-1.0433117545467516,-0.13221462638314577,-1.5363658330377088,-0.19827898427611632,-0.7375259356185483,-3.090336387864447,-0.6038628529271027,-0.7728365664397906,1.1407180903317047,-1.3492354705869358,0.8968437130757858,-0.9219113726263715,0.03793574582238859,-2.8909101808017423,0.7989441866824116,-0.1929542348775682,0.13368893503821236,1.4555892926343597,-0.5315017389295076,1.0383222336268287,-1.722176504771302,0.2724623316571867,2.1542463225505357,-0.223154048415079,-1.570269266962348,-0.17537845586577241,-1.2276200025778192,-0.142945058800034,0.5116958406052726,-0.9435992141631341,-1.816971114859507,-0.5975647283716448,0.33656729250520506,-1.8209449561097684,-0.4430634265548153,0.6338127669428074,0.4283072922059342,0.04835676954973048,-1.083547266484008,1.4849583690357326,-0.603525399612663,-0.5068894231878319,-0.5840986583737713,-0.4861468726427441,-0.5692543993177377,-0.5588218695695563,-1.0546321839245567,1.1897515201158992,0.4149443950764817,1.4596127085629982,0.8337185280298476,-0.6015170942802288,-0.4361383251913286,0.09768004097574959,-2.502841037684876,-0.9402578678823084,0.2620832706581336,0.8309757330644966,-1.3888575040527449,-0.9296882014625796,-0.7214447965396237,-0.8034355462617493,-1.3971864795353615,0.7847091660303945,-1.9684686321250444,0.9992723669433886,-0.2138251103900893,-0.6083673822694213,0.6448898645993375,-0.40334973845685607,-1.3551605607564894,0.5671936546212052,1.2536007821735502,0.20223449777732883,-2.149296832879429,-1.3119585311182567,-0.44066065388321074,-0.5843496667880488,0.41156722546805613,0.1362107219349188,0.16147458241116866,-0.2172148518064432,-0.09728990489473083,-0.801640821916385,-0.20747272490366975,-0.28761335877119537,1.3668527688061707,0.49885368332303076,-0.12032097507770366,0.7911794086201062,2.3982772399420846,0.3989125589392087,-0.7819802248581882,2.188560029479247,0.13866859356289218,-0.6280615636533011,-0.6091351362596926,0.17361329141984913,0.5986310567318833,0.716822944455691,-0.34089643422941984,0.45628433783438,-0.6766618453722512,-1.6983434900138927,0.22873780643982833,-0.8235039128134762,0.20108450219787494,0.5306018043332176,0.19615087936505002,0.28149445826702285,0.33938610234525335,0.5248468551357885,-0.7866427147373689,-0.5847697614979012,0.7351026408377996,-0.5474367411917511,-0.9883417001993359,-0.6358594728571948,0.805925587927901,1.6925690033700285,-2.246851782023797,1.5977684542218678,-0.9712594889149819,-1.489445227598351,0.17280114054071535,-0.9579747313164408,-0.7872540734960544,-0.8108780261597268,-0.9905499416724313,-0.1016058501398545,-1.8822185025521743,-0.5261910700929116,-0.3211269298148065,-0.5879873866737413,-0.6820334016310144,-0.33122141466105903,0.032352538977355925,-1.2591374209444903,-0.024545346284899086,-1.4572433654739112,0.8383576950768055,0.16346879404660175,0.40538604081936386,1.334285560330272,0.011963693478376596,-1.7209829945376818,-1.6450512199230598,0.8922144846547327,1.1594682401313874,-1.015489802398617,1.3092377168478724,2.130809224974979,1.3603162026564408,-1.1386802629757031,-0.7982011445626983,-0.7027645778394042,-1.9090926431168143,-0.5979687767622397,-2.6044489351020172,0.0935121129534318,1.2460127781433705,-0.22591035472033946,-0.937104558335054,-1.2420941447834848,0.30835345847569645,-1.1578852916570141,2.0879283531399526,0.15178906174003376,-0.9566914616841733,1.6540589774081549,1.611736587370919,-0.8810464199259809,-0.6405594903936215,-0.04097298436393455,-2.2816056563525287,-0.9366217632908372,-0.6075666831138026,-0.09691221724934586,-1.382805325123253,0.5872709801125386,-0.03225225325672097,-0.6063655507530595,0.4022163157230187,-0.7181471284994329,1.0831551626575269,-2.4494132564972966,0.11238278355461241,0.728360808751114,1.7098254883918287,0.5290593752025771,0.08948983131372555,1.0762778117019898,0.3197045091368713,0.28406945930588545,-0.044202324678133176,1.0842815926751679,1.4161825247507538,0.08823865164564473,1.074922279730229,0.7349665835262763,-1.4138328652095,-1.1382516421658408,0.7692866643445725,0.48908876844835447,0.6540601690841722,-0.8903060976155305,-0.06339456457948091,-0.9401468414079112,-0.992615071008946,0.7294955795378645,1.7604153229981296,0.2586692179096307,-0.44554028003546803,1.3504605754175247,-0.9219963560712282,-0.2970578602267864,1.0726234547401836,0.06606965326294482,-0.25656756006449105,1.9259764922553286],[1.4178591135785936,-1.4975938041637398,-0.9191454272120846,0.52093998028417,-0.44511856132495126,-1.0347839439782283,-0.8891718498508845,0.4302590744771271,-0.26292785998022555,0.7393106329578478,-0.5025016534055274,-0.6280101423020872,-1.140200332484367,0.5189340664712567,-0.46043194675315474,-0.5282740183878855,-0.5589443790324485,-0.6013312606395438,1.347662942150163,1.6132744590673047,-1.8138671967402187,2.1540560620190368,0.6228299049478386,1.4313165433843689,-0.2719594248284314,0.4369754247570695,0.9582866928487983,0.4721383405351511,1.6607350178498803,0.5400099512550809,0.36837863291306955,0.14391606506231422,0.6183768201745424,-1.0850872407816283,0.11038642699848099,0.11932661627771246,-0.9873182103527358,-0.6636722605874937,-0.3302785118812143,-2.540045601232892,-0.5372327241618519,-1.118629156131086,-1.3393825735178955,-0.5942803108417988,-0.6692896354163992,-0.6192275810486693,1.8422408841089546,-1.9461659224134187,0.4971401817778151,-0.5081528015264897,-1.4766542721680103,0.4101286718009,-0.22167319411126415,0.915391140317366,-0.5088679141136604,-0.007458011432629922,1.9840516676981217,-1.5642622209386838,-0.4505547309675986,0.16020316989348166,-1.0936262025506376,-0.6898962132651698,-1.0622720155284588,-1.2007015119224491,-0.7676804297409536,-1.3486163672317373,0.349825531506875,-0.5122592783540867,-0.29544068126133677,-1.8442473632945062,0.2196176691506739,-0.7453813679556126,-0.11306726532177745,0.003178848473716033,-0.020728517808255294,-0.378497984656947,0.31999027470863034,-1.1224713654845602,0.005703399352321128,-0.0813102572830587,-1.2912425001354042,0.2594397077296822,0.3811862755888761,-0.5832244198741121,-1.0552957036106807,1.518595178913508,-1.6009417572953106,0.39558996995038814,1.093710980711532,0.7195007578687611,0.9326585027513232,-0.5844129890290306,0.3712134920142407,-0.8694441388937095,0.4646493672551766,-0.4237579202556032,-2.5260637479220835,-1.2786617044135038,0.568786249595634,-0.5805746242159439,-1.0835853555352497,0.7865851015835589,-1.9743429593282984,-1.4825688838519455,-0.5255488958122524,-3.233307362393483,-0.17074231629700962,0.016779110642548972,-0.8929530317970906,-0.265713315346977,1.2294703343417335,0.7974248995994886,-0.09215134664061293,0.9698275292906139,-0.5898701753172502,3.26078080424503,0.5538363297362996,1.5453349886269567,-0.7265092936845587,-0.6623778425630407,0.37537255178685236,0.46029544892852026,-0.2716443747920434,0.08287014608887423,0.34193697160854714,-1.4554311151129011,0.4447687558881955,-0.24692323456166998,-0.18882065626098213,-0.38149727624743957,-1.4810557237293445,0.19003186221198212,-0.6055862678265185,0.9974577906943212,0.6505262749474449,0.8890456623567877,0.5273463422207185,-0.19308137636445516,0.038248481390917445,0.6934476700011575,0.5343736791086056,0.8798935544892896,1.5393416995566607,-1.3900782808154581,0.13013242492569146,0.2990076036320183,-0.5585849036408808,0.2961835997015738,-0.2894621955008344,0.07903766614171993,-1.6869377289751206,-0.5011421173354611,-0.6406124736503584,1.0701020130278212,0.45729606157483593,-1.3830458538358479,0.14327415572720287,0.11763969910139561,0.5360819360497356,0.519513079154744,-1.4135411950383823,0.44469247233126646,-0.8661489731637734,0.22311095646235385,0.10318892936896631,0.26538518105416736,0.6152948863058842,2.9474958775792675,-1.1937912159904494,-0.044014948047107906,1.280528167766802,-0.46969235135262694,-0.4843363716594711,0.6669439780282943,-0.09541906669699289,0.3895747656608303,0.7460276965590253,-0.4882507395759587,-1.8725501953027102,-0.2686207462203201,-2.3581506244395247,-1.469451846613447,0.7447200699617119,-0.8893460140572047,0.010544900914900414,-0.3092125796139043,-1.1788950294430567,-0.7852894409409996,-0.3389735295091256,-0.38223399235528266,-1.383791165129256,-0.31541393201568796,-0.13922201526610184,0.19002300594203722,0.663330005650109,0.06795906078653764,0.8960436800019507,0.621546639035003,-0.8326898717482896,-0.09694051719475862,2.095885695262272,2.343684163872164,-1.0167228554360979,0.2542453161767693,-1.3488752900103704,-1.1936291213627805,-2.493553060046885,-1.6860491495803225,-0.20354304950976784,-1.0325994757548307,-1.4520294954233963,-0.3005253331733969,0.016435437639427546,-0.638321284736737,-0.5048120587556826,-0.4537737875957329,0.05616165646681822,-0.4872415836240146,2.125174706026693,1.2172244512532986,0.5821890538978884,0.10306968795975875,0.8851985071306651,0.08840744118098177,-1.1953339023617675,-0.7283660751375693,-0.21632399460666712,0.25973229432086775,1.1648656412557499,0.6838303810460902,-0.6088828126018219,-0.7769755802422188,-0.4779733705113427,0.9200862814401938,-1.0783725059995135,-0.5005602549982979,-0.0005395432706877423,-1.3427090951948175,-1.0461405230497047,-0.4254839576773444,-0.47581879912411645,1.267703953240117,0.1874961640157785,-1.3019409587075554,1.0263080541460186,-1.6990514772494414,-0.486537692621623,-0.3470443775736993,-0.029668688976763197,1.1377871285041554,0.6967896004287055,0.5837241008096815,0.9015638537643752,-0.8383629860984417,-0.11332509706054317,-0.33543405336294824,0.3557435149861794,-1.594797870542317,0.6247993802622345,-1.4265338817684485,-2.3374151115458632,0.853725748399093,0.8094102856956978,-0.8579894599434009,-0.9775175365566714,0.24700711684675347,-0.9323720776165703,-0.6033303734474131,0.3291599864427251,-1.6846147564241194,0.08957424719546718,-1.1015310185553018,-1.1630847145799108,0.5424472529354016,-0.8623504141826581,-1.2106370203525567,1.1667465031133135,0.6266432709158515,-1.4143112957097403,-0.9248208770667458,0.07628757172800346,-0.29976323693626783,0.8466309778149714,-0.8259802638501876,-0.9824644472084054,0.3416150034202954,-1.3189068426817876,-1.726106396071361,0.07629353766881378,0.8428949243784266,-1.2656213166994714,-1.1243553723838857,-1.8657428803173084,-2.1156291462426804,-0.41475673669367685,-0.028498980989578718,-1.0889072447139043,-1.1253057140322218,0.3093289352151,2.2642181412331466,-0.3212088799105189,1.9592055725205668,-0.04494370096376061,1.3262387659014379,1.1059930368674524,1.7389089973767122,1.0535719986522631,-0.2825882110509864,0.055833592972919045,0.4472582225898565,0.7230870578627933,-1.357070150574331,1.3018387881754334,-1.5256239181673243,-0.1028248828698931,-0.34928946933734206,1.681401086582814,0.3107771207345753,1.5912157240503584,1.4780578266396385,1.6482666978404432,1.2957966900834537,1.078456198609208,2.1151149784577314,-1.7345182702820368,1.4354599660824654,-0.4456771833281738,-0.14240579680962354,0.6300288227317778,1.451883612645801,-1.047612476140966,-0.3737554145679224,1.128763395907083,0.9775778940049145,-0.6237433031036057,0.46039786537876454,-0.6183622364254885,1.466482331609298,-1.2030207628343705,-0.9244297648172616,0.019217438097431074,-1.7869318022821736,1.7825002682110462,-0.0180224751913767,2.073466729261906,2.2226610048359325,2.015785134494346,-0.9189996444369022,2.4959385290413336,1.4192251780910854,1.8531633066003526,-0.15508466640858307,1.9101880404086253,-1.8379712792750917,-2.2736002052921114,0.1393686937506979,-0.0058011286997357685,0.16867525948556863,1.8073355451639443,-1.4087555963653526,2.3202476629110405,0.08977383153210766,-1.2932292105425922,0.45668165195735066,-0.23028287178203677,-0.19432915156612632,0.917876682352287,0.03710351531081238,-2.2979957164473546,-0.4308006542855551,1.4434858563830686,-0.03906061911220011,1.1045553485505661,0.9996600001825128,0.9790823624312881,1.2623378456727397,0.750328728595673,0.6886673247840499,1.5911256801784128,0.354334900283712,0.7511702939995001,-0.6339936025676569,-1.8442009040037586,-0.5905351898205702,-0.7865922435815096,-0.795825671194144,0.08531534510947966,0.8502972119406456,0.48396691303994865,1.5002044521815756,1.0921299778735039,1.0018754147165327,0.8129792439304253,-0.33964092891077374,-0.16203674645387675,0.6791507262227671,1.09035360697627,-2.211421996891722,-0.35724479011594634,-0.9027959163322886,2.195059101861476,0.2658631759152005,0.6785074819573023,-1.143259431332062,1.5673856975757372,0.9780361208199297,1.636127093157115,-1.0576495698421746,1.0609846351004717,-0.7879982330103268,-0.7997978939952032,1.6276120245917696,-0.3290719486931671,0.42791172338892197,-0.013072819976820603,1.935833915637828,-1.5270544638696493,1.2415033230130603,-0.1122626342808722,0.2168627111121797,-0.6406976821220383,1.971377779094684,-0.3533776561534194,-1.1741933018846633,0.3571800292065396,-0.5649638843952371,-1.7848390641921046,0.1627969788717311,0.06132558599591132,1.2722998497719142,1.7122682453872493,-0.6236037821614879,0.08828377515483488,0.6526928954175584,0.13808570349404997,-0.8959257056346143,1.4319949929064162,-1.8760368542018928,-0.028427214991695232,-1.567784153278029,0.9860032256350362,-3.098808773507618,0.5678580577392905,-0.4462217766958297,-0.14788575979546606,-2.530600452455847,0.7043205928309779,-0.7584084154837742,-0.27408788859926375,-0.6993723874229613,1.9362194780280275,-0.7891149843225824,0.48659273288906113,-0.8111887760861145,0.17505063652713024,0.44773100207518635,1.2103418369078507,-1.3726162792492085,-0.9992739752781931,0.601670381197227,0.47643034714703314,0.8223871413223898,-0.812758973425365,0.3473603218441877,1.1476903160494223,-0.055721360518735406,1.2055274240965408,-0.03744816670991977,0.6548176219341985,-0.5123213307921181,1.0537790902199269,-1.779754015223982,0.2037631089813932,-0.8114235262639938,1.613242923838504,-0.617705962423865,-0.4576577325231936,1.1206968595050995,-0.5357133045896436,-0.8598624375788047,0.793969817973553,0.46624636261110874,-0.18409863075529306,-1.529776974288543,-0.5698641375257474,0.2689875923931628,0.6010688072652216,0.10278716638211967,-0.11158403112556615,0.5736532915036988,0.9430182719179248,-0.6443111628322686,1.1595235168520068,-0.9301567084807422,-1.8241389289834968,-1.015869615610292,-0.156479659000863,0.2326582710749279,-0.6337555233504677,-1.6997303720473549,-1.1697258598716662,-1.8802738784641548,0.4243695956832992,-0.034407629942940075,0.6530077891719009,0.16685918808154582,1.244216191953479,-0.9503072742378416,1.2048004040712128,-0.3893100243530329,-0.9997695726367798,-2.022084350788564,-2.478811602119169,-1.068185532096917,-0.1954762766297544,-0.6694224278307866,-0.8420718268277789,0.6184445387022031,0.13472106974955347,1.5786139712220504,-1.9077044218089252,-3.027776797632039,-2.6383485985486295,-2.4490827000065347,-2.4516387259901418,0.6582678363646959,-0.28196569430928803,0.13363156814926083,0.6073002256823822,0.8605771075781042,-0.02109674547314976,0.7426012844385824,0.11243749398929577,2.790946998690188,1.070778249773188,-1.3181506627391921,-0.9635192126470313,-2.452998011348011,-0.8429783421067678,-0.8644450061991062,-1.9775084557318239,-1.3229610550278983,-2.6782104123601997,-0.9192899889506281,0.7776625466137792,-0.3470817854090709,0.8118481273886927,-0.029698910571732986,-1.6692522428332741,-3.1695173007426356,0.3268579943020695,-0.39586480862705614,-0.5770560418683951,0.10541125556501496,0.47166740171214616,0.8997066060488115,-0.2180687131353031,-0.7625376515734273,-1.0883933258906036,-0.34857371217195077,-2.189847668317156,1.0355488115442835,0.45716792849327065,-0.07953011062819287,-2.5647949452266925,0.2646137514297508,-0.11782515415694052,-0.12952862211979432,-1.8887397656836833,-1.934648680408083,-0.8671235616123847,1.1892084355631423,-0.961544928733395,-0.1091987419860764,-0.8260078022800789,-0.47556021821906763,-1.3100949984922228,-1.0421546367418328,-2.264512629275675,-1.5085430880773827,1.2108405787234766,0.5653872876333166,1.1762604763887177,0.5786423240516926,0.10890653827079749,0.7063059462717409,-0.2802915547139047,-1.3114930286919058,1.109070183357632,0.0263894715068447,-0.10434597287217039,0.6477036808688312,0.11073784529545408,0.02988694343019341,-0.6666616598511419,-1.2032208754892004,-2.0449613146440493,-0.23079946986991856,1.1171774206015297,1.0654518468205787,0.4708548072137529,1.2498976421655237,1.8419033044837168,-0.9948767055010425,-2.1601473320110394,-3.2071905886884107,0.4079197207769921,-0.2351314939140103,-0.04899864954339228,-0.12235336317110404,1.4423557198625234,1.2990396389305237,-1.3140141728593613,-0.85536258226685,-0.26128664893385833,0.36643941870960106,-1.1175977141992157,0.8438451198139424,1.7137564360568198,1.1248213373862326,0.37524106239069827,-1.7463522551956854,-1.366006339370657,0.09627551858490728,0.7962951616449856,-0.9450060813764091,-2.03093473473782,-0.04487108248803397,-0.7788889749647248,-0.4402051562985542,-0.8229131310846279,0.6327694505714638,-1.8863820948074164,-2.9740744216527566,-0.6872298874782716,-2.923804271257024,-0.29480856316266035,1.2139536951252898,-0.7758911231548775,1.8077317633596057,0.39916840897129435,-0.6852896326093749,0.03644511601973057,1.1039467938205554,0.008902755282164559,0.7835910133983505,0.8729798037368122,1.5792952627977452,0.3182220568871796,-1.5439324999797226,1.0450510368351094,0.505570329553195,1.513231444514916,0.8294784858232249,-0.4851829691043874,-0.9697563406727046,-1.0807712736696429,-0.5962731078288496,-0.362122281168969,-1.3195275970027782,-0.3042232819165756,1.5125149515488265,-1.9983404903621247,-0.35078409226728685,-0.804985191027726,1.441027662512805,1.5433818096683969,0.8875712181212806,-0.5119046384721699,-0.7388697475350996,-0.7819010142777867,-1.5699931254793118,0.3501155834500772,-0.5485147242559986,-1.169736853062885,-1.824235601688529,0.2903414491378292,-0.37516150173256196,1.2241140192854338,1.06036809205558,0.8931754156162743,1.4877891721626313,-0.4369987371485915,1.2075151473008012,-0.7187301844986985,-0.7696319896925644,-0.3693454838503247,1.504168739273489,-1.2517092480352399,-0.9215703389438626,-0.7070700177552207,1.444302442787919,0.2914012797553429,1.2638762480421035,1.8941225606141425,1.9887219684562534,0.404285200666135,-1.1696276558830367,-3.041571049964178,-0.48502409347246256,0.9191647257525873,0.5007929831383044,0.2329841751501726,0.028487593642503327,2.1608277182572744,-1.430691581392051,-1.3176204485527498,-0.15998625458406765,1.0367626572867557,-1.4768607765935284,-0.28616837390578603,0.11540879152170413,-0.14055660636748235,0.3704862578026843,-0.06418727811769484,0.47856139669845643,-0.854312798757996,-0.14728179445683626,-0.7888019164506461,1.0524278209222035,-0.019803344878158064,-0.011716538590353832,-0.37029256571099367,-0.4688239743329932,0.5326806324749165,-0.17884230133009468,0.3781453982034315,0.8776799698165801,1.3038614912321669,2.577668934069088,-0.20792618668695145,0.5033649483647168,1.562609276667111,1.4451112705616604,-0.70744937461852,-0.4344750938571275,-0.8995963580216897,-0.4191583869203961,-0.29198094185123036,-0.08688531377373923,0.40213928131533305,0.6178686122348424,0.25966606533770165,-0.007442774657448482,0.6846682433309085,-0.9229914584676757,0.227465786131128,0.001434399997829097,-0.4100554958576398,1.531258489380493,-0.09456193133618275,0.9537124339137575,0.550358649750428,1.0421567911156377,-1.5080389357030994,2.2528030617951815,-0.18808881105054281,-0.42849712632024994,0.2171472392485094,-0.24380796468642,1.2341196820804743,-0.09825514909307766,-1.6320894317358465,2.018259685671318,-1.4215744780875128,-0.16256019382520212,0.6143659699082147,-2.0094964688005565,0.30711377351062574,-0.5507258865457815,2.30368084637906,-1.5284987968880248,0.424276057405799,-0.5116704403243995,1.296761645744187,1.1749561110915783,0.7147530431485764,0.7229431378286251,-0.03087005192036552,-0.016226208188927733,-0.4613279262483139,0.24883738247753395,-0.40121758041042466,-1.1904885150511657],[0.7374595596998019,-1.1215531410744022,-0.658174340318046,1.2022106870877847,0.01969899703626715,1.4251531593786655,-0.09265410995734191,-1.1543493884155622,2.7035338064213033,-1.242497453460006,0.17373067252743774,1.319357863049045,-0.4580522423837497,-0.7776784908485602,-1.4187118921943322,-0.42300216742509505,-0.0997695209668588,0.6473899301043776,1.175197936445324,0.6687858996942325,1.2557503202010856,0.930361740043704,0.7246390756975845,-1.1706796142157843,0.6285743530894737,0.05163354204164011,0.45389518554387825,-0.6077092232651664,-0.6910418125308893,0.1000033339690356,-2.784629128362811,-0.7929864857571739,0.6779890023579874,-0.07083095922927336,0.1838970067250753,-0.22943456609938268,0.42522160168049455,1.5808428213103676,0.5850803033049415,-1.3611773563411638,-0.25048013738458663,0.799033202588427,-0.3673902749601727,1.7556388913157064,-0.2759918859068334,-0.06236160228691304,0.4963362402316458,-2.1625704975255626,0.015938267601510757,-0.29577263784139335,1.2635877104949678,1.045769818325281,2.6286816438130964,-1.1002102435700056,1.0494328472820669,-0.014718515309649193,1.7819112256864462,-0.3323640245054365,-2.9635952520890396,0.6835852790744206,-0.24995282206936423,-0.17698012425421672,0.5655796904659386,-0.02886430767399251,1.2066809023273306,-0.8980553485780478,2.90860976290339,0.4665150959623139,-1.1585058109443713,-0.729600388075239,0.3537865543945372,0.41767659260118883,-0.08703358561516242,0.977133367786613,0.7549318771696941,-0.807851219166928,-1.1602203426888387,0.891074510580775,0.5391046999859181,0.27908004150568594,-0.05320261375909485,-0.16939710881924377,-2.2240296369697528,0.6394764194772121,0.019847273998525674,-0.16391015917404833,-0.41990196997332285,-1.3201522496639626,-0.5974493682463083,0.3263423747066884,-0.07132974955920897,0.2519834494588859,0.3485000060901133,-0.7430830577158479,0.5581640562297662,0.08692176296626003,-0.1950589809663467,-0.40347218782312744,-0.5452733090379849,-0.0637202255242011,0.952459433252939,-0.0033691901542620274,2.970788095858672,-0.27849805459431304,0.6524972444384338,0.8134044136878079,0.9692906601318456,0.6815890050009038,-0.9905053421419381,-0.2572906192137871,0.2916929114507246,-1.1597262844602987,-0.17178005174368885,0.9578582007250123,-0.4919740319628464,0.026922947858886576,1.3568928298692007,-0.2403720823041045,0.7326914042785859,-0.7428423691061952,-1.035157576506526,-0.2809009929854102,-0.8627949885422143,1.5544936928849753,1.610440227197802,-0.8263946171586585,-1.3080400667890546,-1.1608330697310587,-1.287999349456826,-0.7646244532033819,-0.5826146866792999,-0.21279258942224072,0.539186560828179,-0.6495404520152737,0.8861896730490072,-1.8230022375619201,0.3994752441596434,-1.7872698548156838,-1.1993535899125856,1.0787475341456438,-1.8702013609614512,1.5814904640641578,1.4958887885946117,-0.32174438794821464,-1.218189136525876,-1.002590055116802,-0.5071093665513274,-0.6929236481243966,-1.3877519723139775,-1.096577135662779,-0.34178596003800127,-0.1744893457868571,1.6578434680735028,2.799066469825191,-1.0780854017134205,1.1527064538448335,1.180252884846469,-2.394760710857154,-0.7527770390988603,0.14248478471405518,0.28133375585166787,3.4920404111076944,0.7988176236319852,-0.3158007837215827,-1.6122499636072953,-0.39559437784905926,-0.7156771726779843,-1.0513140262045124,1.0138822430691756,-1.1569941737410725,-0.6785608086605709,0.35677146650782715,-0.4793076739720245,-0.21241783757238047,-0.5308750088744533,0.9706699071146565,-1.5871773548035866,-0.08209593531712599,1.4817430921206878,4.490145175364425,1.8883772592324846,2.4228792017279828,2.720542425212134,-1.0929175822902628,0.9626228983329632,1.632305976000727,-0.7349525652881869,-0.8799287478934107,-0.4334686261993625,-0.30906041475243407,0.9024262567099142,0.7192729392262979,1.142074488097013,1.948258432631516,0.3563434209454738,-2.0550716627430803,-1.205547325343325,0.17085025518068894,0.2249074913774412,-0.3359897825497017,0.02909096239057172,-1.5258626830133526,-1.3037455330095025,-0.972391860273052,-0.25096540550307156,0.4481315999951279,1.3540489563624654,2.0392017713960082,2.322510713273158,1.9396737075148915,2.136452714005628,0.20546404340274044,1.3478828414769282,1.3596860493446234,-1.8792680836973867,2.8723522210947525,1.2469948854748467,-0.28503486672254247,1.5481610319045471,-0.9744422715865756,1.8916145863374905,-0.11719068063503563,-0.5642754071399485,0.0586913026779884,0.23116405482443875,-0.8735685195912746,-0.7529657730294742,-1.132748330351357,-1.6626921511184416,-3.59068072124461,-1.2435983267049915,-0.772958104839839,1.681417376299545,0.23757377564097082,-0.3264512621111134,1.3340228037287865,1.369081770616725,1.9551447839182527,2.48941503512657,-0.779855294590912,1.4544300176321852,-0.7332629194946056,1.8309615137528146,2.7350344604377193,-0.22239467712202995,1.4379365079386364,2.1923722832061396,0.06778626605158325,-1.2649036495412047,-1.4417639860397975,1.2708232956724934,-0.45780175589898,0.6133056861569786,-0.1944376148118534,-0.27185810478930617,1.3822506204539864,-0.551933506879045,-0.1549484961874227,1.5675422355904507,0.08906174158415324,0.5959197442770948,0.2778711516832375,0.3828535054467293,1.1435489903373215,2.74565635564061,3.206178289108993,2.5624732251252276,0.5518526555914886,0.7178382894945048,-0.6483886771107644,0.4331985993962647,-0.7645265522814235,-0.5946770955510716,1.0877511348257733,1.9878350260778888,1.5157841633956546,-0.37947902775496295,1.1639831827968437,0.913160841345975,0.8547300296096978,2.5456702635081405,-0.016252417727237678,-0.1912176574069394,0.2838950090184852,1.122603705677942,0.5225599273830229,-0.5477575170437907,0.2847348242522369,0.5109566026465782,0.9658489790279572,